svm_type one_class
kernel_type rbf
gamma 7000
nr_class 2
total_sv 2089
rho 0.450916
SV
0.09160460257587677 1:0.00699591 2:0.43105394 3:0.84353393 4:0.98499638 5:0.04313726 6:0.0035641 7:0.01161898 8:0.92788702 9:1.0075129 10:0.00581624 11:0.00014349 12:0.00404164 13:0.08556853 14:0.05486691 15:0.07683554 16:0.04005515 17:0.02622983 18:0.01980945 19:0.96682531 20:0.96798319 21:0.96979243 
0.01813810641367587 1:0.00705026 2:0.43038234 3:0.84318179 4:0.9850294 5:0.03137255 6:0.00357346 7:0.01167028 8:0.93684185 9:1.0075141 10:0.00584405 11:0.00012919 12:0.00319988 13:0.07653075 14:0.06018502 15:0.07535113 16:0.03786645 17:0.02448201 18:0.01829523 19:0.96665937 20:0.96780229 21:0.96932656 
0.01255890970792184 1:0.00745976 2:0.4254753 3:0.8506844 4:0.98495948 5:0.03529412 6:0.00391118 7:0.01129102 8:0.93902242 9:1.0075601 10:0.00566648 11:0.00014524 12:0.00337441 13:0.07912813 14:0.05494155 15:0.06798385 16:0.03285599 17:0.02091187 18:0.01588216 19:0.96446991 20:0.96649402 21:0.96927202 
0.1492304824625243 1:0.00701673 2:0.43079376 3:0.84758377 4:0.9850027 5:0.03137255 6:0.00362591 7:0.01142126 8:0.93935466 9:1.0075666 10:0.00574592 11:0.00013346 12:0.00325761 13:0.07897233 14:0.06350265 15:0.07481647 16:0.03673395 17:0.02344916 18:0.01737475 19:0.96714771 20:0.96842057 21:0.97031319 
0.07110527264451218 1:0.00763186 2:0.42348403 3:0.84520632 4:0.98502761 5:0.03137255 6:0.00388984 7:0.01166839 8:0.93040425 9:1.0074954 10:0.00587956 11:0.00015698 12:0.00399494 13:0.0863791 14:0.0515621 15:0.0751005 16:0.03938189 17:0.02570795 18:0.01943867 19:0.96174735 20:0.96335727 21:0.9658398 
0.1723299025969176 1:0.00700176 2:0.43098289 3:0.84964716 4:0.98502141 5:0.14509805 6:0.00365455 7:0.01123376 8:0.95342022 9:1.0075059 10:0.00568212 11:0.00012266 12:0.00228655 13:0.07773251 14:0.07012998 15:0.08610599 16:0.04075981 17:0.02483512 18:0.01761714 19:0.96760279 20:0.96854532 21:0.97015303 
0.1338295696463557 1:0.00685316 2:0.43284434 3:0.85010195 4:0.98497939 5:0.05882353 6:0.00359387 7:0.01126258 8:0.95674998 9:1.0075134 10:0.00568957 11:0.00011739 12:0.0022411 13:0.07632663 14:0.07184546 15:0.08697676 16:0.04150289 17:0.02507093 18:0.01771581 19:0.96820366 20:0.96913302 21:0.97054231 
0.01728847020555102 1:0.00779435 2:0.42164975 3:0.83222181 4:0.98505765 5:0.04313726 6:0.00372094 7:0.01236603 8:0.91379797 9:1.0074724 10:0.0061968 11:0.0001601 12:0.0043476 13:0.07923799 14:0.05453888 15:0.07449828 16:0.03863336 17:0.02581381 18:0.01996859 19:0.96056008 20:0.96226037 21:0.96464539 
0.1689261629032027 1:0.00787445 2:0.42075989 3:0.83308363 4:0.98506469 5:0.04705882 6:0.00377348 7:0.01231392 8:0.91003984 9:1.0074619 10:0.00616051 11:0.00017123 12:0.00466731 13:0.08207987 14:0.05554675 15:0.07495274 16:0.03940771 17:0.02603986 18:0.01986541 19:0.95931351 20:0.96112233 21:0.96339077 
0.04722500319472886 1:0.00796285 2:0.4197908 3:0.82433701 4:0.98508257 5:0.03921569 6:0.00367123 7:0.0128625 8:0.90955162 9:1.0074552 10:0.0064172 11:0.00018206 12:0.00498752 13:0.0831366 14:0.05316273 15:0.07693503 16:0.04119145 17:0.02771388 18:0.02106978 19:0.9570877 20:0.95853233 21:0.96084768 
0.1428862618268894 1:0.00813942 2:0.41788143 3:0.82431024 4:0.98508966 5:0.03921569 6:0.00374279 7:0.01288823 8:0.90242058 9:1.0074295 10:0.00642586 11:0.00018001 12:0.00498526 13:0.08177501 14:0.05183139 15:0.07486932 16:0.03982139 17:0.02693754 18:0.02075782 19:0.95620376 20:0.95788121 21:0.96064055 
0.3015929852673359 1:0.00680863 2:0.43340701 3:0.83059806 4:0.98508084 5:0.03137255 6:0.00325652 7:0.01243552 8:0.94029337 9:1.0074804 10:0.00625834 11:0.00012841 12:0.00301485 13:0.08153239 14:0.05460514 15:0.08302211 16:0.04416021 17:0.02957119 18:0.02246977 19:0.96635497 20:0.9669621 21:0.96826863 
0.3041931502323632 1:0.00863788 2:0.412714 3:0.83738142 4:0.98502266 5:0.03921569 6:0.00421104 7:0.01214604 8:0.91256231 9:1.007516 10:0.00609877 11:0.00020775 12:0.00563861 13:0.08683766 14:0.04910471 15:0.06779583 16:0.03508027 17:0.02379035 18:0.01858879 19:0.95274419 20:0.95592749 21:0.95935398 
0.1525633802131424 1:0.0082969 2:0.41621861 3:0.8394208 4:0.98506391 5:0.04313726 6:0.00408085 7:0.01199272 8:0.9188413 9:1.0074738 10:0.00602424 11:0.00019181 12:0.00503147 13:0.0858894 14:0.05179958 15:0.06832226 16:0.03482658 17:0.02302577 18:0.01747053 19:0.95578617 20:0.95845544 21:0.96192759 
0.1126826409372121 1:0.00756495 2:0.42425919 3:0.83329308 4:0.98505121 5:0.03137255 6:0.00363594 7:0.01231361 8:0.92550844 9:1.0075214 10:0.0061991 11:0.0001624 12:0.00426481 13:0.08442161 14:0.05376412 15:0.07445578 16:0.03816402 17:0.02534575 18:0.01950797 19:0.96082199 20:0.96231681 21:0.96474648 
0.02540923514532263 1:0.00729073 2:0.42746335 3:0.83532989 4:0.9850738 5:0.04313726 6:0.00353454 7:0.0121852 8:0.93658012 9:1.0074815 10:0.00614843 11:0.00014102 12:0.00328051 13:0.08338629 14:0.05880316 15:0.08340825 16:0.04329747 17:0.02789344 18:0.02017362 19:0.96292901 20:0.96432626 21:0.96612066 
0.02043797522654572 1:0.00742488 2:0.42588019 3:0.84445143 4:0.98511505 5:0.03921569 6:0.00374397 7:0.0117008 8:0.93773752 9:1.0074927 10:0.00591849 11:0.00014722 12:0.00372517 13:0.07900491 14:0.04926822 15:0.06717116 16:0.03369713 17:0.0220618 18:0.01697595 19:0.96457416 20:0.96681708 21:0.96933597 
0.01976899504820585 1:0.00749475 2:0.42506668 3:0.838965 4:0.98511976 5:0.03921569 6:0.00369057 7:0.01202262 8:0.93662828 9:1.0074764 10:0.0060669 11:0.00015713 12:0.00385392 13:0.08160815 14:0.05085406 15:0.06909905 16:0.03474381 17:0.02296207 18:0.01752138 19:0.96300274 20:0.96536946 21:0.96793187 
0.1156471742704992 1:0.00801612 2:0.41921231 3:0.82104868 4:0.98517329 5:0.03921569 6:0.00363454 7:0.01312705 8:0.90637833 9:1.0074192 10:0.00655358 11:0.00017715 12:0.0048223 13:0.08022768 14:0.0440423 15:0.0695648 16:0.03701275 17:0.02584267 18:0.02043655 19:0.95736843 20:0.95956588 21:0.96235555 
0.2027187776552962 1:0.00757873 2:0.42409697 3:0.838081 4:0.98509687 5:0.03529412 6:0.0037148 7:0.01203414 8:0.94618309 9:1.0075431 10:0.00605712 11:0.00015324 12:0.0032819 13:0.08465694 14:0.05615598 15:0.07383928 16:0.03713245 17:0.02445513 18:0.01821973 19:0.96033943 20:0.96224916 21:0.96446675 
0.0770935091692638 1:0.00762294 2:0.42359483 3:0.83438909 4:0.98502892 5:0.05490196 6:0.0036769 7:0.01226761 8:0.93619555 9:1.0075511 10:0.00616827 11:0.00017051 12:0.00366977 13:0.08477873 14:0.05899626 15:0.07691311 16:0.03776672 17:0.02423931 18:0.01819322 19:0.96005911 20:0.96181875 21:0.96413213 
0.07147601488900815 1:0.00716867 2:0.42893365 3:0.841407 4:0.98504752 5:0.10196079 6:0.00360065 7:0.01165644 8:0.94579804 9:1.0074843 10:0.00586795 11:0.0001412 12:0.00306619 13:0.08086757 14:0.06193011 15:0.08274177 16:0.0399038 17:0.02452696 18:0.01763568 19:0.96581841 20:0.96698856 21:0.96866691 
0.06408023571000006 1:0.00737483 2:0.42646772 3:0.83658004 4:0.98511475 5:0.03137255 6:0.00358984 7:0.0121176 8:0.93614256 9:1.0075171 10:0.00611714 11:0.00014987 12:0.003396 13:0.07878719 14:0.04943269 15:0.07298241 16:0.03668157 17:0.02432517 18:0.01847066 19:0.96286941 20:0.96457744 21:0.96709269 
0.09712705505154512 1:0.00728187 2:0.42757344 3:0.84113175 4:0.98504251 5:0.03137255 6:0.00363766 7:0.01186826 8:0.92447674 9:1.0075068 10:0.00597819 11:0.00013573 12:0.00357669 13:0.07606873 14:0.05218913 15:0.07018134 16:0.03605284 17:0.0243232 18:0.01870408 19:0.96538335 20:0.96691334 21:0.96914846 
0.1892510381118709 1:0.00726751 2:0.4277465 3:0.82983238 4:0.98516548 5:0.03529412 6:0.00343596 7:0.01246736 8:0.91514474 9:1.0074686 10:0.00626439 11:0.00013474 12:0.00375646 13:0.07572656 14:0.04706571 15:0.07134286 16:0.03737372 17:0.02549739 18:0.0196632 19:0.9652791 20:0.96673292 21:0.96871787 
0.09260438232964047 1:0.0076235 2:0.42358178 3:0.8400498 4:0.98510075 5:0.03529412 6:0.00378258 7:0.01194907 8:0.91434926 9:1.0074256 10:0.00603415 11:0.00014634 12:0.00404491 13:0.07464491 14:0.04321996 15:0.06706084 16:0.03553282 17:0.02418322 18:0.01870033 19:0.96374369 20:0.96578544 21:0.9685595 
0.1116530311355853 1:0.00681755 2:0.43329585 3:0.84385031 4:0.98502278 5:0.03137255 6:0.00344807 7:0.01165463 8:0.93806475 9:1.0075706 10:0.00588833 11:0.00011965 12:0.00305465 13:0.07410067 14:0.05564093 15:0.07221559 16:0.03674091 17:0.0249076 18:0.01896614 19:0.96887034 20:0.96984291 21:0.97172153 
0.2189897885597198 1:0.00721728 2:0.42834353 3:0.83970481 4:0.98516399 5:0.09411765 6:0.00351601 7:0.01120302 8:0.93998247 9:1.0074139 10:0.00570394 11:0.0001109 12:0.00250412 13:0.07533249 14:0.06330281 15:0.07802135 16:0.03834978 17:0.02448654 18:0.01798477 19:0.9699477 20:0.97054654 21:0.97240543 
0.189450383658495 1:0.007637 2:0.42341176 3:0.84282213 4:0.98513901 5:0.09803922 6:0.00376635 7:0.01107693 8:0.93567109 9:1.007401 10:0.00566084 11:0.00011732 12:0.00253001 13:0.07478642 14:0.06188342 15:0.07485942 16:0.03761469 17:0.02488628 18:0.01893923 19:0.96559036 20:0.96844572 21:0.96766371 
0.1280949137137316 1:0.00736046 2:0.42662084 3:0.85284877 4:0.98503703 5:0.09019608 6:0.00386688 7:0.01087523 8:0.94729793 9:1.0074799 10:0.00553101 11:0.00011747 12:0.00242353 13:0.07396577 14:0.06257794 15:0.07583009 16:0.03848971 17:0.02521416 18:0.01891325 19:0.96599877 20:0.96841472 21:0.96819013 
0.1652397561532546 1:0.0065957 2:0.43617249 3:0.85484743 4:0.98495579 5:0.02352941 6:0.00356238 7:0.01101472 8:0.96596795 9:1.0075017 10:0.00554215 11:0.00010325 12:0.00202608 13:0.07128344 14:0.06804048 15:0.08182485 16:0.04144266 17:0.02670563 18:0.01976863 19:0.97047669 20:0.97119915 21:0.97240186 
0.02304376200351432 1:0.00775937 2:0.42203575 3:0.82262772 4:0.98513252 5:0.09803922 6:0.00353959 7:0.01294491 8:0.95481235 9:1.007329 10:0.00659646 11:0.00016487 12:0.00297142 13:0.0935426 14:0.0646763 15:0.09498736 16:0.0482062 17:0.02982826 18:0.02100395 19:0.95541465 20:0.95733935 21:0.95792395 
0.1736942497593618 1:0.00818486 2:0.41739631 3:0.82545692 4:0.98507857 5:0.10588235 6:0.00379242 7:0.01292461 8:0.94239879 9:1.0074643 10:0.00658919 11:0.0001878 12:0.00398918 13:0.09280013 14:0.05186878 15:0.08541321 16:0.04437767 17:0.02923196 18:0.02162568 19:0.95208424 20:0.95381814 21:0.95554054 
0.02915017310384197 1:0.00858566 2:0.41324082 3:0.81660771 4:0.98530227 5:0.10588235 6:0.00371512 7:0.01305466 8:0.93284047 9:1.0072964 10:0.00670013 11:0.00018459 12:0.00393012 13:0.08863828 14:0.05144387 15:0.0798216 16:0.03946353 17:0.02533942 18:0.01880082 19:0.95144129 20:0.95512134 21:0.95626378 
0.1585524623901859 1:0.00818641 2:0.41737616 3:0.81884885 4:0.98518705 5:0.11372549 6:0.00362321 7:0.01308433 8:0.94378465 9:1.0073259 10:0.00670963 11:0.00017803 12:0.00347956 13:0.09575412 14:0.05896367 15:0.09240539 16:0.04836834 17:0.03149932 18:0.02284048 19:0.95245737 20:0.95465022 21:0.95518988 
0.1225349249363004 1:0.00881425 2:0.41095489 3:0.80955446 4:0.98539072 5:0.10980392 6:0.00360605 7:0.01314286 8:0.93003368 9:1.007237 10:0.00685049 11:0.00017936 12:0.00353472 13:0.09560332 14:0.05834382 15:0.08973912 16:0.04678832 17:0.03042362 18:0.02219415 19:0.95100868 20:0.95382196 21:0.95401198 
0.2178679350213382 1:0.00830687 2:0.4161126 3:0.80882108 4:0.98535234 5:0.11372549 6:0.00344397 7:0.01328926 8:0.93674755 9:1.0072115 10:0.00683031 11:0.00017552 12:0.00331454 13:0.0990885 14:0.06231657 15:0.09578201 16:0.05056797 17:0.03240944 18:0.02323357 19:0.95463246 20:0.9552235 21:0.95713592 
0.06691232624650098 1:0.00886621 2:0.41044587 3:0.80149001 4:0.98540211 5:0.12941177 6:0.00350751 7:0.01329118 8:0.92492777 9:1.007184 10:0.00688653 11:0.00017729 12:0.00331447 13:0.08930948 14:0.05632529 15:0.08890413 16:0.04517135 17:0.02875105 18:0.0207846 19:0.95292604 20:0.95576465 21:0.95558816 
0.2506619288914797 1:0.00884713 2:0.4106324 3:0.81201863 4:0.98535186 5:0.13333334 6:0.00368424 7:0.01264445 8:0.92970175 9:1.0072315 10:0.00657779 11:0.00017135 12:0.00290405 13:0.09655386 14:0.07124268 15:0.09514707 16:0.04900442 17:0.03077703 18:0.02200552 19:0.95398283 20:0.95619041 21:0.9566496 
0.1628382576780206 1:0.00807674 2:0.41855362 3:0.823843 4:0.98517019 5:0.10980392 6:0.00366608 7:0.01264265 8:0.94823778 9:1.0073677 10:0.00649558 11:0.00016647 12:0.00286783 13:0.09589434 14:0.07018335 15:0.09587511 16:0.0497446 17:0.03166373 18:0.02278062 19:0.95556986 20:0.95661348 21:0.9582991 
0.0522517765865585 1:0.00796317 2:0.41978663 3:0.8187381 4:0.98514938 5:0.11372549 6:0.00355364 7:0.01319264 8:0.94620383 9:1.0073465 10:0.00671642 11:0.0001727 12:0.0034612 13:0.08830713 14:0.05440893 15:0.08458478 16:0.04300357 17:0.02796903 18:0.02084387 19:0.9549309 20:0.95632768 21:0.95889729 
0.4368985673971477 1:0.00842792 2:0.41486949 3:0.77816528 4:0.9858793 5:0.17647059 6:0.00291824 7:0.01447141 8:0.92496032 9:1.0069857 10:0.00786013 11:0.00018353 12:0.00309085 13:0.08627835 14:0.05825602 15:0.09216677 16:0.04810785 17:0.0313471 18:0.02338905 19:0.9571048 20:0.9575361 21:0.96008122 
0.4495976937656671 1:0.00806419 2:0.4186922 3:0.8112449 4:0.98529863 5:0.24705882 6:0.00345956 7:0.01311973 8:0.93341905 9:1.0073544 10:0.00667036 11:0.00018166 12:0.00293257 13:0.0918816 14:0.06584951 15:0.0931901 16:0.04719507 17:0.02925433 18:0.02041633 19:0.95709115 20:0.95817786 21:0.96023786 
0.2269764233328578 1:0.00821727 2:0.41705489 3:0.82333136 4:0.98523748 5:0.15686275 6:0.00370094 7:0.01266759 8:0.94182718 9:1.0073543 10:0.00650124 11:0.0001788 12:0.00326113 13:0.08996385 14:0.0551198 15:0.08365732 16:0.04168144 17:0.0261184 18:0.01886334 19:0.95509309 20:0.95685661 21:0.96002334 
0.44535675161185 1:0.01041888 2:0.3964383 3:0.77587211 4:0.98637432 5:0.19607843 6:0.00335319 7:0.01374528 8:0.88639569 9:1.0066752 10:0.00722557 11:0.0001897 12:0.00414983 13:0.08739743 14:0.0534274 15:0.08375271 16:0.04268711 17:0.02755099 18:0.02011374 19:0.95188534 20:0.95681292 21:0.95673335 
0.08456275578655997 1:0.0088408 2:0.41069412 3:0.83003783 4:0.98517334 5:0.10588235 6:0.00407937 7:0.01232696 8:0.93574184 9:1.007449 10:0.00638964 11:0.0001911 12:0.00390169 13:0.09211375 14:0.05470932 15:0.07723843 16:0.03782561 17:0.02430851 18:0.01827746 19:0.95002335 20:0.95396596 21:0.95497227 
0.1756598998942253 1:0.00772919 2:0.42239287 3:0.82292718 4:0.98525769 5:0.11372549 6:0.00350342 7:0.01302469 8:0.9498117 9:1.007332 10:0.00661709 11:0.00016462 12:0.00320347 13:0.08396984 14:0.05125749 15:0.07822529 16:0.03791146 17:0.02419705 18:0.01792837 19:0.95741588 20:0.95966095 21:0.9625892 
0.03637174318622926 1:0.00925826 2:0.4066883 3:0.81090325 4:0.98536611 5:0.13333334 6:0.00382741 7:0.01286518 8:0.9164288 9:1.0073181 10:0.00667744 11:0.00018871 12:0.00408338 13:0.08850316 14:0.05034895 15:0.07641702 16:0.03825176 17:0.02471674 18:0.01836924 19:0.95126414 20:0.95486587 21:0.9565298 
0.09272814813808998 1:0.00772018 2:0.42248005 3:0.82366681 4:0.9850989 5:0.10980392 6:0.00354349 7:0.01300479 8:0.95639628 9:1.0074198 10:0.00663779 11:0.00016788 12:0.00323291 13:0.09094116 14:0.05670991 15:0.08993553 16:0.04492674 17:0.02822537 18:0.02003818 19:0.95608443 20:0.95746607 21:0.95957768 
0.2492912903919364 1:0.00895405 2:0.40959176 3:0.80296659 4:0.98543411 5:0.14901961 6:0.00356616 7:0.01311468 8:0.92884123 9:1.0072161 10:0.00676569 11:0.00017232 12:0.00333543 13:0.08993971 14:0.05410816 15:0.08609821 16:0.04283018 17:0.02681374 18:0.01958741 19:0.95371383 20:0.95599473 21:0.95769143 
0.2169599911861683 1:0.00727301 2:0.42766678 3:0.84341872 4:0.98525101 5:0.43921569 6:0.00361081 7:0.01085157 8:0.94079304 9:1.0074046 10:0.00549401 11:0.00014044 12:0.00188391 13:0.07163291 14:0.06738692 15:0.07603579 16:0.03465193 17:0.02128177 18:0.01519697 19:0.97048312 20:0.97184348 21:0.97369218 
0.2192649591551549 1:0.00887763 2:0.41033241 3:0.80407715 4:0.98533809 5:0.13725491 6:0.00357149 7:0.01331585 8:0.92249322 9:1.0072757 10:0.00687603 11:0.00018515 12:0.00367978 13:0.09804282 14:0.06001745 15:0.09162824 16:0.04771696 17:0.03041643 18:0.02170346 19:0.95167536 20:0.95303816 21:0.95357549 
0.2753454535280256 1:0.00823268 2:0.41689691 3:0.81528437 4:0.98529714 5:0.14509805 6:0.00355307 7:0.01328619 8:0.93665004 9:1.0073755 10:0.00677413 11:0.00019253 12:0.00399493 13:0.09123079 14:0.05482546 15:0.08123009 16:0.04154151 17:0.02721994 18:0.02046152 19:0.95327467 20:0.95529568 21:0.95735079 
0.3035854494739135 1:0.00955109 2:0.40398172 3:0.78987306 4:0.98612279 5:0.14509805 6:0.00332989 7:0.01357899 8:0.89964044 9:1.0068424 10:0.00717888 11:0.00018204 12:0.00393155 13:0.08572502 14:0.0525955 15:0.08089622 16:0.04055231 17:0.02595569 18:0.01901116 19:0.95450836 20:0.95864201 21:0.96001762 
0.1736323232393183 1:0.00818545 2:0.41739315 3:0.83330733 4:0.98518354 5:0.10980392 6:0.00388874 7:0.01246865 8:0.9450075 9:1.007362 10:0.00635474 11:0.00017975 12:0.0038837 13:0.0855612 14:0.04772084 15:0.07389146 16:0.03585599 17:0.02268024 18:0.01680455 19:0.95494002 20:0.95784563 21:0.96147311 
0.1143709733206264 1:0.00914305 2:0.40777546 3:0.81722069 4:0.98533297 5:0.12941177 6:0.00387461 7:0.01239278 8:0.92665505 9:1.00732 10:0.00650544 11:0.00017609 12:0.00314046 13:0.09468306 14:0.06193315 15:0.08875713 16:0.04445799 17:0.02776816 18:0.01989615 19:0.95239031 20:0.95498818 21:0.95573252 
0.03609650122842459 1:0.00821933 2:0.41702953 3:0.82950372 4:0.98512495 5:0.11764706 6:0.00386224 7:0.01256004 8:0.94614667 9:1.007393 10:0.00641322 11:0.00018233 12:0.00368213 13:0.09131584 14:0.05390373 15:0.08238216 16:0.04138231 17:0.02661176 18:0.01926949 19:0.95337647 20:0.9560833 21:0.95824128 
0.2509454782944023 1:0.00797373 2:0.41967613 3:0.81511384 4:0.98527914 5:0.16078432 6:0.00342499 7:0.01305229 8:0.94250679 9:1.0073421 10:0.00668431 11:0.00016816 12:0.0031605 13:0.08522821 14:0.05985497 15:0.08348363 16:0.04056791 17:0.02619167 18:0.01954182 19:0.95750046 20:0.95835692 21:0.96094584 
0.1585453865558323 1:0.00831927 2:0.41597968 3:0.82933074 4:0.98504496 5:0.09411765 6:0.00392305 7:0.01269176 8:0.93937266 9:1.0074685 10:0.00645065 11:0.0001905 12:0.00423589 13:0.0906705 14:0.05587242 15:0.07740734 16:0.03776544 17:0.02462786 18:0.01882068 19:0.95224899 20:0.95454907 21:0.95760173 
0.4491938044016686 1:0.00875221 2:0.41157898 3:0.81603956 4:0.98540419 5:0.36862746 6:0.00377933 7:0.01261371 8:0.91712993 9:1.0072625 10:0.00643029 11:0.00019671 12:0.00369488 13:0.0893584 14:0.05851031 15:0.07788197 16:0.03751197 17:0.02380995 18:0.01781401 19:0.95511293 20:0.95745045 21:0.96037382 
0.06875623936527631 1:0.00781618 2:0.42140996 3:0.8232637 4:0.98513442 5:0.08627451 6:0.00357578 7:0.01299821 8:0.9450168 9:1.0074053 10:0.00657965 11:0.00016993 12:0.00352886 13:0.08974605 14:0.05591318 15:0.08185375 16:0.04201547 17:0.02735224 18:0.02026165 19:0.95559359 20:0.9573279 21:0.95965385 
0.02608723663879377 1:0.0079585 2:0.41983443 3:0.84379733 4:0.98500878 5:0.07843138 6:0.00401409 7:0.01184978 8:0.95098549 9:1.0075073 10:0.00603414 11:0.00016355 12:0.00323897 13:0.08837074 14:0.05804857 15:0.07851364 16:0.03866695 17:0.02438697 18:0.01760783 19:0.95758599 20:0.95992571 21:0.96274525 
0.4121187762488772 1:0.0067444 2:0.43421784 3:0.81199759 4:0.98530722 5:0.08627451 6:0.00292193 7:0.01355332 8:0.95029849 9:1.0073274 10:0.00680335 11:0.00013192 12:0.0027837 13:0.07953285 14:0.06005574 15:0.08806325 16:0.04418675 17:0.02838915 18:0.02081182 19:0.9647249 20:0.96546739 21:0.96697104 
0.06191439513141135 1:0.00794772 2:0.4199535 3:0.83092582 4:0.98505187 5:0.07450981 6:0.00378953 7:0.01251012 8:0.9357006 9:1.0075053 10:0.0063134 11:0.00017419 12:0.00411466 13:0.08755057 14:0.05430767 15:0.07576571 16:0.03835959 17:0.02537383 18:0.01939576 19:0.9562574 20:0.95795232 21:0.96076202 
0.1517677861923652 1:0.00829508 2:0.41623169 3:0.84375983 4:0.98501033 5:0.09411765 6:0.00419012 7:0.01179561 8:0.93774498 9:1.0075377 10:0.00599174 11:0.00018023 12:0.00399067 13:0.08688709 14:0.05528218 15:0.0718027 16:0.03536627 17:0.02271871 18:0.01690337 19:0.95505077 20:0.9576264 21:0.96068984 
0.0751576993924523 1:0.00802711 2:0.41909045 3:0.84133559 4:0.98504943 5:0.07843138 6:0.0040127 7:0.01194467 8:0.94427562 9:1.0074911 10:0.00605684 11:0.00016881 12:0.00360202 13:0.0844503 14:0.05404505 15:0.07338448 16:0.03623053 17:0.0237178 18:0.01769049 19:0.95709008 20:0.95961624 21:0.96257216 
0.03064146430850997 1:0.0080936 2:0.41837001 3:0.84037137 4:0.98503602 5:0.07058824 6:0.00402328 7:0.01199232 8:0.93885702 9:1.0074707 10:0.00607421 11:0.00017 12:0.00384232 13:0.08529508 14:0.05620655 15:0.0750939 16:0.03765567 17:0.02417732 18:0.01785957 19:0.95711851 20:0.95977539 21:0.96278185 
0.04380174041759887 1:0.00788255 2:0.42066634 3:0.84554487 4:0.98503846 5:0.07450981 6:0.00399824 7:0.01169875 8:0.94662058 9:1.0074955 10:0.00595115 11:0.00015881 12:0.00324649 13:0.08565956 14:0.06159865 15:0.07852828 16:0.03876594 17:0.02457818 18:0.01778679 19:0.95896679 20:0.96116358 21:0.963548 
0.1404106363777936 1:0.00829815 2:0.41620123 3:0.84935653 4:0.98496169 5:0.08627451 6:0.00430358 7:0.01147006 8:0.94431627 9:1.0076004 10:0.00582901 11:0.00017546 12:0.00377954 13:0.08728478 14:0.05793694 15:0.07247121 16:0.03543107 17:0.0225517 18:0.01659307 19:0.95560879 20:0.95875984 21:0.96117049 
0.03926716749679936 1:0.00800692 2:0.41930717 3:0.84933823 4:0.98503667 5:0.07843138 6:0.00409336 7:0.0115721 8:0.94335878 9:1.0074974 10:0.00591446 11:0.0001599 12:0.00335859 13:0.08424055 14:0.05851343 15:0.07363088 16:0.03587336 17:0.02238553 18:0.01597428 19:0.95927238 20:0.96219039 21:0.96540076 
0.1087336544554552 1:0.00748836 2:0.42513484 3:0.81776261 4:0.98512334 5:0.10588235 6:0.00334949 7:0.01333013 8:0.95151627 9:1.0074196 10:0.00676061 11:0.00016268 12:0.00315729 13:0.08883063 14:0.05771564 15:0.09371968 16:0.04825476 17:0.03095613 18:0.02256944 19:0.957416 20:0.95825285 21:0.95992792 
0.1715635580613874 1:0.00791217 2:0.42034793 3:0.8082521 4:0.98521972 5:0.12941177 6:0.00337731 7:0.01365859 8:0.92820185 9:1.0073376 10:0.00684861 11:0.00017721 12:0.00415569 13:0.08664501 14:0.05573293 15:0.08665656 16:0.04424142 17:0.02917153 18:0.02193394 19:0.95656031 20:0.95759684 21:0.95954067 
0.1231684422352271 1:0.00804987 2:0.41884327 3:0.83730555 4:0.98502684 5:0.10196079 6:0.00396362 7:0.01219069 8:0.95041478 9:1.0074987 10:0.00620615 11:0.00017739 12:0.0032741 13:0.09597908 14:0.06246311 15:0.08628067 16:0.0443933 17:0.02901572 18:0.02153746 19:0.95438975 20:0.9559778 21:0.95833105 
0.05716666543398518 1:0.00870972 2:0.41199675 3:0.81540906 4:0.98544502 5:0.11372549 6:0.00365684 7:0.01244163 8:0.93415415 9:1.0072375 10:0.0064682 11:0.00016001 12:0.00281132 13:0.09277773 14:0.06947798 15:0.0924079 16:0.04838542 17:0.03108002 18:0.0225433 19:0.95595568 20:0.95786589 21:0.95872122 
0.2220370919233531 1:0.00762545 2:0.42355147 3:0.83500588 4:0.98504764 5:0.09019608 6:0.00370756 7:0.01229605 8:0.96315384 9:1.0074627 10:0.00626131 11:0.000155 12:0.00268018 13:0.09217166 14:0.07060885 15:0.09470791 16:0.04889368 17:0.03033256 18:0.02134816 19:0.95768589 20:0.95893371 21:0.9602766 
0.1309201664543631 1:0.00915615 2:0.40764907 3:0.82460779 4:0.98523849 5:0.14117648 6:0.00409017 7:0.0121543 8:0.92533338 9:1.0074322 10:0.00630913 11:0.00018876 12:0.00378013 13:0.08809948 14:0.05088031 15:0.07464667 16:0.03747186 17:0.02414851 18:0.01765653 19:0.95345873 20:0.95695233 21:0.95950192 
0.04939935595981528 1:0.00764462 2:0.42334941 3:0.82819992 4:0.98522949 5:0.10980392 6:0.00355683 7:0.0126925 8:0.95052433 9:1.0073653 10:0.0064551 11:0.0001588 12:0.00322479 13:0.08286887 14:0.05094621 15:0.07670572 16:0.03742662 17:0.02345723 18:0.0170617 19:0.95900935 20:0.96138543 21:0.96417916 
0.2844740596711814 1:0.00756827 2:0.42420962 3:0.82305342 4:0.98532593 5:0.38431373 6:0.00337587 7:0.01095248 8:0.92152965 9:1.0073383 10:0.0055821 11:0.0001508 12:0.00174558 13:0.06710248 14:0.07577019 15:0.0735717 16:0.02996822 17:0.01692829 18:0.01158736 19:0.97322863 20:0.97435111 21:0.97617066 
0.3209848861192402 1:0.00565702 2:0.44948059 3:0.84511185 4:0.98516518 5:0.04705882 6:0.00289103 7:0.01135166 8:0.98222136 9:1.0074437 10:0.00571433 11:8.452e-05 12:0.00147228 13:0.06004162 14:0.06945182 15:0.08267557 16:0.03773892 17:0.02319201 18:0.01647413 19:0.97645074 20:0.97667193 21:0.97776097 
0.1450977496934189 1:0.00741037 2:0.4260506 3:0.82882279 4:0.98507804 5:0.10980392 6:0.00345847 7:0.01271783 8:0.95987934 9:1.0074813 10:0.00651135 11:0.00014839 12:0.00268173 13:0.08493799 14:0.06886795 15:0.08748545 16:0.04014349 17:0.0238802 18:0.0164758 19:0.96000344 20:0.96157092 21:0.96407384 
0.4377311937999846 1:0.00985025 2:0.40130696 3:0.79259992 4:0.98569578 5:0.14117648 6:0.00364323 7:0.01400554 8:0.89403385 9:1.0070683 10:0.00723993 11:0.00022396 12:0.00579954 13:0.08955922 14:0.03781788 15:0.08028495 16:0.04446615 17:0.03062849 18:0.02374955 19:0.94304842 20:0.94859529 21:0.94783384 
0.1455858354049812 1:0.00879012 2:0.4111985 3:0.80444747 4:0.98557407 5:0.11764706 6:0.00345063 7:0.01284911 8:0.92655319 9:1.0071071 10:0.00669197 11:0.00015914 12:0.00287616 13:0.09341259 14:0.06527481 15:0.09647292 16:0.04995987 17:0.03185697 18:0.02251069 19:0.95582443 20:0.95761859 21:0.95734197 
0.22348944771729 1:0.00848979 2:0.41422459 3:0.81262189 4:0.98538685 5:0.11764706 6:0.00351704 7:0.01284189 8:0.93211174 9:1.0072644 10:0.00664762 11:0.00016004 12:0.00302449 13:0.08617336 14:0.06468903 15:0.08408257 16:0.03892313 17:0.02360664 18:0.01673968 19:0.95743698 20:0.95883673 21:0.96154857 
0.1643617368801845 1:0.00680662 2:0.43342492 3:0.86061472 4:0.98515701 5:0.16470589 6:0.00365478 7:0.01058483 8:0.96352786 9:1.0074906 10:0.00538809 11:0.0001093 12:0.00180199 13:0.06749915 14:0.07276727 15:0.06755667 16:0.02772228 17:0.01547185 18:0.01051091 19:0.97154588 20:0.97331744 21:0.97521794 
0.04964507207140863 1:0.0092184 2:0.40706176 3:0.82820272 4:0.98529547 5:0.11764706 6:0.00412921 7:0.01208175 8:0.92606628 9:1.0073737 10:0.00630396 11:0.0001876 12:0.0039044 13:0.09122285 14:0.05303413 15:0.07958246 16:0.04024629 17:0.02590811 18:0.01894309 19:0.95065618 20:0.95536286 21:0.95591629 
0.2631359434667147 1:0.00909121 2:0.40827072 3:0.79253751 4:0.98537207 5:0.57254905 6:0.00350859 7:0.01096663 8:0.9139266 9:1.0072913 10:0.00555818 11:0.00025951 12:0.00179181 13:0.069597 14:0.0781152 15:0.07773611 16:0.03353337 17:0.01958574 18:0.01354118 19:0.97268885 20:0.97390193 21:0.97571301 
0.3022782241653734 1:0.00896946 2:0.40943965 3:0.79297656 4:0.9854449 5:0.64705884 6:0.0034544 7:0.01099323 8:0.93003941 9:1.0072437 10:0.00556216 11:0.00022989 12:0.00182292 13:0.07009181 14:0.07824741 15:0.07740346 16:0.03361759 17:0.01983663 18:0.01371367 19:0.97327662 20:0.97431517 21:0.97597772 
0.4459968540509018 1:0.00778557 2:0.42175922 3:0.78303164 4:0.98605657 5:0.15294118 6:0.00268779 7:0.01422698 8:0.93288356 9:1.0068992 10:0.00730703 11:0.00016677 12:0.0028024 13:0.08480582 14:0.0622215 15:0.09242611 16:0.04625513 17:0.02929594 18:0.02119565 19:0.96128869 20:0.96116102 21:0.96276271 
0.04243273365416044 1:0.00692774 2:0.43189284 3:0.85849494 4:0.98551524 5:0.08627451 6:0.00354125 7:0.01078632 8:0.96244603 9:1.0073094 10:0.00553168 11:0.0001398 12:0.00229149 13:0.07275928 14:0.06143457 15:0.06245793 16:0.02755009 17:0.01657006 18:0.01204506 19:0.97072506 20:0.97253919 21:0.97532392 
0.0820605694347358 1:0.00738767 2:0.42631438 3:0.8553074 4:0.98561859 5:0.09019608 6:0.00364218 7:0.01075234 8:0.96051049 9:1.0072634 10:0.00556365 11:0.00016194 12:0.00259362 13:0.07332641 14:0.05821962 15:0.0617955 16:0.02680368 17:0.01604578 18:0.01171971 19:0.96924573 20:0.97162306 21:0.97431993 
0.2567412609331098 1:0.00759486 2:0.4239141 3:0.85981286 4:0.98564041 5:0.08627451 6:0.00377874 7:0.01061847 8:0.96384412 9:1.0072035 10:0.00552637 11:0.00016906 12:0.00282443 13:0.07384076 14:0.05887831 15:0.0586007 16:0.02460347 17:0.01440444 18:0.01044499 19:0.96835726 20:0.97084868 21:0.97448766 
0.08356907772864069 1:0.00715027 2:0.42915261 3:0.84693545 4:0.98513907 5:0.26666668 6:0.00365149 7:0.01080472 8:0.93273944 9:1.0074743 10:0.00546026 11:0.00012048 12:0.00184667 13:0.07239016 14:0.07758382 15:0.07848609 16:0.03405526 17:0.01929397 18:0.01313134 19:0.97104961 20:0.97216105 21:0.97376776 
0.05622274380934068 1:0.0086037 2:0.41306275 3:0.80954367 4:0.98540628 5:0.12156863 6:0.00354718 7:0.01297607 8:0.92279917 9:1.0072072 10:0.00666816 11:0.00017604 12:0.00392933 13:0.09849478 14:0.05908712 15:0.090023 16:0.04775081 17:0.03094486 18:0.02243124 19:0.95534515 20:0.95623147 21:0.95803821 
0.09713904719052967 1:0.00742949 2:0.42582527 3:0.8286162 4:0.98507208 5:0.11764706 6:0.00348621 7:0.01269666 8:0.95835549 9:1.0074804 10:0.00647121 11:0.00015199 12:0.00274425 13:0.08698782 14:0.0638257 15:0.0868007 16:0.04049246 17:0.0244747 18:0.01726658 19:0.95967895 20:0.96104574 21:0.96331424 
0.2526590615138631 1:0.0103615 2:0.39691794 3:0.78948206 4:0.98577261 5:0.16470589 6:0.00366895 7:0.01318492 8:0.89463836 9:1.0070231 10:0.00695535 11:0.0001885 12:0.00426408 13:0.0887583 14:0.04597213 15:0.07853331 16:0.04018809 17:0.02592128 18:0.01959974 19:0.94882286 20:0.95437562 21:0.95354158 
0.1623909881908668 1:0.00876904 2:0.41140389 3:0.81675798 4:0.98538238 5:0.12941177 6:0.00374216 7:0.01270731 8:0.92434919 9:1.0072904 10:0.00657414 11:0.00017165 12:0.00348586 13:0.08158597 14:0.04644288 15:0.07528677 16:0.03747598 17:0.02431675 18:0.01832632 19:0.95536488 20:0.95816863 21:0.96066296 
0.04631018657152291 1:0.00758154 2:0.4240531 3:0.83393973 4:0.98505163 5:0.08627451 6:0.00367918 7:0.01233198 8:0.96057159 9:1.0074326 10:0.00626242 11:0.00015544 12:0.00280387 13:0.08911692 14:0.06373878 15:0.09070857 16:0.04466299 17:0.02744 18:0.01937302 19:0.95848829 20:0.95968735 21:0.96135533 
0.4214546759769349 1:0.00824222 2:0.41679856 3:0.77095121 4:0.98594368 5:0.24705882 6:0.0026971 7:0.01192692 8:0.95913047 9:1.0069635 10:0.00643558 11:0.00029261 12:0.00256958 13:0.06319342 14:0.09204557 15:0.10095113 16:0.04986668 17:0.02958156 18:0.02019065 19:0.97403407 20:0.97407538 21:0.9726662 
0.1760921573895635 1:0.00873877 2:0.41170403 3:0.8341915 4:0.98515993 5:0.10588235 6:0.00415207 7:0.01217716 8:0.93220574 9:1.0074677 10:0.0062414 11:0.00019328 12:0.00434905 13:0.08846302 14:0.05050439 15:0.07513039 16:0.03842924 17:0.02541474 18:0.01917216 19:0.95080948 20:0.95402318 21:0.95580286 
0.1539730189377117 1:0.00690313 2:0.43220833 3:0.86194414 4:0.98513639 5:0.22352941 6:0.00372427 7:0.01054804 8:0.95965493 9:1.0074849 10:0.00537328 11:0.00011496 12:0.00196989 13:0.07269716 14:0.07193809 15:0.07061836 16:0.02971373 17:0.01746913 18:0.01243856 19:0.97094405 20:0.97230595 21:0.97445154 
0.1414456709053548 1:0.00727689 2:0.42762679 3:0.84414023 4:0.98512298 5:0.20392157 6:0.00369985 7:0.01083419 8:0.94958168 9:1.0074863 10:0.0060557 11:0.00014193 12:0.00197546 13:0.06747134 14:0.06680067 15:0.06894135 16:0.03094008 17:0.01852641 18:0.01323048 19:0.97151661 20:0.97332966 21:0.97535121 
0.1976532766470109 1:0.00651879 2:0.43718228 3:0.86018211 4:0.98495632 5:0.14117648 6:0.00355952 7:0.01066333 8:0.9711231 9:1.0075835 10:0.00541609 11:9.913e-05 12:0.00166853 13:0.06903131 14:0.07809713 15:0.07392421 16:0.03082399 17:0.0178062 18:0.01241985 19:0.97259551 20:0.9739368 21:0.97577268 
0.03271991360213668 1:0.00875005 2:0.41159901 3:0.8139683 4:0.98548651 5:0.1254902 6:0.00364208 7:0.01232114 8:0.92588627 9:1.0071886 10:0.0063791 11:0.00015403 12:0.00271857 13:0.09144043 14:0.06733713 15:0.09325288 16:0.04846153 17:0.0307657 18:0.02196292 19:0.95838642 20:0.959176 21:0.9613409 
0.4416888939621513 1:0.0094704 2:0.40472928 3:0.75576943 4:0.9866879 5:0.15686275 6:0.00260935 7:0.01428973 8:0.89848119 9:1.0065104 10:0.00800697 11:0.00023468 12:0.00297214 13:0.08801197 14:0.06831536 15:0.10037955 16:0.05237663 17:0.03232349 18:0.02257707 19:0.95823681 20:0.9588145 21:0.96134692 
0.06149672031165215 1:0.00801247 2:0.41925564 3:0.8138423 4:0.98536074 5:0.10196079 6:0.00339595 7:0.01287005 8:0.93177915 9:1.0072933 10:0.00661181 11:0.0001468 12:0.0030813 13:0.08249809 14:0.05594483 15:0.08159368 16:0.0404227 17:0.02651417 18:0.01994824 19:0.96055061 20:0.96140951 21:0.96385264 
0.4493941160538691 1:0.01223048 2:0.38251534 3:0.78507251 4:0.98599768 5:0.21176471 6:0.00392692 7:0.01232262 8:0.87266648 9:1.0068408 10:0.00678354 11:0.00017567 12:0.00367953 13:0.08727404 14:0.05152533 15:0.07565044 16:0.03868071 17:0.02548446 18:0.01986994 19:0.9515419 20:0.95823556 21:0.95717669 
0.4021454667142804 1:0.00846152 2:0.41451871 3:0.81866437 4:0.9855324 5:0.14117648 6:0.00359309 7:0.01151423 8:0.91302246 9:1.0072134 10:0.00589225 11:0.00011936 12:0.00244519 13:0.07319307 14:0.05997387 15:0.0757353 16:0.03705625 17:0.0242105 18:0.01809901 19:0.96679705 20:0.96750033 21:0.96975273 
0.09920850883574273 1:0.00706127 2:0.43024626 3:0.8496685 4:0.98500776 5:0.07450981 6:0.00370721 7:0.01134469 8:0.96202379 9:1.0075368 10:0.00573519 11:0.00012852 12:0.00242353 13:0.08612134 14:0.07021635 15:0.08482581 16:0.04456961 17:0.0295438 18:0.02162132 19:0.96530211 20:0.96640491 21:0.96779341 
0.2414160697745255 1:0.007959 2:0.41982859 3:0.8235153 4:0.98530853 5:0.10980392 6:0.00353823 7:0.01210483 8:0.93148559 9:1.0072546 10:0.00625046 11:0.00013628 12:0.00268188 13:0.07893755 14:0.05590026 15:0.07935443 16:0.03994521 17:0.02564988 18:0.01906469 19:0.96208853 20:0.9646101 21:0.96475428 
0.1490843085613319 1:0.00918713 2:0.40735286 3:0.82339799 4:0.98525941 5:0.15686275 6:0.00400617 7:0.01191738 8:0.91823834 9:1.0073554 10:0.0062317 11:0.00016406 12:0.00334947 13:0.08300172 14:0.05424643 15:0.07248773 16:0.03364846 17:0.0203036 18:0.01457457 19:0.9567554 20:0.96085793 21:0.96267587 
0.1822489862583111 1:0.00634092 2:0.43957233 3:0.86039662 4:0.98524368 5:0.07843138 6:0.00334391 7:0.01068088 8:0.97676474 9:1.0074468 10:0.00545833 11:0.00011302 12:0.00177002 13:0.06432025 14:0.07292225 15:0.06732011 16:0.02817716 17:0.0161711 18:0.01106945 19:0.97433126 20:0.9757576 21:0.97789001 
0.1403496681164568 1:0.00981147 2:0.40165031 3:0.78852403 4:0.98609489 5:0.16470589 6:0.00337211 7:0.01315582 8:0.89576685 9:1.0068449 10:0.00694032 11:0.00016929 12:0.00357172 13:0.08376107 14:0.05126202 15:0.0797934 16:0.03964714 17:0.02553837 18:0.01910979 19:0.95504922 20:0.95966041 21:0.959378 
0.127829258619866 1:0.00831045 2:0.41607803 3:0.81860185 4:0.9853698 5:0.10588235 6:0.00358411 7:0.01239289 8:0.9387942 9:1.0072278 10:0.00641039 11:0.00015145 12:0.00263356 13:0.09026513 14:0.07149938 15:0.09406839 16:0.04850438 17:0.03052555 18:0.0218265 19:0.95798403 20:0.95976657 21:0.96001059 
0.0202466673923748 1:0.00690069 2:0.43224335 3:0.84430045 4:0.98496556 5:0.06666667 6:0.00353717 7:0.01163176 8:0.95682859 9:1.0074576 10:0.00585889 11:0.00012378 12:0.00237072 13:0.08012277 14:0.06494857 15:0.08430392 16:0.04304002 17:0.02816754 18:0.02092674 19:0.96633887 20:0.96711498 21:0.96849442 
0.243742107734601 1:0.00865343 2:0.41255951 3:0.83568418 4:0.9851563 5:0.11764706 6:0.00412366 7:0.01176866 8:0.92811555 9:1.0074462 10:0.00604189 11:0.00017859 12:0.00360532 13:0.09029493 14:0.06174808 15:0.07960256 16:0.04070574 17:0.02668048 18:0.01985401 19:0.95604825 20:0.95823652 21:0.96064675 
0.1808504010988197 1:0.0086231 2:0.41286415 3:0.8287937 4:0.98514742 5:0.1254902 6:0.00398533 7:0.01231152 8:0.9338975 9:1.0074063 10:0.00633896 11:0.00018233 12:0.00371174 13:0.09118854 14:0.05375752 15:0.07652582 16:0.03886601 17:0.02553095 18:0.01962391 19:0.95376468 20:0.95650977 21:0.95916331 
0.1478024327430212 1:0.00791422 2:0.42032543 3:0.81624818 4:0.9855597 5:0.09803922 6:0.00334411 7:0.01300419 8:0.93704551 9:1.0071843 10:0.0067023 11:0.00015856 12:0.00322656 13:0.08388622 14:0.05131682 15:0.07777242 16:0.03819279 17:0.02375285 18:0.01703376 19:0.95842564 20:0.96197194 21:0.96290624 
0.02130728596034107 1:0.00789925 2:0.42048553 3:0.8388986 4:0.98498368 5:0.10196079 6:0.00391711 7:0.01207387 8:0.95613003 9:1.0074918 10:0.00615564 11:0.00016498 12:0.003206 13:0.08954139 14:0.06233536 15:0.08078907 16:0.03954018 17:0.025165 18:0.01852543 19:0.95673764 20:0.95867509 21:0.96109927 
0.0742363547403436 1:0.00851521 2:0.41396335 3:0.81273711 4:0.98541123 5:0.12156863 6:0.00355205 7:0.0125727 8:0.93369043 9:1.0072123 10:0.00649794 11:0.00015363 12:0.00270974 13:0.09106918 14:0.06678084 15:0.0948373 16:0.04828175 17:0.03035301 18:0.02175833 19:0.9579035 20:0.95866323 21:0.95980912 
0.3515434699447031 1:0.0072327 2:0.4281494 3:0.84126043 4:0.98527765 5:0.36078432 6:0.00355268 7:0.01071151 8:0.92077857 9:1.0073994 10:0.00541558 11:0.00012298 12:0.00179373 13:0.0707132 14:0.07410394 15:0.07693977 16:0.03408188 17:0.02009402 18:0.01379999 19:0.97217286 20:0.97332972 21:0.97495627 
0.01633674404313541 1:0.00665729 2:0.43536079 3:0.85657167 4:0.98491997 5:0.03529412 6:0.0036039 7:0.01102705 8:0.97645217 9:1.0076155 10:0.00560042 11:0.00011022 12:0.0018091 13:0.07534908 14:0.08558723 15:0.08462618 16:0.03660484 17:0.02048631 18:0.01368854 19:0.96957868 20:0.97051769 21:0.97212857 
0.007744756243045144 1:0.0064927 2:0.43753582 3:0.85599554 4:0.98493117 5:0.02745098 6:0.00349638 7:0.0110427 8:0.97617108 9:1.0076132 10:0.00561032 11:0.0001058 12:0.00176559 13:0.0741709 14:0.08491035 15:0.08582923 16:0.0368219 17:0.02047221 18:0.01368159 19:0.97079968 20:0.97171468 21:0.9730587 
0.05567787372718001 1:0.00676394 2:0.4339748 3:0.84953141 4:0.98513383 5:0.10980392 6:0.00344944 7:0.011142 8:0.97077376 9:1.0075212 10:0.00570752 11:0.00013561 12:0.00201718 13:0.07378549 14:0.07651258 15:0.078357 16:0.03402651 17:0.01942482 18:0.01295527 19:0.96986878 20:0.97101581 21:0.97266096 
0.08502094484057703 1:0.00650475 2:0.43737763 3:0.85571504 4:0.98490238 5:0.03137255 6:0.00351729 7:0.01102704 8:0.97206116 9:1.0075671 10:0.0055875 11:0.00010896 12:0.00194621 13:0.08050406 14:0.0851404 15:0.09087161 16:0.04143664 17:0.02391939 18:0.01583064 19:0.97058994 20:0.97115362 21:0.97228605 
0.2894218447897112 1:0.00917509 2:0.40746987 3:0.82065612 4:0.98544258 5:0.15686275 6:0.00390988 7:0.01215442 8:0.91921735 9:1.007241 10:0.00642543 11:0.00019111 12:0.00340238 13:0.09192646 14:0.06273285 15:0.08568702 16:0.04297501 17:0.02656346 18:0.01879285 19:0.95451427 20:0.9568786 21:0.9594171 
0.1033927405566499 1:0.00785288 2:0.42099971 3:0.84035802 4:0.98501676 5:0.10196079 6:0.00392773 7:0.01201333 8:0.95836854 9:1.0075061 10:0.00611411 11:0.00016308 12:0.00297027 13:0.0930146 14:0.06527559 15:0.08643053 16:0.04460852 17:0.02884936 18:0.02078312 19:0.95688242 20:0.95840412 21:0.96072185 
0.3282961902245195 1:0.00734995 2:0.42675233 3:0.83155227 4:0.98548281 5:0.39607844 6:0.0033951 7:0.01088904 8:0.91787744 9:1.0072678 10:0.00550131 11:0.00015625 12:0.00178625 13:0.06967607 14:0.07015089 15:0.07670432 16:0.03463951 17:0.0204694 18:0.01425128 19:0.9724707 20:0.97366697 21:0.97499329 
0.102806353423612 1:0.00875627 2:0.41153345 3:0.8001709 4:0.98582321 5:0.13333334 6:0.00332806 7:0.01320679 8:0.91409755 9:1.0069781 10:0.00689756 11:0.00017518 12:0.00365088 13:0.08524854 14:0.05746794 15:0.08756328 16:0.04403169 17:0.02785056 18:0.02004362 19:0.95770836 20:0.96024144 21:0.96228343 
0.3445612814514447 1:0.00986112 2:0.40121216 3:0.83137733 4:0.98523241 5:0.1254902 6:0.00442799 7:0.01176778 8:0.9141674 9:1.0073546 10:0.00627446 11:0.00020041 12:0.004065 13:0.08817368 14:0.0500485 15:0.07041594 16:0.03395017 17:0.02167899 18:0.01622619 19:0.94944566 20:0.95470428 21:0.95593286 
0.00680447954601252 1:0.0088766 2:0.41034567 3:0.80665773 4:0.98552835 5:0.11372549 6:0.00351388 7:0.0126946 8:0.92475992 9:1.0071248 10:0.00663231 11:0.00016045 12:0.00288816 13:0.09398507 14:0.06707052 15:0.09472226 16:0.0497199 17:0.03111464 18:0.0219112 19:0.95509869 20:0.9578014 21:0.95721537 
0.09002169064390354 1:0.00748787 2:0.42514095 3:0.83458412 4:0.9850356 5:0.08627451 6:0.00364451 7:0.0123182 8:0.9577319 9:1.0074747 10:0.00625681 11:0.00015358 12:0.00275944 13:0.09164854 14:0.06737081 15:0.09153161 16:0.04750983 17:0.0304342 18:0.02174156 19:0.95919049 20:0.96023196 21:0.96212697 
0.0843328821351724 1:0.00922936 2:0.40695438 3:0.81364852 4:0.9853453 5:0.16470589 6:0.00384609 7:0.01226621 8:0.91959894 9:1.0072641 10:0.00639669 11:0.00016768 12:0.00324551 13:0.09079123 14:0.05801866 15:0.08242483 16:0.04060111 17:0.02482513 18:0.01787918 19:0.95551968 20:0.95866472 21:0.95915258 
0.2244392571589062 1:0.00649717 2:0.43747082 3:0.85116738 4:0.98505765 5:0.10980392 6:0.00340105 7:0.01110469 8:0.97617811 9:1.0075223 10:0.00563545 11:0.00011531 12:0.00190169 13:0.07510789 14:0.07502822 15:0.08920126 16:0.04310888 17:0.02599761 18:0.01780718 19:0.971313 20:0.9719317 21:0.97301203 
0.1856786705056306 1:0.00826879 2:0.41650787 3:0.84859741 4:0.98495144 5:0.09019608 6:0.00427519 7:0.01162811 8:0.95073074 9:1.0075659 10:0.00595941 11:0.00017492 12:0.00336487 13:0.0912232 14:0.05785955 15:0.07968358 16:0.03919099 17:0.02473622 18:0.01795584 19:0.95526236 20:0.95778871 21:0.96063173 
0.0477574795234457 1:0.00733337 2:0.4269588 3:0.83451843 4:0.98506558 5:0.09019608 6:0.00357059 7:0.01224135 8:0.95695215 9:1.0074352 10:0.0061917 11:0.00014495 12:0.00280402 13:0.08675762 14:0.06035394 15:0.08458412 16:0.0438314 17:0.02898484 18:0.02166639 19:0.96110219 20:0.96220654 21:0.96414566 
0.1047359325447886 1:0.00740769 2:0.42606983 3:0.85353851 4:0.98506415 5:0.09019608 6:0.00391458 7:0.01092113 8:0.94965112 9:1.007463 10:0.00554988 11:0.00012264 12:0.00260953 13:0.07442089 14:0.05633531 15:0.06772994 16:0.03304994 17:0.02147833 18:0.01623395 19:0.96604675 20:0.96897334 21:0.96928918 
0.1149433411087492 1:0.00722039 2:0.42829758 3:0.84460592 4:0.98503166 5:0.09019608 6:0.0036583 7:0.01129646 8:0.95022064 9:1.0074842 10:0.00575799 11:0.00012179 12:0.00234525 13:0.08242288 14:0.06652994 15:0.08517598 16:0.04219118 17:0.02609496 18:0.01845735 19:0.96655595 20:0.96781355 21:0.96815968 
0.2748000631541517 1:0.00834643 2:0.41569364 3:0.80577195 4:0.98541784 5:0.52941179 6:0.00343156 7:0.01112713 8:0.91801906 9:1.0072821 10:0.00564806 11:0.00018102 12:0.0019119 13:0.07320654 14:0.07244881 15:0.07866094 16:0.03497075 17:0.02095834 18:0.01448423 19:0.97202754 20:0.97330326 21:0.97459853 
0.01034688815192152 1:0.00815517 2:0.4177078 3:0.82654953 4:0.98523879 5:0.10980392 6:0.00370013 7:0.01230919 8:0.94482309 9:1.0073643 10:0.00635715 11:0.00015704 12:0.00273966 13:0.09166454 14:0.06969253 15:0.09242047 16:0.04610078 17:0.02814803 18:0.01958523 19:0.9561621 20:0.959135 21:0.95897317 
0.3567047918723337 1:0.00799924 2:0.41939121 3:0.81317663 4:0.98538935 5:0.16078432 6:0.00339567 7:0.01288913 8:0.93726218 9:1.007236 10:0.00657347 11:0.00016136 12:0.00293942 13:0.0912255 14:0.0652267 15:0.09225432 16:0.04811121 17:0.03119325 18:0.02261337 19:0.95727068 20:0.95934165 21:0.9597156 
0.1613815314309599 1:0.00903595 2:0.40879846 3:0.79977846 4:0.9856571 5:0.12941177 6:0.0034136 7:0.01278255 8:0.91672689 9:1.0070611 10:0.00671418 11:0.00015014 12:0.00276747 13:0.08207361 14:0.05772403 15:0.08264329 16:0.03986217 17:0.02467261 18:0.01791961 19:0.95730448 20:0.96092409 21:0.96033537 
0.1560878968453848 1:0.00820898 2:0.41714469 3:0.83056521 4:0.98554426 5:0.10196079 6:0.00374962 7:0.01251304 8:0.93248993 9:1.0071932 10:0.00645246 11:0.00017234 12:0.00376726 13:0.08392525 14:0.05173886 15:0.07202587 16:0.0337543 17:0.02132097 18:0.0157057 19:0.9575547 20:0.96092951 21:0.96388942 
0.1973835579613664 1:0.00660147 2:0.43608811 3:0.86480033 4:0.98509836 5:0.11372549 6:0.00361788 7:0.01042508 8:0.98165339 9:1.007536 10:0.00531881 11:0.00011701 12:0.0018699 13:0.06567348 14:0.07569028 15:0.07139083 16:0.0293664 17:0.01679606 18:0.01164811 19:0.97257113 20:0.97401488 21:0.97542685 
0.2067359359782015 1:0.00764721 2:0.42330784 3:0.82941431 4:0.98534083 5:0.32941177 6:0.00353921 7:0.01078082 8:0.91793346 9:1.0073417 10:0.00545865 11:0.00015287 12:0.00178826 13:0.06854922 14:0.07232612 15:0.07542486 16:0.03351522 17:0.01998202 18:0.01377955 19:0.97205919 20:0.97327155 21:0.97474229 
0.2350260313852309 1:0.00852141 2:0.41389504 3:0.81746942 4:0.9857896 5:0.12941177 6:0.00354064 7:0.01261402 8:0.92448318 9:1.0070623 10:0.00653024 11:0.00016654 12:0.00347045 13:0.08312386 14:0.05144978 15:0.07332279 16:0.0346346 17:0.02152754 18:0.01566016 19:0.95806879 20:0.96202815 21:0.9645406 
0.01288148670562354 1:0.00781328 2:0.42144799 3:0.81391221 4:0.98531586 5:0.09803922 6:0.00331971 7:0.01310412 8:0.93785065 9:1.0073564 10:0.00673063 11:0.00015062 12:0.00309469 13:0.08372573 14:0.0569828 15:0.08288603 16:0.04014151 17:0.02555621 18:0.01894804 19:0.96010578 20:0.96116376 21:0.96354789 
0.01196852773597999 1:0.00740783 2:0.42607403 3:0.83134156 4:0.98507261 5:0.10196079 6:0.00355683 7:0.01246031 8:0.95717472 9:1.0073777 10:0.00631208 11:0.00014526 12:0.00260916 13:0.08328021 14:0.06051878 15:0.08764388 16:0.04450532 17:0.02900667 18:0.02134924 19:0.96024954 20:0.96155548 21:0.96347296 
0.1968592320391176 1:0.00857854 2:0.4133139 3:0.80757767 4:0.98534125 5:0.13333334 6:0.00354314 7:0.01320004 8:0.91732872 9:1.0072561 10:0.00677579 11:0.00017841 12:0.00390538 13:0.08848383 14:0.04693644 15:0.08437297 16:0.04366426 17:0.0287825 18:0.02157089 19:0.95475078 20:0.95647538 21:0.95825183 
0.164653931405493 1:0.00733492 2:0.42692986 3:0.83653533 4:0.98539019 5:0.38431373 6:0.00347871 7:0.01079151 8:0.94432437 9:1.0073218 10:0.00546318 11:0.00013351 12:0.00184806 13:0.06938324 14:0.06787283 15:0.07417835 16:0.03318259 17:0.01974114 18:0.01374824 19:0.97218722 20:0.97349447 21:0.97522956 
0.1055054853612147 1:0.00756737 2:0.42421454 3:0.82655632 4:0.98504567 5:0.09803922 6:0.00354125 7:0.01277754 8:0.95228344 9:1.0073882 10:0.00648215 11:0.00016523 12:0.00321702 13:0.09571026 14:0.06290661 15:0.09454518 16:0.0495116 17:0.03167177 18:0.0225743 19:0.95733672 20:0.95812398 21:0.95988679 
0.1220985885796209 1:0.00935373 2:0.40579596 3:0.80532038 4:0.98569626 5:0.1254902 6:0.00361332 7:0.01266331 8:0.91077393 9:1.0071607 10:0.00662757 11:0.00017153 12:0.0037024 13:0.09342719 14:0.0551964 15:0.08584145 16:0.04461337 17:0.02891587 18:0.02086657 19:0.9537614 20:0.95750874 21:0.95726192 
0.06422051384400077 1:0.00849711 2:0.41414252 3:0.81246722 4:0.98531127 5:0.14901961 6:0.00358215 7:0.01258222 8:0.93076444 9:1.0072706 10:0.00648752 11:0.00015375 12:0.00280563 13:0.08604886 14:0.05897818 15:0.08623513 16:0.04367753 17:0.02785739 18:0.02007363 19:0.95824564 20:0.96003634 21:0.96139431 
0.2160687088875914 1:0.00858177 2:0.41328064 3:0.83648986 4:0.98511434 5:0.11764706 6:0.00410522 7:0.01188823 8:0.9432252 9:1.0074606 10:0.00616171 11:0.00017538 12:0.00322646 13:0.09374925 14:0.06138312 15:0.08287723 16:0.04147543 17:0.0265679 18:0.01918055 19:0.95417452 20:0.95652992 21:0.95899463 
0.007877902172013821 1:0.00845456 2:0.41458091 3:0.81227797 4:0.98534793 5:0.13725491 6:0.00355856 7:0.01261243 8:0.92351735 9:1.0072247 10:0.00650303 11:0.00015326 12:0.00289345 13:0.08268841 14:0.05495505 15:0.08146196 16:0.04117658 17:0.0264561 18:0.01970907 19:0.95878482 20:0.9604544 21:0.96225119 
0.1476276087177006 1:0.00704709 2:0.43041566 3:0.87013024 4:0.98489279 5:0.09019608 6:0.00403932 7:0.01033358 8:0.97096807 9:1.0076273 10:0.0052671 11:0.00011687 12:0.00202628 13:0.07697565 14:0.07709815 15:0.0775806 16:0.03494135 17:0.02051476 18:0.01421383 19:0.9691118 20:0.9705984 21:0.97235715 
0.09656818579028911 1:0.00698056 2:0.43123114 3:0.83782876 4:0.98534256 5:0.28235295 6:0.00336012 7:0.01084416 8:0.93069589 9:1.0073266 10:0.00547489 11:0.00011809 12:0.00174449 13:0.06896693 14:0.07173141 15:0.07723089 16:0.03459199 17:0.02002769 18:0.01377797 19:0.97368085 20:0.97474927 21:0.97627056 
0.1293885314511733 1:0.00834534 2:0.41570893 3:0.81432283 4:0.98530179 5:0.13333334 6:0.00354443 7:0.01245071 8:0.93125939 9:1.0072448 10:0.00643012 11:0.00014995 12:0.00275433 13:0.08621615 14:0.06020307 15:0.08942713 16:0.04650465 17:0.02958144 18:0.02139031 19:0.95889103 20:0.96090561 21:0.96111882 
0.4509013579147625 1:0.01207679 2:0.38361436 3:0.74861246 4:0.98637879 5:0.30588236 6:0.00352845 7:0.01413149 8:0.86379445 9:1.0066251 10:0.00873418 11:0.00031611 12:0.00478019 13:0.08571079 14:0.0538713 15:0.08495404 16:0.04312021 17:0.02762077 18:0.02017661 19:0.95115948 20:0.95662642 21:0.95750129 
0.1653958768666336 1:0.00897988 2:0.4093399 3:0.83198857 4:0.98516607 5:0.12156863 6:0.00419276 7:0.01219402 8:0.92409354 9:1.0074596 10:0.00628242 11:0.00019466 12:0.00453002 13:0.08701379 14:0.0509315 15:0.07102305 16:0.03540182 17:0.02273909 18:0.01700775 19:0.9529404 20:0.9562031 21:0.95943093 
0.06195079502058995 1:0.00728589 2:0.42751384 3:0.83017319 4:0.98506755 5:0.10196079 6:0.00346551 7:0.01245981 8:0.96324599 9:1.007398 10:0.00632169 11:0.00014274 12:0.002427 13:0.08691864 14:0.07234 15:0.09850729 16:0.0499909 17:0.0310581 18:0.02168546 19:0.96039724 20:0.96157527 21:0.96210617 
0.1524002377935245 1:0.01057286 2:0.39516407 3:0.79393679 4:0.98575103 5:0.16862746 6:0.00377229 7:0.01259109 8:0.89547062 9:1.0070677 10:0.00671527 11:0.00017653 12:0.00348055 13:0.09162063 14:0.05648074 15:0.08104012 16:0.0397445 17:0.02426255 18:0.01722964 19:0.95061678 20:0.95655346 21:0.95516318 
0.05076180560659304 1:0.00747177 2:0.42532647 3:0.83424562 4:0.98545974 5:0.32156864 6:0.00346985 7:0.01095232 8:0.9203698 9:1.007304 10:0.00557265 11:0.00014816 12:0.00217939 13:0.07002546 14:0.06960544 15:0.07278828 16:0.03204341 17:0.01883914 18:0.01328455 19:0.97121179 20:0.97236913 21:0.97438067 
0.0412158675523317 1:0.00905694 2:0.40859523 3:0.82454085 4:0.98534727 5:0.12941177 6:0.00396933 7:0.0122115 8:0.92716855 9:1.0073103 10:0.00635706 11:0.0001768 12:0.00351038 13:0.09024397 14:0.05618552 15:0.07672413 16:0.03760314 17:0.02409472 18:0.01781513 19:0.95275342 20:0.95746464 21:0.9580335 
0.03119451322091835 1:0.00678178 2:0.43374631 3:0.85341942 4:0.98508811 5:0.10980392 6:0.00356741 7:0.0109793 8:0.97283906 9:1.0074917 10:0.00559177 11:0.00013049 12:0.00197278 13:0.07273511 14:0.08213003 15:0.08205981 16:0.03754364 17:0.02173764 18:0.01461225 19:0.96980989 20:0.97068888 21:0.97232777 
0.1783392328329786 1:0.00842216 2:0.41492116 3:0.80338323 4:0.98545444 5:0.11372549 6:0.00336063 7:0.01343232 8:0.92075711 9:1.0072261 10:0.00689083 11:0.0001646 12:0.00355851 13:0.08556741 14:0.05649986 15:0.08281713 16:0.04164674 17:0.027248 18:0.02033093 19:0.95698768 20:0.95822436 21:0.96082288 
0.08670524032758585 1:0.00780257 2:0.42155883 3:0.83368689 4:0.98503083 5:0.08235294 6:0.00376461 7:0.0124218 8:0.95533741 9:1.0075263 10:0.00634217 11:0.00016574 12:0.00308673 13:0.08810347 14:0.05892067 15:0.08253844 16:0.03944056 17:0.02454082 18:0.0178 19:0.95693934 20:0.95883298 21:0.96145362 
0.04413962853906222 1:0.01019845 2:0.39829525 3:0.79327482 4:0.98578143 5:0.15686275 6:0.00364937 7:0.01288329 8:0.89716464 9:1.0070319 10:0.00682628 11:0.00017904 12:0.00363138 13:0.08850716 14:0.05269086 15:0.08107752 16:0.03967811 17:0.0246977 18:0.01786415 19:0.95078564 20:0.95630479 21:0.95493293 
0.2462690103774034 1:0.00714047 2:0.42926589 3:0.8447606 4:0.98521191 5:0.34509805 6:0.00358258 7:0.01080493 8:0.9367969 9:1.0074353 10:0.00547265 11:0.00013211 12:0.00192578 13:0.07096949 14:0.07049663 15:0.07555486 16:0.03440093 17:0.02054037 18:0.01440777 19:0.97134089 20:0.97252148 21:0.97403371 
0.1729976768155221 1:0.00972832 2:0.40238833 3:0.82316178 4:0.98527879 5:0.14509805 6:0.00422443 7:0.01212139 8:0.91573048 9:1.0074071 10:0.00639721 11:0.00019927 12:0.00390296 13:0.0919506 14:0.0544752 15:0.07471544 16:0.03595009 17:0.02268724 18:0.01677436 19:0.94935352 20:0.95385337 21:0.95489234 
0.4493235586692443 1:0.00952869 2:0.40419826 3:0.74969041 4:0.98690891 5:0.15686275 6:0.00252503 7:0.01507091 8:0.88666153 9:1.006431 10:0.007882 11:0.0002104 12:0.00360073 13:0.08298787 14:0.05309561 15:0.0842028 16:0.04293085 17:0.02782363 18:0.02082521 19:0.95602959 20:0.9575091 21:0.96057093 
0.2316294000034266 1:0.00814534 2:0.41781518 3:0.81254268 4:0.98527205 5:0.10588235 6:0.00350945 7:0.01348091 8:0.92447054 9:1.007265 10:0.00683268 11:0.00017535 12:0.00434364 13:0.08439144 14:0.04833799 15:0.07749329 16:0.04025929 17:0.02715982 18:0.02109532 19:0.95408678 20:0.95674616 21:0.95736897 
0.3541428493217894 1:0.00796295 2:0.41979194 3:0.82256395 4:0.98523426 5:0.4627451 6:0.00354209 7:0.01079053 8:0.94238037 9:1.0074123 10:0.00550841 11:0.00014811 12:0.0017576 13:0.06848682 14:0.07838541 15:0.07419896 16:0.030793 17:0.01773367 18:0.01225543 19:0.97212887 20:0.97364414 21:0.97551298 
0.1536483740464053 1:0.00774346 2:0.42222676 3:0.81526017 4:0.98530304 5:0.09411765 6:0.00332291 7:0.01315709 8:0.94391656 9:1.0073545 10:0.00675185 11:0.00015245 12:0.00308965 13:0.08434103 14:0.05880911 15:0.08361611 16:0.04058085 17:0.0262982 18:0.01971687 19:0.95949715 20:0.96050161 21:0.96289074 
0.2985675651509206 1:0.00756209 2:0.42429367 3:0.80632949 4:0.98574495 5:0.24705882 6:0.00293308 7:0.01171739 8:0.95445263 9:1.0071744 10:0.00616102 11:0.00022123 12:0.00265431 13:0.06797882 14:0.07827973 15:0.0852472 16:0.0366693 17:0.02065303 18:0.01393118 19:0.97280878 20:0.9720701 21:0.9722029 
0.00227499638489939 1:0.00874103 2:0.41168195 3:0.82373947 4:0.98520297 5:0.11372549 6:0.00392599 7:0.01265441 8:0.92457193 9:1.0073998 10:0.00650471 11:0.00019062 12:0.00430308 13:0.08698 14:0.04829645 15:0.07373478 16:0.03800299 17:0.02538829 18:0.0194238 19:0.95245278 20:0.95505536 21:0.95790327 
0.02251329394157175 1:0.00790062 2:0.42047477 3:0.82308853 4:0.9851312 5:0.11764706 6:0.00361629 7:0.01283034 8:0.94153064 9:1.0074398 10:0.00649324 11:0.00017444 12:0.00351412 13:0.08853811 14:0.06159038 15:0.08575686 16:0.04262347 17:0.02724288 18:0.01991534 19:0.9568783 20:0.95822066 21:0.96043509 
0.1820579858671872 1:0.00811355 2:0.41816559 3:0.81907088 4:0.98528296 5:0.41568628 6:0.00357137 7:0.01086256 8:0.93599236 9:1.0073502 10:0.00552967 11:0.00014612 12:0.00191167 13:0.07150704 14:0.07356872 15:0.07488539 16:0.03429374 17:0.02031237 18:0.01415254 19:0.97121859 20:0.97228187 21:0.97383237 
0.1537442840302345 1:0.00583472 2:0.44679412 3:0.83455259 4:0.9851799 5:0.03529412 6:0.00285103 7:0.01202011 8:0.97954416 9:1.0074509 10:0.00603777 11:9.2e-05 12:0.00157361 13:0.06862757 14:0.07901496 15:0.0992106 16:0.0492143 17:0.03050723 18:0.02158955 19:0.97384864 20:0.97413039 21:0.97473019 
0.02779807964989301 1:0.00813451 2:0.41792911 3:0.86918932 4:0.9848938 5:0.03529412 6:0.00466076 7:0.01051122 8:0.95802379 9:1.0075887 10:0.00537603 11:0.00015495 12:0.00281076 13:0.08658499 14:0.06234397 15:0.07090908 16:0.0338259 17:0.02072804 18:0.01509005 19:0.96045202 20:0.9629544 21:0.96609187 
0.1845803654858809 1:0.00627673 2:0.44045585 3:0.84711957 4:0.98521429 5:0.05490196 6:0.0031749 7:0.01147647 8:0.97661352 9:1.0074887 10:0.00584712 11:0.00010315 12:0.00177788 13:0.0721218 14:0.0708267 15:0.07686519 16:0.03348866 17:0.01917937 18:0.01288654 19:0.97223777 20:0.97346872 21:0.97528487 
0.02929261383376471 1:0.00893441 2:0.40978119 3:0.80771589 4:0.98541695 5:0.15686275 6:0.00363672 7:0.01253412 8:0.92141038 9:1.007243 10:0.00648525 11:0.00015917 12:0.00309691 13:0.08665355 14:0.05503463 15:0.08330301 16:0.04220818 17:0.02689797 18:0.01985897 19:0.95728934 20:0.9597795 21:0.96025538 
0.1131755549059035 1:0.00589854 2:0.44584927 3:0.843611 4:0.98515463 5:0.02745098 6:0.00299565 7:0.01157505 8:0.98155373 9:1.0074581 10:0.00583802 11:9.078e-05 12:0.00152172 13:0.066287 14:0.075907 15:0.08936354 16:0.04072842 17:0.0240721 18:0.01656183 19:0.9743259 20:0.97485673 21:0.97591257 
0.01712396321235521 1:0.00650639 2:0.43734834 3:0.85533977 4:0.98516512 5:0.03529412 6:0.00340317 7:0.01109958 8:0.97485942 9:1.0075246 10:0.00568452 11:0.00010486 12:0.00173526 13:0.06820694 14:0.07156638 15:0.06894738 16:0.02833448 17:0.01605128 18:0.01112046 19:0.97162521 20:0.97344685 21:0.97560948 
0.3027299951769674 1:0.00732197 2:0.42708877 3:0.8255828 4:0.9851867 5:0.05098039 6:0.00336577 7:0.01283595 8:0.95547724 9:1.0074254 10:0.00651253 11:0.00014659 12:0.00289875 13:0.08387435 14:0.0577211 15:0.08059567 16:0.03864875 17:0.02418867 18:0.0174673 19:0.96070439 20:0.96222109 21:0.96443313 
0.3949111767503639 1:0.00773986 2:0.4222706 3:0.85675931 4:0.98569494 5:0.04705882 6:0.00384484 7:0.01103219 8:0.92879045 9:1.007096 10:0.00566751 11:0.0001341 12:0.00281961 13:0.07513435 14:0.06525724 15:0.07737745 16:0.03397748 17:0.01958252 18:0.01327125 19:0.96692783 20:0.96905535 21:0.97197855 
0.1893219817485794 1:0.0073703 2:0.42652285 3:0.86698747 4:0.9850322 5:0.03529412 6:0.00409183 7:0.01064714 8:0.96413469 9:1.0075604 10:0.00549149 11:0.00012645 12:0.00229028 13:0.07366933 14:0.05299226 15:0.05857471 16:0.02549514 17:0.01529865 18:0.01094629 19:0.96787822 20:0.97099423 21:0.97423047 
0.09186530678784204 1:0.00783096 2:0.42123377 3:0.82176697 4:0.9852339 5:0.10588235 6:0.00348106 7:0.01246281 8:0.94854248 9:1.0073038 10:0.00640081 11:0.00014612 12:0.00249022 13:0.08815512 14:0.07281946 15:0.09672897 16:0.04854603 17:0.02955491 18:0.02045411 19:0.95873243 20:0.96116042 21:0.96080166 
0.06118553645414035 1:0.00765442 2:0.42322898 3:0.82432717 4:0.98518628 5:0.10980392 6:0.00346873 7:0.01272975 8:0.94417918 9:1.0074149 10:0.00652287 11:0.0001496 12:0.00295326 13:0.08285052 14:0.06136886 15:0.08229659 16:0.03907769 17:0.02484615 18:0.01820396 19:0.95989245 20:0.96109325 21:0.96342665 
0.1361395268889279 1:0.00933722 2:0.40594786 3:0.79734659 4:0.98565072 5:0.14117648 6:0.00349366 7:0.01276575 8:0.90884435 9:1.0070341 10:0.00671147 11:0.00015626 12:0.00306414 13:0.08292083 14:0.05580049 15:0.0809241 16:0.04000537 17:0.02548443 18:0.01879921 19:0.9563266 20:0.9604044 21:0.95927268 
0.3706529000211901 1:0.00768475 2:0.4228783 3:0.8317827 4:0.98501891 5:0.14901961 6:0.00368744 7:0.01247605 8:0.95560867 9:1.0074872 10:0.00635106 11:0.00016341 12:0.00307484 13:0.08689252 14:0.0577868 15:0.08479087 16:0.04134125 17:0.02612283 18:0.01899782 19:0.95796621 20:0.95942885 21:0.96182656 
0.1738457523019806 1:0.00732177 2:0.42708787 3:0.84049624 4:0.98526442 5:0.36470589 6:0.00357435 7:0.01084572 8:0.93879437 9:1.0073999 10:0.00549103 11:0.00012127 12:0.00187662 13:0.07125659 14:0.06828211 15:0.07456957 16:0.03399637 17:0.02028799 18:0.01437556 19:0.97088659 20:0.97236401 21:0.97434223 
0.1413983765685536 1:0.00935547 2:0.40577781 3:0.80546302 4:0.98563641 5:0.1254902 6:0.00360829 7:0.01255356 8:0.91818982 9:1.0070957 10:0.00661534 11:0.00016186 12:0.00279976 13:0.09392218 14:0.07084713 15:0.09439509 16:0.04744215 17:0.02908809 18:0.02014549 19:0.95361137 20:0.95760399 21:0.95624942 
0.236816928075685 1:0.0099461 2:0.4004713 3:0.8019439 4:0.98562711 5:0.14901961 6:0.00373041 7:0.01237953 8:0.90575832 9:1.0071526 10:0.00657311 11:0.00016829 12:0.00290585 13:0.09276606 14:0.06705051 15:0.08703185 16:0.04161896 17:0.02479072 18:0.01682448 19:0.95353681 20:0.95841819 21:0.95746267 
0.1832090695830899 1:0.00950948 2:0.40436435 3:0.80030787 4:0.98568249 5:0.13333334 6:0.00354924 7:0.01257235 8:0.90784663 9:1.0070924 10:0.00667004 11:0.00016025 12:0.00280268 13:0.09339127 14:0.06987269 15:0.0916191 16:0.04538967 17:0.02739894 18:0.01895441 19:0.9553324 20:0.95884758 21:0.95790225 
0.4336316963424488 1:0.01133819 2:0.38908944 3:0.76972109 4:0.9865604 5:0.46666667 6:0.00359496 7:0.01122347 8:0.86972767 9:1.0066317 10:0.00568998 11:0.00030733 12:0.00226973 13:0.07579739 14:0.06999864 15:0.06542882 16:0.02773189 17:0.0158973 18:0.0111199 19:0.96804845 20:0.9699986 21:0.97228456 
0.1961030086645347 1:0.0102218 2:0.39809501 3:0.8202759 4:0.98529267 5:0.15294118 6:0.00434939 7:0.01212038 8:0.90924251 9:1.0073348 10:0.00639939 11:0.00022215 12:0.00457252 13:0.09136166 14:0.0521562 15:0.07196694 16:0.03478425 17:0.0221854 18:0.01673634 19:0.94678748 20:0.95242655 21:0.95351356 
0.04258624791455076 1:0.00705619 2:0.43030566 3:0.8476494 4:0.98515874 5:0.30980393 6:0.00354532 7:0.01091832 8:0.95818198 9:1.0074863 10:0.00558916 11:0.00012367 12:0.00196559 13:0.06952801 14:0.07244594 15:0.07038353 16:0.02897918 17:0.01657726 18:0.01152109 19:0.97063273 20:0.97244793 21:0.97401327 
0.2937026145838024 1:0.00778601 2:0.42174762 3:0.83414441 4:0.98522216 5:0.40784314 6:0.00371471 7:0.01075372 8:0.93762028 9:1.0074486 10:0.00548396 11:0.00015582 12:0.00194281 13:0.07413259 14:0.07278382 15:0.07551873 16:0.03462073 17:0.02064669 18:0.01458312 19:0.97017276 20:0.97115016 21:0.97313339 
0.05654049697229145 1:0.00640317 2:0.4387424 3:0.84982109 4:0.98501098 5:0.03137255 6:0.0033587 7:0.01130376 8:0.9694342 9:1.0076162 10:0.00572375 11:0.00010607 12:0.00181909 13:0.07542674 14:0.07986011 15:0.09253132 16:0.04482442 17:0.02711797 18:0.01885224 19:0.97077876 20:0.97156733 21:0.97277933 
0.06424681996633275 1:0.00920085 2:0.40722752 3:0.81694573 4:0.98538941 5:0.13333334 6:0.00383085 7:0.01233408 8:0.91425228 9:1.0072674 10:0.00649879 11:0.00017227 12:0.00338322 13:0.09009144 14:0.05662326 15:0.07746961 16:0.03829598 17:0.0242279 18:0.01766629 19:0.9547081 20:0.95861769 21:0.95977032 
0.3636445494588269 1:0.01042278 2:0.39640629 3:0.79346609 4:0.9860543 5:0.30980393 6:0.00354688 7:0.01130976 8:0.93904871 9:1.0069252 10:0.00606718 11:0.00034775 12:0.00288534 13:0.07750122 14:0.07592893 15:0.0805672 16:0.0362296 17:0.02100866 18:0.01428502 19:0.96647722 20:0.96819741 21:0.97049922 
0.2932854942494252 1:0.00836482 2:0.41551635 3:0.81970513 4:0.98560172 5:0.3019608 6:0.00351859 7:0.01104892 8:0.95389163 9:1.0072589 10:0.00574153 11:0.00023896 12:0.00239223 13:0.07266093 14:0.08089267 15:0.07823429 16:0.03582541 17:0.02115599 18:0.01473943 19:0.96879941 20:0.97005808 21:0.97221136 
0.01267287326508798 1:0.00657331 2:0.43645778 3:0.85432017 4:0.98503375 5:0.20784314 6:0.00347938 7:0.0108143 8:0.96279317 9:1.0075592 10:0.00549628 11:0.00010835 12:0.00175723 13:0.06879077 14:0.0778276 15:0.07603852 16:0.03192734 17:0.01842862 18:0.01267674 19:0.97271967 20:0.97377282 21:0.97536784 
0.2820763478450313 1:0.00819832 2:0.41725066 3:0.81776011 4:0.98558319 5:0.10196079 6:0.00354892 7:0.01300253 8:0.92314225 9:1.0071635 10:0.00669942 11:0.00017406 12:0.00407487 13:0.08881433 14:0.06133351 15:0.09033617 16:0.04673282 17:0.02923795 18:0.02078651 19:0.95690161 20:0.95952511 21:0.96062154 
0.04108394093326294 1:0.00794524 2:0.41997498 3:0.81201553 4:0.98534483 5:0.10588235 6:0.00335036 7:0.01304391 8:0.93768436 9:1.0072546 10:0.00668211 11:0.00015861 12:0.00301266 13:0.09197592 14:0.06093903 15:0.09507309 16:0.04934844 17:0.03137182 18:0.02230864 19:0.95688069 20:0.95943803 21:0.95903301 
0.05511251067647693 1:0.00670744 2:0.43471122 3:0.86440009 4:0.98498869 5:0.05490196 6:0.00370443 7:0.01063042 8:0.98001701 9:1.0075639 10:0.00542365 11:0.00010985 12:0.00180778 13:0.06940774 14:0.07317235 15:0.07386626 16:0.03074331 17:0.01752724 18:0.01197837 19:0.97112083 20:0.97244465 21:0.97454935 
0.2039663071358816 1:0.00944792 2:0.40492752 3:0.80836684 4:0.985533 5:0.13725491 6:0.00374094 7:0.01269043 8:0.9078232 9:1.0071794 10:0.00669901 11:0.00017972 12:0.00400897 13:0.08379987 14:0.04877408 15:0.07371075 16:0.03478451 17:0.02154602 18:0.01556599 19:0.95433182 20:0.95893073 21:0.9604575 
0.2159893540303341 1:0.00726072 2:0.42781222 3:0.83137923 4:0.98546726 5:0.32941177 6:0.00336223 7:0.01106467 8:0.93374676 9:1.0072484 10:0.00559633 11:0.00013556 12:0.00187746 13:0.07055922 14:0.06971643 15:0.07662633 16:0.03432291 17:0.02032993 18:0.01429714 19:0.97178125 20:0.97304684 21:0.97455537 
0.1869582564729682 1:0.00782459 2:0.4213171 3:0.82726556 4:0.98508203 5:0.08235294 6:0.00364601 7:0.01277501 8:0.94801939 9:1.0074813 10:0.00648502 11:0.00017477 12:0.00355695 13:0.09202994 14:0.06083205 15:0.08400734 16:0.04148919 17:0.02637712 18:0.01914878 19:0.95591235 20:0.95751935 21:0.95991117 
0.09008718085958559 1:0.00977709 2:0.4019537 3:0.81060684 4:0.98547435 5:0.13725491 6:0.00393862 7:0.01254732 8:0.90814495 9:1.00729 10:0.00659174 11:0.0001997 12:0.0040026 13:0.09089007 14:0.05422857 15:0.07661126 16:0.03749921 17:0.02399049 18:0.01792861 19:0.94939262 20:0.95446587 21:0.95455855 
0.1618547512333333 1:0.00664763 2:0.43548352 3:0.85065848 4:0.98510426 5:0.20784314 6:0.00341779 7:0.01086923 8:0.95395309 9:1.0075026 10:0.00553822 11:0.00010196 12:0.00171738 13:0.06790458 14:0.07438903 15:0.07411073 16:0.03139401 17:0.01829686 18:0.01274474 19:0.97280359 20:0.97391891 21:0.97559059 
0.1642595140133314 1:0.00820694 2:0.41715795 3:0.8220284 4:0.98522907 5:0.09411765 6:0.00363817 7:0.01258931 8:0.93995136 9:1.0073487 10:0.00651272 11:0.00016121 12:0.00294309 13:0.09308981 14:0.06473013 15:0.09120116 16:0.04540061 17:0.02799878 18:0.01963488 19:0.95573366 20:0.95817995 21:0.95871305 
0.4330880307650526 1:0.01865813 2:0.34582481 3:0.64704466 4:0.98781466 5:0.30980393 6:0.00269894 7:0.01498898 8:0.94315577 9:1.0053695 10:0.0106627 11:0.00128749 12:0.00636514 13:0.07107605 14:0.07387549 15:0.0861152 16:0.03945473 17:0.02288466 18:0.01571897 19:0.95727229 20:0.95817918 21:0.95867342 
0.05364717537740344 1:0.00624098 2:0.44095722 3:0.8475334 4:0.98518038 5:0.10588235 6:0.00318809 7:0.01116186 8:0.97769117 9:1.0074801 10:0.00565813 11:0.00011758 12:0.00176605 13:0.06807029 14:0.08276957 15:0.08653846 16:0.03884884 17:0.02230142 18:0.01494898 19:0.97278845 20:0.97363788 21:0.97418541 
0.3653483553895052 1:0.00931378 2:0.40617073 3:0.76804519 4:0.98609859 5:0.26666668 6:0.00290014 7:0.01217391 8:0.96172482 9:1.0068462 10:0.00672375 11:0.00035485 12:0.00339505 13:0.06929706 14:0.07916136 15:0.09172542 16:0.04375602 17:0.02637141 18:0.01883675 19:0.96784437 20:0.96731532 21:0.96708542 
0.2472213480990851 1:0.0079435 2:0.41999951 3:0.85221648 4:0.98506284 5:0.36078432 6:0.00415235 7:0.01049445 8:0.94607764 9:1.0075321 10:0.0054137 11:0.00016879 12:0.00216128 13:0.07809113 14:0.07581139 15:0.07368033 16:0.03255463 17:0.0188113 18:0.01319788 19:0.9666931 20:0.96843189 21:0.97050059 
0.04247129679635447 1:0.00749092 2:0.42511106 3:0.86174715 4:0.98502988 5:0.26666668 6:0.00407179 7:0.01056926 8:0.95799619 9:1.0075608 10:0.00543719 11:0.00013818 12:0.00231429 13:0.07492106 14:0.06215351 15:0.06940789 16:0.02973178 17:0.01772311 18:0.01260006 19:0.96735603 20:0.96930081 21:0.97198594 
0.006965165292449305 1:0.00845473 2:0.41457763 3:0.81865656 4:0.98533183 5:0.09803922 6:0.00366414 7:0.01277502 8:0.93068635 9:1.0072859 10:0.00660068 11:0.00017324 12:0.00362395 13:0.08870818 14:0.05378023 15:0.08187634 16:0.0415004 17:0.0269002 18:0.01963456 19:0.95464021 20:0.95741934 21:0.95885086 
0.004419825112793503 1:0.00774164 2:0.42223886 3:0.83765119 4:0.98516154 5:0.28235295 6:0.0037815 7:0.01084096 8:0.93205649 9:1.007457 10:0.0055483 11:0.00015269 12:0.00209467 13:0.07377318 14:0.06957802 15:0.07886576 16:0.03581601 17:0.02092003 18:0.01466912 19:0.96895242 20:0.97006798 21:0.97199506 
0.3981958590587781 1:0.00819083 2:0.41733277 3:0.82435685 4:0.9851802 5:0.53725493 6:0.00375022 7:0.01086626 8:0.92703611 9:1.007428 10:0.00551933 11:0.00019437 12:0.00201984 13:0.0742109 14:0.07420125 15:0.08210431 16:0.03722697 17:0.02205908 18:0.01535534 19:0.9690634 20:0.97027659 21:0.97188997 
0.1407872647725131 1:0.00994703 2:0.40045381 3:0.79817981 4:0.98572171 5:0.13725491 6:0.00364917 7:0.01257414 8:0.90385461 9:1.0070759 10:0.00670329 11:0.00016738 12:0.00292539 13:0.09480927 14:0.0654779 15:0.09038787 16:0.04619769 17:0.02930644 18:0.02090818 19:0.9534471 20:0.95674062 21:0.9563691 
0.3514957840657713 1:0.00694457 2:0.43168217 3:0.80821991 4:0.9853183 5:0.10588235 6:0.00294755 7:0.01377825 8:0.95782727 9:1.0073355 10:0.00693788 11:0.0001414 12:0.00259331 13:0.08814041 14:0.0676406 15:0.0988486 16:0.05162773 17:0.03339281 18:0.02428978 19:0.96158642 20:0.96200508 21:0.96299595 
0.2059458367575816 1:0.00879242 2:0.41117176 3:0.81225324 4:0.98531002 5:0.10588235 6:0.00371646 7:0.0131456 8:0.924169 9:1.0073247 10:0.00672756 11:0.00020213 12:0.00439831 13:0.09177999 14:0.05210131 15:0.08241028 16:0.04262514 17:0.02784258 18:0.02078207 19:0.94966692 20:0.95350981 21:0.95367795 
0.02534285196812974 1:0.01000689 2:0.39994153 3:0.81546926 4:0.98540127 5:0.14509805 6:0.00408744 7:0.01223287 8:0.90739697 9:1.0072023 10:0.00651138 11:0.0001864 12:0.00380871 13:0.08672602 14:0.05294248 15:0.07285705 16:0.03515812 17:0.02203204 18:0.01630606 19:0.95153219 20:0.95740318 21:0.95893294 
0.06801542240379035 1:0.0092985 2:0.40630758 3:0.80224878 4:0.98546124 5:0.15294118 6:0.00365828 7:0.01283627 8:0.91745597 9:1.0071925 10:0.00666738 11:0.00017372 12:0.00335553 13:0.09132721 14:0.0585428 15:0.08494715 16:0.04271778 17:0.02667388 18:0.01916314 19:0.95422733 20:0.95689285 21:0.95806742 
0.03360151306266761 1:0.00805266 2:0.4188205 3:0.81172323 4:0.98536342 5:0.10196079 6:0.00337864 7:0.01322642 8:0.93660897 9:1.007273 10:0.00680215 11:0.00015905 12:0.0030881 13:0.08540617 14:0.05851951 15:0.08645387 16:0.04328213 17:0.02799533 18:0.02079763 19:0.95749658 20:0.95847458 21:0.96069032 
0.2588669125125919 1:0.00688728 2:0.43240243 3:0.84054673 4:0.98521245 5:0.26666668 6:0.00341908 7:0.01104999 8:0.9335984 9:1.0074061 10:0.00557421 11:0.00011462 12:0.00170119 13:0.06914834 14:0.07641251 15:0.08267964 16:0.03641709 17:0.02074324 18:0.01382324 19:0.97208267 20:0.97321588 21:0.97451299 
0.09607249656971922 1:0.00721977 2:0.42830983 3:0.83957064 4:0.98520213 5:0.29019609 6:0.00356832 7:0.01095237 8:0.92604345 9:1.007461 10:0.00554083 11:0.00012588 12:0.00177051 13:0.07107405 14:0.07633776 15:0.08079795 16:0.0361077 17:0.02083208 18:0.0141373 19:0.97120541 20:0.97239006 21:0.97389615 
0.4489814394437447 1:0.01036139 2:0.39691949 3:0.73358542 4:0.98696232 5:0.30980393 6:0.00278705 7:0.01292341 8:0.89314318 9:1.006305 10:0.00707081 11:0.00038904 12:0.00316314 13:0.06529853 14:0.07387114 15:0.0703867 16:0.02947214 17:0.01667121 18:0.01125369 19:0.97135925 20:0.97300875 21:0.97465712 
0.05098922488184916 1:0.00690813 2:0.43215081 3:0.84843367 4:0.98505533 5:0.24313726 6:0.00354781 7:0.01105308 8:0.95334947 9:1.0075649 10:0.00562577 11:0.00012142 12:0.00194424 13:0.07342904 14:0.07650446 15:0.08282936 16:0.03569159 17:0.02024472 18:0.01385063 19:0.97001863 20:0.97109973 21:0.97281837 
0.4465149252420417 1:0.00779305 2:0.42167747 3:0.83056486 4:0.9863314 5:0.10980392 6:0.00318471 7:0.01115006 8:0.97709417 9:1.0068713 10:0.00579775 11:0.00021889 12:0.00257874 13:0.07244018 14:0.0731691 15:0.06393959 16:0.02627114 17:0.01479186 18:0.01005867 19:0.97079158 20:0.9727965 21:0.97506809 
0.01711066049252255 1:0.00670543 2:0.43473899 3:0.85604018 4:0.98494309 5:0.02745098 6:0.00363504 7:0.01102619 8:0.96881539 9:1.0075918 10:0.00559424 11:0.00011401 12:0.00225093 13:0.08335479 14:0.06593236 15:0.08462828 16:0.04197526 17:0.02609305 18:0.01840687 19:0.96928012 20:0.97012788 21:0.97158682 
0.4376208204695208 1:0.0093923 2:0.40544552 3:0.77662981 4:0.98590666 5:0.18431373 6:0.00317137 7:0.01377547 8:0.90657747 9:1.0069418 10:0.00826274 11:0.00022657 12:0.00342226 13:0.08816842 14:0.05717053 15:0.08457443 16:0.04301413 17:0.02779992 18:0.0209358 19:0.9560532 20:0.95695961 21:0.95966327 
0.3052088591461323 1:0.00706734 2:0.43016502 3:0.86781126 4:0.98516887 5:0.09803922 6:0.00391644 7:0.0104373 8:0.96496528 9:1.0074518 10:0.00535511 11:0.00012497 12:0.00212794 13:0.0699809 14:0.05280169 15:0.0602856 16:0.02664566 17:0.01627881 18:0.01142781 19:0.9709059 20:0.97353834 21:0.97629374 
0.1627080762360213 1:0.00752885 2:0.42465791 3:0.82276565 4:0.98521835 5:0.09803922 6:0.00338672 7:0.01263068 8:0.95696354 9:1.0073561 10:0.00646665 11:0.00014404 12:0.00244788 13:0.08791646 14:0.07310285 15:0.09707686 16:0.04899701 17:0.02986017 18:0.02053043 19:0.9599067 20:0.96196967 21:0.96226305 
0.07484049660108899 1:0.00935763 2:0.40575984 3:0.81445265 4:0.9853856 5:0.14509805 6:0.00384435 7:0.01235365 8:0.9120754 9:1.0072929 10:0.00652742 11:0.00017766 12:0.00366232 13:0.08767551 14:0.05331927 15:0.07313096 16:0.03386688 17:0.02056559 18:0.01474722 19:0.95663369 20:0.96028805 21:0.9624579 
0.2356621500442549 1:0.00865064 2:0.41258198 3:0.82741845 4:0.98521972 5:0.14901961 6:0.00389981 7:0.01137853 8:0.92240602 9:1.0073469 10:0.005891 11:0.00013751 12:0.0027333 13:0.08122799 14:0.06050119 15:0.07559898 16:0.03620701 17:0.02246178 18:0.0163033 19:0.96284205 20:0.96537596 21:0.96555895 
0.1257324224887439 1:0.00732602 2:0.42703652 3:0.83542633 4:0.98534352 5:0.32549021 6:0.00348822 7:0.01087811 8:0.91639239 9:1.0073611 10:0.00548347 11:0.00014595 12:0.00179267 13:0.06985082 14:0.07412802 15:0.07701042 16:0.03454867 17:0.02016365 18:0.01398466 19:0.97196823 20:0.97304916 21:0.97466546 
0.06399285185209183 1:0.00655351 2:0.4367266 3:0.85257202 4:0.98492891 5:0.02745098 6:0.00349117 7:0.01117624 8:0.97764921 9:1.0075953 10:0.00566573 11:0.00010844 12:0.00182216 13:0.07668554 14:0.08439952 15:0.09097201 16:0.0420668 17:0.02419397 18:0.01620977 19:0.969778 20:0.97048634 21:0.97171551 
0.2084059358346231 1:0.00836971 2:0.41546309 3:0.80874497 4:0.98576134 5:0.10980392 6:0.00344289 7:0.0137136 8:0.90412176 9:1.0070568 10:0.00709203 11:0.00019087 12:0.00517261 13:0.08593228 14:0.05480676 15:0.07937293 16:0.0401379 17:0.02580623 18:0.01905476 19:0.95670658 20:0.95948607 21:0.96260786 
0.1763675898430578 1:0.0067549 2:0.43408599 3:0.84540337 4:0.98522347 5:0.23137255 6:0.00336303 7:0.01096375 8:0.95170164 9:1.0074371 10:0.00556478 11:0.00010909 12:0.00185197 13:0.06988131 14:0.07692932 15:0.07723883 16:0.03248958 17:0.01874246 18:0.01301283 19:0.97256094 20:0.97378159 21:0.97550851 
0.3133566091919032 1:0.01090283 2:0.39248797 3:0.75551623 4:0.98559386 5:0.59607846 6:0.00347599 7:0.01131851 8:0.89588553 9:1.0071042 10:0.00581854 11:0.00038536 12:0.00190041 13:0.07339144 14:0.07762334 15:0.07715467 16:0.03282072 17:0.01869985 18:0.01268606 19:0.97177935 20:0.97285861 21:0.97473794 
0.03097842829473504 1:0.0091563 2:0.4076494 3:0.81021452 4:0.98541927 5:0.16470589 6:0.00373775 7:0.01242191 8:0.91833287 9:1.0072501 10:0.0064693 11:0.00016452 12:0.00316322 13:0.0845722 14:0.05242258 15:0.07890011 16:0.03882648 17:0.02465434 18:0.01817807 19:0.95680213 20:0.96000606 21:0.96131629 
0.2849505908112552 1:0.00724716 2:0.4279747 3:0.82242095 4:0.98534542 5:0.21176471 6:0.00317423 7:0.01128861 8:0.96538651 9:1.007324 10:0.00586481 11:0.00017849 12:0.00206095 13:0.06816608 14:0.07674649 15:0.08716659 16:0.03990009 17:0.02345594 18:0.01627025 19:0.97215354 20:0.97258943 21:0.97343934 
0.4357306711316702 1:0.00847188 2:0.41440052 3:0.8025102 4:0.98549098 5:0.17254902 6:0.00332652 7:0.01281943 8:0.92462009 9:1.0071326 10:0.00666105 11:0.00014802 12:0.00255584 13:0.08951658 14:0.07114998 15:0.09598898 16:0.04825521 17:0.0302672 18:0.02150888 19:0.95854557 20:0.96100211 21:0.96005607 
0.2786372495820932 1:0.00928286 2:0.4064534 3:0.82294405 4:0.98529965 5:0.11372549 6:0.00409378 7:0.01246373 8:0.92040664 9:1.007317 10:0.00645661 11:0.00019566 12:0.00449595 13:0.09014121 14:0.04934433 15:0.07325997 16:0.03788169 17:0.02538654 18:0.01936746 19:0.9488281 20:0.95353758 21:0.95448357 
0.05237275650166847 1:0.00798297 2:0.41957077 3:0.81460357 4:0.98527306 5:0.10196079 6:0.0034306 7:0.01311338 8:0.94088835 9:1.007298 10:0.00672314 11:0.00017375 12:0.00359073 13:0.09801838 14:0.06486806 15:0.09397064 16:0.04837202 17:0.03008636 18:0.02126855 19:0.95663613 20:0.95745558 21:0.9594537 
0.02095971612525423 1:0.00875849 2:0.41150865 3:0.8109768 4:0.9853887 5:0.15294118 6:0.00363301 7:0.01264648 8:0.92543173 9:1.007223 10:0.00653831 11:0.00016207 12:0.00301106 13:0.08490535 14:0.05302835 15:0.08220434 16:0.04069968 17:0.02568367 18:0.01889984 19:0.95679939 20:0.95916557 21:0.96120495 
0.2854351516721956 1:0.009548 2:0.40400928 3:0.80633944 4:0.98566365 5:0.11372549 6:0.00369589 7:0.01246038 8:0.91647768 9:1.0070545 10:0.00657775 11:0.00016796 12:0.00298957 13:0.09320076 14:0.06548287 15:0.09047547 16:0.04614652 17:0.02927519 18:0.02078895 19:0.95269656 20:0.95630163 21:0.95567429 
0.08096846630234625 1:0.00812005 2:0.41809481 3:0.81015319 4:0.98537761 5:0.11372549 6:0.00338004 7:0.013193 8:0.93572843 9:1.0072644 10:0.00677892 11:0.00015761 12:0.00319086 13:0.08531298 14:0.05809824 15:0.08505397 16:0.04229939 17:0.02707612 18:0.02011062 19:0.95814747 20:0.95912778 21:0.96142709 
0.01531764211742147 1:0.00788348 2:0.42066327 3:0.824238 4:0.98520178 5:0.11372549 6:0.00355747 7:0.01251788 8:0.94486356 9:1.0074127 10:0.0064222 11:0.00015487 12:0.00277542 13:0.09143747 14:0.0665663 15:0.09168895 16:0.04689288 17:0.0291635 18:0.02035657 19:0.95846695 20:0.95956385 21:0.96109968 
0.06605587520835998 1:0.00792805 2:0.42017639 3:0.81901962 4:0.98517954 5:0.09803922 6:0.00355274 7:0.01323125 8:0.93171394 9:1.0074267 10:0.00666954 11:0.00017718 12:0.00422247 13:0.08388744 14:0.05073138 15:0.07654902 16:0.03816364 17:0.02527731 18:0.01926284 19:0.95572346 20:0.95757973 21:0.95987397 
0.2427652636540048 1:0.00759791 2:0.42387596 3:0.83429229 4:0.98520166 5:0.32156864 6:0.00362378 7:0.01116021 8:0.92144078 9:1.0074257 10:0.00566122 11:0.0001454 12:0.00197277 13:0.0766842 14:0.07623083 15:0.07988586 16:0.03448075 17:0.01970376 18:0.01347561 19:0.9688431 20:0.97021884 21:0.97200203 
0.3243633227901895 1:0.00780024 2:0.42158654 3:0.82565153 4:0.98541695 5:0.47058824 6:0.00352304 7:0.01079882 8:0.92675745 9:1.0073055 10:0.00548029 11:0.00013908 12:0.00186187 13:0.0696501 14:0.0699548 15:0.07447606 16:0.0341356 17:0.02025002 18:0.01409159 19:0.97190773 20:0.97303802 21:0.9746877 
0.2430971252470263 1:0.00672614 2:0.43445671 3:0.8474381 4:0.98533309 5:0.30588236 6:0.00337228 7:0.01093379 8:0.94830549 9:1.0073819 10:0.00554899 11:0.00011995 12:0.00177824 13:0.06989304 14:0.07707141 15:0.07088881 16:0.0294564 17:0.01651869 18:0.01115346 19:0.97276986 20:0.97419518 21:0.97632653 
0.3645131872939218 1:0.00864847 2:0.41262284 3:0.80672646 4:0.98674077 5:0.27450982 6:0.00306223 7:0.01153325 8:0.94813961 9:1.0066314 10:0.00607029 11:0.0002672 12:0.00307022 13:0.06835466 14:0.06591185 15:0.06412935 16:0.02783842 17:0.01643187 18:0.01178738 19:0.97087294 20:0.97226495 21:0.97496492 
0.2430588977927133 1:0.00695596 2:0.43154866 3:0.84886551 4:0.98526269 5:0.22352941 6:0.00352309 7:0.01085557 8:0.94211936 9:1.0074339 10:0.00551383 11:0.00011323 12:0.00190865 13:0.07257764 14:0.07215204 15:0.07491992 16:0.03248056 17:0.01895602 18:0.01325892 19:0.9715721 20:0.97304809 21:0.97480154 
0.4367718838060475 1:0.00869851 2:0.41211876 3:0.76730376 4:0.9864006 5:0.15686275 6:0.00266774 7:0.01467177 8:0.91224426 9:1.0067211 10:0.00759216 11:0.00019892 12:0.00330174 13:0.08636996 14:0.0586256 15:0.09211128 16:0.04790847 17:0.03091383 18:0.02259159 19:0.95653415 20:0.95755643 21:0.95877594 
0.04538046035107891 1:0.00752939 2:0.42466909 3:0.8304863 4:0.98516351 5:0.10196079 6:0.00355364 7:0.01256103 8:0.95737863 9:1.0073732 10:0.00637915 11:0.00015325 12:0.00285254 13:0.08260371 14:0.05767965 15:0.07901511 16:0.03806783 17:0.02374375 18:0.016994 19:0.95979744 20:0.96183872 21:0.96462631 
0.3047575858295941 1:0.00880504 2:0.41104981 3:0.80762625 4:0.9853726 5:0.59607846 6:0.00365686 7:0.01095932 8:0.93816417 9:1.0073279 10:0.00560679 11:0.00023623 12:0.00214601 13:0.07267574 14:0.06856362 15:0.07181289 16:0.03067213 17:0.01793856 18:0.01249381 19:0.97037613 20:0.97213131 21:0.97408873 
0.361965681193095 1:0.00765059 2:0.42327023 3:0.82759696 4:0.98532909 5:0.51372552 6:0.00350404 7:0.01095837 8:0.93077391 9:1.0073583 10:0.00556125 11:0.00013845 12:0.00185866 13:0.07123014 14:0.07319067 15:0.07773838 16:0.0340028 17:0.01984709 18:0.0137711 19:0.97113591 20:0.97258508 21:0.97379923 
0.04627874030319881 1:0.00704366 2:0.4304567 3:0.86838603 4:0.98489296 5:0.03137255 6:0.0040575 7:0.01037331 8:0.96244371 9:1.0075858 10:0.00523459 11:0.00011549 12:0.0021972 13:0.07415097 14:0.07180379 15:0.07447813 16:0.0355461 17:0.02190626 18:0.01564555 19:0.96933758 20:0.97077513 21:0.9725455 
0.1239432838586917 1:0.00845558 2:0.41456524 3:0.84658754 4:0.98499745 5:0.10196079 6:0.00430005 7:0.01178354 8:0.94956428 9:1.0075501 10:0.00606268 11:0.0001866 12:0.00370453 13:0.09233187 14:0.05599248 15:0.07990015 16:0.04001883 17:0.0255255 18:0.0187467 19:0.95298666 20:0.95578039 21:0.95840985 
0.2466080711340431 1:0.00872678 2:0.41182503 3:0.81219923 4:0.98555303 5:0.52156866 6:0.00363253 7:0.01082696 8:0.91456521 9:1.0072413 10:0.00552833 11:0.00019257 12:0.00200192 13:0.0713464 14:0.06985918 15:0.07096514 16:0.03068786 17:0.01792408 18:0.01235321 19:0.97063404 20:0.97228223 21:0.97437972 
0.03426135019240255 1:0.00664946 2:0.43546408 3:0.85389209 4:0.98493171 5:0.0627451 6:0.0035439 7:0.01113185 8:0.97404701 9:1.0076215 10:0.00566324 11:0.00011375 12:0.00192187 13:0.07640252 14:0.08094393 15:0.0842723 16:0.0352518 17:0.01976327 18:0.01324415 19:0.96935833 20:0.97034675 21:0.97182202 
0.3509660541593206 1:0.00551674 2:0.45166168 3:0.84200323 4:0.98522305 5:0.02352941 6:0.00277049 7:0.0115291 8:0.98912871 9:1.0074263 10:0.00579898 11:8.039e-05 12:0.00134486 13:0.06219101 14:0.09018722 15:0.09902558 16:0.04565688 17:0.02562724 18:0.01698657 19:0.97689724 20:0.97710568 21:0.97770196 
0.05116226901964258 1:0.00581832 2:0.44703865 3:0.85359567 4:0.9852193 5:0.02352941 6:0.00306681 7:0.01100109 8:0.9856413 9:1.0074624 10:0.00555194 11:8.573e-05 12:0.00147822 13:0.06417958 14:0.0809847 15:0.08435527 16:0.038234 17:0.0218325 18:0.01454116 19:0.97592038 20:0.97665745 21:0.97739691 
0.1323285714915876 1:0.00622577 2:0.44117087 3:0.84164947 4:0.98503995 5:0.03921569 6:0.00314952 7:0.01170309 8:0.97520679 9:1.0075429 10:0.00590305 11:0.00010265 12:0.00177267 13:0.07529344 14:0.079255 15:0.0976631 16:0.04866018 17:0.03001995 18:0.02095534 19:0.97128922 20:0.97185236 21:0.97277927 
0.1038889352829065 1:0.00774684 2:0.42218018 3:0.87473315 4:0.98492777 5:0.07058824 6:0.00452867 7:0.01016851 8:0.96527654 9:1.0076443 10:0.00519441 11:0.00014057 12:0.00233496 13:0.080858 14:0.06702502 15:0.06884335 16:0.03173103 17:0.01919237 18:0.01365213 19:0.96491313 20:0.96727115 21:0.97010392 
0.3352077746849378 1:0.00807118 2:0.41861665 3:0.79071832 4:0.98566651 5:0.24313726 6:0.00293246 7:0.01204839 8:0.95655471 9:1.0071236 10:0.00635207 11:0.00021677 12:0.00236508 13:0.07063171 14:0.08396907 15:0.09215003 16:0.04108783 17:0.02344236 18:0.0157318 19:0.97088981 20:0.97144979 21:0.97253406 
0.0302407613713307 1:0.0063113 2:0.44000015 3:0.85661399 4:0.98490393 5:0.02745098 6:0.00344692 7:0.01090393 8:0.97761077 9:1.0075946 10:0.00550299 11:9.86e-05 12:0.00162925 13:0.07112518 14:0.08556821 15:0.09285862 16:0.04417058 17:0.02613326 18:0.01803824 19:0.97222728 20:0.97283322 21:0.97385633 
0.06542547280396191 1:0.00744537 2:0.4256281 3:0.82450342 4:0.98506683 5:0.10980392 6:0.00345069 7:0.01289972 8:0.9578082 9:1.0074012 10:0.00655299 11:0.00015964 12:0.00299619 13:0.09459385 14:0.06618134 15:0.09751762 16:0.05048208 17:0.03154384 18:0.02221874 19:0.95823509 20:0.95893335 21:0.96044475 
0.08330802029347159 1:0.01044875 2:0.39618897 3:0.79693466 4:0.98561156 5:0.16862746 6:0.0038591 7:0.01267984 8:0.89608353 9:1.0071228 10:0.00671478 11:0.00018703 12:0.00390266 13:0.09096231 14:0.05175553 15:0.07960018 16:0.03959901 17:0.02493856 18:0.0184029 19:0.94938636 20:0.95486647 21:0.95428234 
0.2474089654830611 1:0.00721725 2:0.42833495 3:0.83152854 4:0.98557854 5:0.29019609 6:0.00329986 7:0.01102813 8:0.91323048 9:1.0072177 10:0.00558524 11:0.0001372 12:0.0018421 13:0.06859442 14:0.0713034 15:0.07523501 16:0.03278847 17:0.0194377 18:0.01364907 19:0.97267646 20:0.97387207 21:0.9755168 
0.2817937037890458 1:0.0079921 2:0.41947624 3:0.82387191 4:0.98540592 5:0.63529414 6:0.00356252 7:0.01084392 8:0.93363827 9:1.0073417 10:0.00549559 11:0.00018517 12:0.00187151 13:0.06925914 14:0.06827151 15:0.07202245 16:0.03237581 17:0.01932643 18:0.01355969 19:0.9713338 20:0.97284895 21:0.97486633 
0.052273609926472 1:0.00889825 2:0.41013283 3:0.80398101 4:0.98548818 5:0.13333334 6:0.00349555 7:0.01274788 8:0.92373335 9:1.0071704 10:0.00666652 11:0.00015708 12:0.00267738 13:0.09068204 14:0.06926865 15:0.09446369 16:0.04730158 17:0.02897989 18:0.02007234 19:0.95582807 20:0.95877135 21:0.95813638 
0.3867769323838308 1:0.0096003 2:0.40353739 3:0.80259413 4:0.98584765 5:0.13333334 6:0.00370708 7:0.01338181 8:0.89197922 9:1.0070238 10:0.00705627 11:0.00019638 12:0.00519271 13:0.0874567 14:0.04801735 15:0.07665846 16:0.04045572 17:0.02659866 18:0.02017314 19:0.95158839 20:0.9570471 21:0.95746237 
0.02916356255694755 1:0.00984535 2:0.40135151 3:0.81846613 4:0.98533058 5:0.15294118 6:0.00416504 7:0.01224804 8:0.91385245 9:1.0073806 10:0.00646906 11:0.00019932 12:0.00393634 13:0.09019266 14:0.0528798 15:0.0755019 16:0.03642196 17:0.02271303 18:0.01658862 19:0.94894063 20:0.95359176 21:0.95425588 
0.02725423634440052 1:0.00793516 2:0.42009944 3:0.81176257 4:0.98531193 5:0.10588235 6:0.00334308 7:0.01321261 8:0.93989491 9:1.0073097 10:0.00678828 11:0.00015686 12:0.00299367 13:0.08693275 14:0.05964833 15:0.08761203 16:0.04309193 17:0.02734698 18:0.02015433 19:0.95817161 20:0.95908892 21:0.96107644 
0.01778702537277236 1:0.00668433 2:0.43500897 3:0.85288054 4:0.98493284 5:0.06666667 6:0.00356148 7:0.01116068 8:0.972211 9:1.0075959 10:0.00565845 11:0.00011468 12:0.0019296 13:0.0781822 14:0.08171421 15:0.08717056 16:0.03938295 17:0.02259131 18:0.01531015 19:0.96885437 20:0.96979111 21:0.97114265 
0.4439284032617926 1:0.00662975 2:0.43570724 3:0.82351565 4:0.98537427 5:0.31764707 6:0.00299971 7:0.01130651 8:0.9268288 9:1.0073098 10:0.00569247 11:0.00010778 12:0.00156811 13:0.06567574 14:0.08415727 15:0.08872131 16:0.03976951 17:0.02289052 18:0.01572803 19:0.97568733 20:0.97601634 21:0.97710919 
0.340392639443143 1:0.00701539 2:0.43080753 3:0.81844068 4:0.98519772 5:0.11764706 6:0.00314824 7:0.01315606 8:0.96141714 9:1.0074267 10:0.00663959 11:0.00013892 12:0.00249417 13:0.08856751 14:0.0698213 15:0.09716864 16:0.05086281 17:0.03309272 18:0.02435 19:0.96178597 20:0.96229637 21:0.9633792 
0.1734955529521376 1:0.00732594 2:0.42703819 3:0.84024346 4:0.98526591 5:0.30588236 6:0.00354337 7:0.010835 8:0.92542577 9:1.0074022 10:0.00550406 11:0.00012071 12:0.00180974 13:0.07091732 14:0.0773192 15:0.07196848 16:0.02996886 17:0.01745795 18:0.01230582 19:0.97166973 20:0.97319889 21:0.97491372 
0.227925773901295 1:0.00647418 2:0.4377766 3:0.85724837 4:0.98498887 5:0.17254902 6:0.00348025 7:0.01078433 8:0.96648878 9:1.0075648 10:0.00547808 11:0.00010037 12:0.00169473 13:0.06818971 14:0.07801684 15:0.07616581 16:0.03198493 17:0.01818512 18:0.01252651 19:0.9729889 20:0.97401094 21:0.97572637 
0.1278695483262657 1:0.01006101 2:0.39947179 3:0.80766183 4:0.98557198 5:0.14509805 6:0.00389219 7:0.01252078 8:0.90547645 9:1.007157 10:0.00668782 11:0.00018082 12:0.0036171 13:0.08922274 14:0.05553133 15:0.07539865 16:0.03625739 17:0.02246629 18:0.01631847 19:0.95119727 20:0.95645046 21:0.95729297 
0.2699529995524145 1:0.00799029 2:0.41950133 3:0.82796401 4:0.98549354 5:0.23137255 6:0.00347135 7:0.01109942 8:0.95671958 9:1.0072876 10:0.00585605 11:0.00019833 12:0.00230555 13:0.0711362 14:0.07337373 15:0.06906068 16:0.02875211 17:0.01639875 18:0.01155909 19:0.96959317 20:0.97114658 21:0.97398067 
0.1729326412941948 1:0.00856427 2:0.4134573 3:0.84382707 4:0.98499048 5:0.10588235 6:0.00428307 7:0.01192984 8:0.94474548 9:1.0075411 10:0.00612749 11:0.0001918 12:0.00400943 13:0.09048973 14:0.0589748 15:0.07682763 16:0.03584575 17:0.0218238 18:0.01565364 19:0.95257246 20:0.95555508 21:0.95913953 
0.07014730518422313 1:0.00779435 2:0.42164913 3:0.82623053 4:0.98512286 5:0.10196079 6:0.0036302 7:0.01281285 8:0.95085138 9:1.0073744 10:0.00650368 11:0.00016669 12:0.00335104 13:0.08653503 14:0.05128626 15:0.08272152 16:0.04262063 17:0.02805337 18:0.02104963 19:0.95610648 20:0.95748949 21:0.95989799 
0.1593901913765251 1:0.0090418 2:0.40874103 3:0.82581449 4:0.98523474 5:0.15294118 6:0.00401158 7:0.01205903 8:0.92634624 9:1.0073469 10:0.00630013 11:0.0001711 12:0.00339755 13:0.08597707 14:0.05505779 15:0.07179724 16:0.03274446 17:0.01984483 18:0.01426824 19:0.9560886 20:0.95987976 21:0.96244192 
0.03018527052670775 1:0.00725494 2:0.42787951 3:0.86402571 4:0.98488611 5:0.03137255 6:0.00406933 7:0.01068182 8:0.97271246 9:1.0075624 10:0.00544222 11:0.00012731 12:0.00211304 13:0.08156757 14:0.07838051 15:0.08188602 16:0.03622464 17:0.02068132 18:0.01426414 19:0.96573418 20:0.96707529 21:0.9689582 
0.0951260433287732 1:0.00807887 2:0.41852319 3:0.87805259 4:0.98477066 5:0.03529412 6:0.00481675 7:0.01011103 8:0.96567202 9:1.0075717 10:0.00519856 11:0.00014513 12:0.00238218 13:0.08419886 14:0.07537563 15:0.06942025 16:0.02998978 17:0.01743202 18:0.01238669 19:0.96238214 20:0.96500337 21:0.96796376 
0.1820650665913447 1:0.00743974 2:0.42570168 3:0.87262464 4:0.98489565 5:0.03137255 6:0.00434721 7:0.01026137 8:0.96964985 9:1.0076193 10:0.00521075 11:0.00012741 12:0.00206849 13:0.07988568 14:0.08155869 15:0.07603277 16:0.03552214 17:0.02118135 18:0.01472481 19:0.96612722 20:0.96777189 21:0.96991754 
0.03562787358530583 1:0.00614598 2:0.44228128 3:0.8492291 4:0.98506987 5:0.02745098 6:0.0031776 7:0.01134317 8:0.97568601 9:1.0075508 10:0.00576192 11:9.621e-05 12:0.00160424 13:0.06832236 14:0.07467274 15:0.0825422 16:0.03596191 17:0.021119 18:0.01437737 19:0.97309339 20:0.97402817 21:0.97541875 
0.2809219469557658 1:0.01002015 2:0.39982143 3:0.81757796 4:0.98542762 5:0.14117648 6:0.00413351 7:0.01197781 8:0.91752654 9:1.0073292 10:0.00642969 11:0.0001847 12:0.00320202 13:0.09534399 14:0.06226945 15:0.08485376 16:0.04235705 17:0.02624516 18:0.01849735 19:0.9504028 20:0.95440233 21:0.95476788 
0.0769054554168031 1:0.00644065 2:0.43822971 3:0.85821897 4:0.9850508 5:0.15686275 6:0.00347881 7:0.01076785 8:0.96987784 9:1.0075535 10:0.00546609 11:9.932e-05 12:0.00167778 13:0.06863872 14:0.07671656 15:0.07777126 16:0.03320021 17:0.01909323 18:0.01309189 19:0.97273207 20:0.97379619 21:0.97541749 
0.01736955748510401 1:0.00604177 2:0.44376525 3:0.85193819 4:0.98509526 5:0.02352941 6:0.00320085 7:0.01111088 8:0.98276556 9:1.0075089 10:0.00560156 11:9.101e-05 12:0.00155388 13:0.06548176 14:0.07224593 15:0.08324643 16:0.03840542 17:0.02325799 18:0.01649313 19:0.97407818 20:0.97474426 21:0.97595423 
0.1011934619061269 1:0.00949719 2:0.40447176 3:0.8066079 4:0.98540014 5:0.16078432 6:0.00381873 7:0.01265127 8:0.91615647 9:1.0072293 10:0.00660258 11:0.00017935 12:0.00355684 13:0.09084314 14:0.05396971 15:0.08190553 16:0.04041303 17:0.02530949 18:0.01858171 19:0.95296067 20:0.95624572 21:0.95729077 
0.1817981619226191 1:0.00642628 2:0.43840691 3:0.84887534 4:0.98525006 5:0.11372549 6:0.00322134 7:0.01098406 8:0.97450256 9:1.0074226 10:0.00562787 11:0.00012172 12:0.00186246 13:0.06795353 14:0.077461 15:0.07668174 16:0.03254244 17:0.01866654 18:0.01237107 19:0.97364837 20:0.97468066 21:0.97621524 
0.2100457596135164 1:0.00975216 2:0.40217265 3:0.8049652 4:0.98546845 5:0.14117648 6:0.0038297 7:0.01268137 8:0.90489572 9:1.0071958 10:0.00665865 11:0.00019371 12:0.00382275 13:0.10000129 14:0.06015186 15:0.08712132 16:0.04523544 17:0.02860573 18:0.02059503 19:0.95182461 20:0.953336 21:0.95485014 
0.3190877873803851 1:0.00770614 2:0.42264554 3:0.82376367 4:0.98524296 5:0.1254902 6:0.0034902 7:0.01283096 8:0.95441687 9:1.0073302 10:0.0065399 11:0.00016155 12:0.00295452 13:0.08687555 14:0.05902858 15:0.08361617 16:0.04168567 17:0.02635619 18:0.01889123 19:0.95787841 20:0.95975596 21:0.96213657 
0.1691792937519581 1:0.00677331 2:0.43385273 3:0.84679574 4:0.98516071 5:0.25098041 6:0.00343301 7:0.01082887 8:0.95311719 9:1.007447 10:0.0054857 11:0.00011601 12:0.00179802 13:0.0710722 14:0.07396062 15:0.08151887 16:0.03719638 17:0.02214856 18:0.01539252 19:0.97237998 20:0.97300428 21:0.97450894 
0.2338496330976803 1:0.00673293 2:0.43437552 3:0.847063 4:0.98520213 5:0.26274511 6:0.003383 7:0.01083883 8:0.95104152 9:1.0074728 10:0.00550237 11:0.0001016 12:0.00168733 13:0.06607868 14:0.07334219 15:0.07262457 16:0.03057674 17:0.01782215 18:0.01257695 19:0.97341526 20:0.97480255 21:0.97639292 
0.02243448858495837 1:0.00641808 2:0.43854097 3:0.85273343 4:0.98494118 5:0.03529412 6:0.00342345 7:0.01114114 8:0.97806525 9:1.0075314 10:0.00564044 11:0.000105 12:0.00174323 13:0.074884 14:0.08587538 15:0.09335525 16:0.04376159 17:0.02583865 18:0.01765401 19:0.97087747 20:0.97147512 21:0.97258872 
0.2153294137134636 1:0.00694052 2:0.43172574 3:0.81516021 4:0.98548257 5:0.23529412 6:0.00294303 7:0.0118598 8:0.9708181 9:1.0073426 10:0.00612867 11:0.00019308 12:0.00230445 13:0.06724823 14:0.08268277 15:0.0944318 16:0.04426655 17:0.02620794 18:0.01793307 19:0.97080266 20:0.97119272 21:0.97074944 
0.06971856443956877 1:0.00673243 2:0.43438232 3:0.85965025 4:0.98496252 5:0.02745098 6:0.0036546 7:0.01087261 8:0.97771108 9:1.0075947 10:0.00554222 11:0.00011116 12:0.0018567 13:0.07532252 14:0.0761503 15:0.07204801 16:0.02928695 17:0.0163688 18:0.01114103 19:0.96993715 20:0.97155046 21:0.9736554 
0.3026623421027275 1:0.00883431 2:0.41076165 3:0.81831199 4:0.98519844 5:0.67058825 6:0.00388583 7:0.01093588 8:0.93328995 9:1.0073913 10:0.00566377 11:0.00019954 12:0.00220895 13:0.07675678 14:0.07321278 15:0.07443585 16:0.03156286 17:0.01824918 18:0.01265656 19:0.9674626 20:0.96930271 21:0.97123086 
0.07936773417800105 1:0.00811697 2:0.41811934 3:0.84139091 4:0.98504919 5:0.10980392 6:0.00399683 7:0.01209624 8:0.95122969 9:1.0075054 10:0.00622606 11:0.00017262 12:0.00343505 13:0.08892567 14:0.0552986 15:0.08267851 16:0.04155649 17:0.02647936 18:0.01942231 19:0.955742 20:0.95800859 21:0.96060008 
0.3597356163022364 1:0.00849536 2:0.41415679 3:0.80954897 4:0.98543876 5:0.64313728 6:0.00356959 7:0.01117617 8:0.92577916 9:1.0073003 10:0.00567414 11:0.00020705 12:0.00197032 13:0.07522365 14:0.07646129 15:0.0786071 16:0.03460753 17:0.01968981 18:0.01336635 19:0.96980786 20:0.97114038 21:0.97319913 
0.08795945719225105 1:0.00702432 2:0.43070468 3:0.86276567 4:0.98491842 5:0.05490196 6:0.0039322 7:0.010699 8:0.97122341 9:1.0075645 10:0.00542846 11:0.0001185 12:0.00207142 13:0.07894067 14:0.06835813 15:0.08181206 16:0.0403244 17:0.02522301 18:0.01830055 19:0.96790022 20:0.96921366 21:0.97092825 
0.01017357733943678 1:0.00712763 2:0.42943475 3:0.86380851 4:0.98499191 5:0.0627451 6:0.00400449 7:0.01062222 8:0.96970057 9:1.0075505 10:0.00538038 11:0.00012114 12:0.00205717 13:0.07704255 14:0.06893487 15:0.07942738 16:0.03948422 17:0.02483698 18:0.01800617 19:0.96735674 20:0.9689244 21:0.9707368 
0.2166630856534549 1:0.00930574 2:0.40624404 3:0.79939562 4:0.98557675 5:0.14509805 6:0.00352703 7:0.01269499 8:0.91625017 9:1.0071524 10:0.00667146 11:0.00015705 12:0.00270807 13:0.09059886 14:0.06790743 15:0.09183449 16:0.04501309 17:0.02687858 18:0.01822873 19:0.95542252 20:0.95930594 21:0.9581874 
0.1503685282604111 1:0.00855746 2:0.41352898 3:0.82060432 4:0.98524129 5:0.10980392 6:0.00374814 7:0.01267573 8:0.93094134 9:1.007364 10:0.00654364 11:0.00018726 12:0.00415618 13:0.09964672 14:0.05930164 15:0.08698948 16:0.0448433 17:0.02810123 18:0.0198342 19:0.95409626 20:0.95544362 21:0.95814848 
0.04588651199261949 1:0.00919481 2:0.40728375 3:0.80728835 4:0.98536181 5:0.14901961 6:0.00374267 7:0.01293164 8:0.91799796 9:1.0072768 10:0.00670297 11:0.00018543 12:0.00375287 13:0.08960172 14:0.05147632 15:0.08314883 16:0.04235018 17:0.02689178 18:0.01972449 19:0.95219505 20:0.95491785 21:0.95674032 
0.1660085581048184 1:0.00725152 2:0.42792952 3:0.85180891 4:0.9855572 5:0.10980392 6:0.00353011 7:0.01062492 8:0.97876334 9:1.0072987 10:0.00551637 11:0.00018654 12:0.00246072 13:0.06667687 14:0.06564786 15:0.06831625 16:0.02936249 17:0.01718458 18:0.01196709 19:0.97068149 20:0.97214764 21:0.97406524 
0.1672090777097615 1:0.0064617 2:0.43794701 3:0.85704863 4:0.98500884 5:0.19215687 6:0.00346887 7:0.01067409 8:0.96153814 9:1.0075642 10:0.005414 11:9.632e-05 12:0.00164811 13:0.06761309 14:0.0754592 15:0.07396533 16:0.03120091 17:0.01807543 18:0.0123442 19:0.97367167 20:0.97471857 21:0.97639465 
0.03899696985759232 1:0.00823131 2:0.41690293 3:0.83977371 4:0.98503262 5:0.10980392 6:0.00406092 7:0.0121163 8:0.95230412 9:1.0075059 10:0.00620472 11:0.00018298 12:0.00353686 13:0.09340681 14:0.06142787 15:0.083452 16:0.04086066 17:0.02509402 18:0.01794019 19:0.95358413 20:0.95603919 21:0.95825952 
0.1404218294586428 1:0.00891434 2:0.40997332 3:0.82648438 4:0.98518354 5:0.14509805 6:0.00400394 7:0.01217297 8:0.92889422 9:1.0074031 10:0.00634997 11:0.00017162 12:0.00328232 13:0.08681475 14:0.05791216 15:0.07503343 16:0.034886 17:0.02108282 18:0.01503449 19:0.95514274 20:0.95859599 21:0.96105653 
0.1204538261116716 1:0.00806796 2:0.41864145 3:0.87433022 4:0.984833 5:0.03529412 6:0.0047415 7:0.01028504 8:0.96622539 9:1.0075946 10:0.00526997 11:0.00014966 12:0.00241634 13:0.08651768 14:0.07480752 15:0.07337679 16:0.03275728 17:0.01897611 18:0.01319188 19:0.96136194 20:0.96381778 21:0.96671474 
0.004369178298171482 1:0.00693308 2:0.43183488 3:0.85843003 4:0.98485988 5:0.03137255 6:0.00381431 7:0.01094478 8:0.97654921 9:1.007615 10:0.0055574 11:0.00011818 12:0.00191849 13:0.07817341 14:0.08209638 15:0.08583611 16:0.03937148 17:0.02325774 18:0.01626693 19:0.96750826 20:0.9685657 21:0.9701035 
0.3107795567198797 1:0.00805122 2:0.41882932 3:0.83473986 4:0.98507541 5:0.45490196 6:0.00386965 7:0.0109642 8:0.93249106 9:1.0074581 10:0.00560994 11:0.00018938 12:0.00218085 13:0.07907781 14:0.07025858 15:0.07861092 16:0.034723 17:0.02012172 18:0.01386585 19:0.96678239 20:0.96823239 21:0.97010934 
0.4459094452323782 1:0.01105309 2:0.39130044 3:0.7405479 4:0.98757535 5:0.24705882 6:0.00243408 7:0.01306114 8:0.939062 9:1.0060493 10:0.00723647 11:0.00051739 12:0.00400748 13:0.07363477 14:0.07775889 15:0.07793964 16:0.0328415 17:0.01858721 18:0.01232548 19:0.96563113 20:0.96716911 21:0.96858007 
0.2482818582791697 1:0.00773285 2:0.42233598 3:0.83821493 4:0.98501909 5:0.11372549 6:0.00381523 7:0.01212233 8:0.95812017 9:1.0074917 10:0.00618798 11:0.00015985 12:0.00273841 13:0.09289005 14:0.06895548 15:0.09250987 16:0.04622982 17:0.02848797 18:0.01984354 19:0.95715779 20:0.95853025 21:0.96046472 
0.06813953129348294 1:0.00965497 2:0.40304565 3:0.79813939 4:0.98560262 5:0.14117648 6:0.00363174 7:0.01316387 8:0.90761328 9:1.0070995 10:0.00690457 11:0.00018805 12:0.00381869 13:0.09161746 14:0.05354171 15:0.0841775 16:0.04300731 17:0.02716492 18:0.01989589 19:0.94961005 20:0.95415539 21:0.95378494 
0.02893160625956668 1:0.00952024 2:0.40426323 3:0.82565093 4:0.98528606 5:0.12941177 6:0.00417175 7:0.01213452 8:0.91806632 9:1.0073896 10:0.00639048 11:0.00020371 12:0.00421229 13:0.08883811 14:0.04944192 15:0.07239015 16:0.03473096 17:0.02223073 18:0.01654794 19:0.95051926 20:0.95558202 21:0.95713043 
0.05250430508954634 1:0.00866734 2:0.4124161 3:0.80681193 4:0.98536664 5:0.1254902 6:0.00351731 7:0.0128518 8:0.91567969 9:1.0072583 10:0.006649 11:0.0001658 12:0.00337608 13:0.09520608 14:0.06043442 15:0.08901806 16:0.04696045 17:0.03020114 18:0.02161792 19:0.95715374 20:0.95821977 21:0.95989251 
0.1740546112871444 1:0.00718457 2:0.42872909 3:0.84327781 4:0.98539054 5:0.33333334 6:0.00352097 7:0.01063885 8:0.92329758 9:1.0073338 10:0.00537237 11:0.00012486 12:0.00179897 13:0.0682447 14:0.06709196 15:0.07167498 16:0.03100138 17:0.01833106 18:0.01305605 19:0.9728542 20:0.97428292 21:0.97603858 
0.0749808088115058 1:0.00802895 2:0.41906142 3:0.83442277 4:0.98512983 5:0.10196079 6:0.00381705 7:0.01197031 8:0.94735253 9:1.0073896 10:0.00616497 11:0.00015643 12:0.00279318 13:0.08937513 14:0.06713062 15:0.08934285 16:0.04442444 17:0.02760637 18:0.0194472 19:0.95712972 20:0.9597832 21:0.95978826 
0.06699561291988776 1:0.00904767 2:0.40868828 3:0.8150878 4:0.98540872 5:0.13725491 6:0.00377751 7:0.01218147 8:0.91265571 9:1.0072736 10:0.00636719 11:0.00016195 12:0.00313627 13:0.08440637 14:0.05467256 15:0.07572906 16:0.03724492 17:0.02356157 18:0.01705828 19:0.95846087 20:0.9608531 21:0.96355158 
0.1586312774754015 1:0.00879607 2:0.41113633 3:0.81442755 4:0.98535275 5:0.16078432 6:0.00368162 7:0.01225191 8:0.92155689 9:1.0072589 10:0.00638013 11:0.00015291 12:0.00286784 13:0.08374397 14:0.05618552 15:0.08020049 16:0.0385014 17:0.02422715 18:0.01788041 19:0.95916682 20:0.96181148 21:0.96332633 
0.07153545183809766 1:0.00856872 2:0.4134129 3:0.81761092 4:0.9853152 5:0.14117648 6:0.00366981 7:0.01210074 8:0.92626643 9:1.0072895 10:0.00627004 11:0.00014805 12:0.00269691 13:0.08272924 14:0.05856664 15:0.08327647 16:0.04107175 17:0.02583883 18:0.01875144 19:0.96020198 20:0.96243739 21:0.96348768 
