svm_type one_class
kernel_type rbf
gamma 4000
nr_class 2
total_sv 2251
rho 0.592093
SV
0.02242938548733863 1:0.00848933 2:0.4142271 3:0.80761421 4:0.9851774 5:0.24705882 6:0.00358014 7:0.01404229 8:0.95972574 9:1.007375 10:0.00719132 11:0.00021591 12:0.0034649 13:0.09579378 14:0.05919636 15:0.09040313 16:0.04053588 17:0.02379427 18:0.01678668 19:0.94665885 20:0.94881141 21:0.95183027 
0.1878906068854002 1:0.00854253 2:0.4136844 3:0.80878145 4:0.98519391 5:0.25490198 6:0.00361869 7:0.01394366 8:0.95790273 9:1.007341 10:0.00713573 11:0.00021805 12:0.00351144 13:0.09531762 14:0.06027599 15:0.08912992 16:0.04017567 17:0.02389716 18:0.01710145 19:0.94623607 20:0.94827068 21:0.95136756 
0.01699231902698036 1:0.00801865 2:0.419195 3:0.82448041 4:0.98545814 5:0.17254902 6:0.00363352 7:0.01234282 8:0.93634403 9:1.0072669 10:0.00628402 11:0.00017512 12:0.00263148 13:0.08148807 14:0.06461979 15:0.08040486 16:0.03625263 17:0.02156232 18:0.01511125 19:0.95986325 20:0.96190089 21:0.96480381 
0.2788903602846497 1:0.00805485 2:0.41880494 3:0.80709529 4:0.98525178 5:0.23921569 6:0.00338357 7:0.01392396 8:0.96052647 9:1.0073297 10:0.00708581 11:0.0001945 12:0.00309436 13:0.08944208 14:0.06119493 15:0.08937359 16:0.04010836 17:0.02346411 18:0.01645632 19:0.95152426 20:0.9531216 21:0.95569348 
0.04537649514035691 1:0.0084106 2:0.41504133 3:0.81923431 4:0.98517102 5:0.21568628 6:0.00374019 7:0.01331329 8:0.95523793 9:1.007445 10:0.00682962 11:0.00020143 12:0.00332286 13:0.091129 14:0.05972098 15:0.08312491 16:0.0365292 17:0.02137953 18:0.01507194 19:0.95023793 20:0.9528597 21:0.95630628 
0.1038216882356915 1:0.00788233 2:0.42068654 3:0.82296997 4:0.98510545 5:0.20784314 6:0.00359311 7:0.01296933 8:0.96237504 9:1.0074449 10:0.00662357 11:0.00017556 12:0.00287834 13:0.08513754 14:0.05956853 15:0.08175155 16:0.03578238 17:0.02139675 18:0.01536168 19:0.95542288 20:0.95750362 21:0.96014941 
0.3083281600973914 1:0.0074779 2:0.42526039 3:0.81062561 4:0.98529536 5:0.20392157 6:0.0031934 7:0.01362478 8:0.96164209 9:1.0073436 10:0.00692029 11:0.0001627 12:0.00266535 13:0.08227657 14:0.06087809 15:0.08899128 16:0.04000513 17:0.02390132 18:0.0168426 19:0.95778018 20:0.95893592 21:0.96100682 
0.08184185762905112 1:0.00796372 2:0.41977763 3:0.80805635 4:0.98519868 5:0.09803922 6:0.00334822 7:0.01385822 8:0.94801658 9:1.0073307 10:0.00709669 11:0.00017805 12:0.00338342 13:0.08738634 14:0.0528061 15:0.08958829 16:0.04448524 17:0.028618 18:0.02131218 19:0.95362115 20:0.95474797 21:0.95662934 
0.08918833836406538 1:0.00926052 2:0.40666842 3:0.80023795 4:0.98522121 5:0.21960784 6:0.00376059 7:0.01464864 8:0.95093703 9:1.0073554 10:0.00750033 11:0.00026378 12:0.00458861 13:0.10379016 14:0.05589768 15:0.09230723 16:0.04721721 17:0.03040797 18:0.0222974 19:0.93654823 20:0.93877393 21:0.94194269 
0.09878466462633688 1:0.00915206 2:0.40769273 3:0.79761726 4:0.98524135 5:0.21960784 6:0.00367022 7:0.0147714 8:0.95339566 9:1.0073534 10:0.00755762 11:0.00026017 12:0.00453956 13:0.10575934 14:0.05636333 15:0.0945446 16:0.0485533 17:0.03088035 18:0.02229913 19:0.93741465 20:0.93932492 21:0.9426561 
0.2237979627002778 1:0.00753163 2:0.4246296 3:0.86191267 4:0.98495173 5:0.03529412 6:0.00415839 7:0.01075437 8:0.9493922 9:1.0075334 10:0.00545503 11:0.00012704 12:0.00280455 13:0.07269375 14:0.05952296 15:0.06515794 16:0.0312386 17:0.02032055 18:0.01559405 19:0.96556056 20:0.96758652 21:0.97021329 
0.1840719357290565 1:0.00969009 2:0.40272835 3:0.78556204 4:0.98532802 5:0.19215687 6:0.00363391 7:0.01571985 8:0.94263864 9:1.007309 10:0.00804161 11:0.00030666 12:0.00595705 13:0.11023058 14:0.05133451 15:0.09223621 16:0.0470322 17:0.03053769 18:0.02264262 19:0.92985946 20:0.9322111 21:0.93572932 
0.1326250874419314 1:0.00880103 2:0.41109061 3:0.81574899 4:0.98517942 5:0.23137255 6:0.00386063 7:0.01348883 8:0.94653577 9:1.0073804 10:0.00687871 11:0.00022515 12:0.00419906 13:0.09496617 14:0.05208861 15:0.08362281 16:0.04234362 17:0.02761226 18:0.02026911 19:0.9452641 20:0.94762701 21:0.95113409 
0.08023892857533296 1:0.00723816 2:0.42809048 3:0.84741896 4:0.98505604 5:0.04705882 6:0.00373414 7:0.01155746 8:0.95552534 9:1.0074921 10:0.00586759 11:0.00013202 12:0.00283912 13:0.0769698 14:0.05044814 15:0.07320309 16:0.03661041 17:0.0242357 18:0.01808277 19:0.96498919 20:0.96665698 21:0.96875596 
0.01304962136858963 1:0.00742905 2:0.42582989 3:0.83220404 4:0.9850179 5:0.32156864 6:0.00357225 7:0.01227543 8:0.96058702 9:1.007509 10:0.00622469 11:0.000152 12:0.00261377 13:0.08372331 14:0.06239558 15:0.08609249 16:0.04065748 17:0.0254247 18:0.01852349 19:0.9609772 20:0.962129 21:0.96390855 
0.07314524584098075 1:0.00678214 2:0.43375152 3:0.86647815 4:0.98491406 5:0.03137255 6:0.00385692 7:0.01048616 8:0.97227138 9:1.0075608 10:0.00531855 11:0.00010762 12:0.00176847 13:0.07097823 14:0.07549608 15:0.07925496 16:0.03508677 17:0.02070413 18:0.01449075 19:0.97039324 20:0.97167867 21:0.97340405 
0.01638588229523923 1:0.00825839 2:0.41661817 3:0.81330168 4:0.98512942 5:0.22352941 6:0.00360809 7:0.01356546 8:0.95584965 9:1.0073447 10:0.00690924 11:0.00020104 12:0.00355766 13:0.09706333 14:0.06014286 15:0.09545252 16:0.04956904 17:0.03173044 18:0.02298586 19:0.94931608 20:0.95026094 21:0.95209289 
0.1752431737297538 1:0.00747941 2:0.42523506 3:0.84251547 4:0.98501962 5:0.14509805 6:0.00380137 7:0.01173097 8:0.94285077 9:1.007448 10:0.00589695 11:0.00014799 12:0.00351935 13:0.08469611 14:0.055033 15:0.07606442 16:0.04064726 17:0.02710374 18:0.02050148 19:0.96206737 20:0.96364391 21:0.96569759 
0.003939006556763115 1:0.00821283 2:0.41711646 3:0.81740761 4:0.98520428 5:0.09411765 6:0.00359982 7:0.01347772 8:0.95459366 9:1.0073968 10:0.00691755 11:0.00019058 12:0.00339434 13:0.09184198 14:0.05815279 15:0.08066951 16:0.03716961 17:0.0225374 18:0.01582958 19:0.95136595 20:0.95423228 21:0.95776051 
0.4064007718051665 1:0.00998686 2:0.40011311 3:0.787687 4:0.985928 5:0.15686275 6:0.00352493 7:0.01336223 8:0.86326307 9:1.0069851 10:0.00677542 11:0.00020966 12:0.00724495 13:0.09693573 14:0.05585439 15:0.08127648 16:0.04597241 17:0.03077371 18:0.02280449 19:0.95234674 20:0.95370466 21:0.95558465 
0.2873109367811718 1:0.00735087 2:0.42675391 3:0.84613633 4:0.98500347 5:0.3137255 6:0.00375155 7:0.01143997 8:0.96504956 9:1.0075147 10:0.00582744 11:0.00014004 12:0.00245557 13:0.08109074 14:0.06862656 15:0.07877988 16:0.03677525 17:0.02216114 18:0.01551275 19:0.96423244 20:0.96567965 21:0.96780246 
0.1738813027885878 1:0.00786934 2:0.42081967 3:0.81671834 4:0.985147 5:0.38431373 6:0.0034241 7:0.0129069 8:0.95578611 9:1.0074031 10:0.00664792 11:0.0001659 12:0.0027602 13:0.08595373 14:0.06799398 15:0.09166432 16:0.04280854 17:0.02537184 18:0.01754088 19:0.95845962 20:0.95925951 21:0.96080035 
0.1780999711223581 1:0.00775064 2:0.42213768 3:0.82124692 4:0.98511338 5:0.39607844 6:0.00348826 7:0.01281251 8:0.9581961 9:1.0074424 10:0.00655714 11:0.00016664 12:0.00287923 13:0.08662502 14:0.06251395 15:0.08841679 16:0.04242824 17:0.02606621 18:0.01846747 19:0.95834583 20:0.95924205 21:0.9608441 
0.05551436199626605 1:0.00799914 2:0.41939339 3:0.81612504 4:0.98512787 5:0.32549021 6:0.00351187 7:0.01329801 8:0.95998591 9:1.0073894 10:0.00682508 11:0.00018289 12:0.00292419 13:0.09297901 14:0.06973898 15:0.09875067 16:0.0473291 17:0.02747489 18:0.01844927 19:0.95370799 20:0.95447522 21:0.95607275 
0.2014888475095119 1:0.00792073 2:0.42024997 3:0.81828725 4:0.98511618 5:0.33333334 6:0.00352536 7:0.01319843 8:0.96004921 9:1.0074108 10:0.00675702 11:0.00018044 12:0.00288918 13:0.09253685 14:0.06880368 15:0.09807952 16:0.04597398 17:0.02670867 18:0.0179277 19:0.95399708 20:0.95484781 21:0.95653719 
0.04566153648086321 1:0.00811138 2:0.41819108 3:0.80545563 4:0.98539394 5:0.2 6:0.00329289 7:0.01422086 8:0.95579374 9:1.007342 10:0.0073045 11:0.00019521 12:0.00343025 13:0.09769767 14:0.06095509 15:0.08953664 16:0.04402308 17:0.02709407 18:0.01919824 19:0.9505145 20:0.95261323 21:0.95534271 
0.0146802557806959 1:0.0067795 2:0.43378216 3:0.85741729 4:0.98499191 5:0.02745098 6:0.00369842 7:0.01088575 8:0.95889384 9:1.00752 10:0.00547596 11:0.00011402 12:0.00234592 13:0.07803634 14:0.06455449 15:0.07917427 16:0.04071146 17:0.02620666 18:0.01942541 19:0.96928781 20:0.97028458 21:0.97187656 
0.006532644482523204 1:0.00907273 2:0.4084515 3:0.79571235 4:0.98529178 5:0.12941177 6:0.00358336 7:0.01498793 8:0.9487111 9:1.0073285 10:0.00765869 11:0.00026059 12:0.0049538 13:0.10478644 14:0.05119488 15:0.09016652 16:0.04613474 17:0.02938712 18:0.02114682 19:0.93830538 20:0.94094568 21:0.94461203 
0.01431998997396764 1:0.0085226 2:0.41388971 3:0.80076951 4:0.98535138 5:0.13725491 6:0.00336581 7:0.01429033 8:0.94990617 9:1.0073248 10:0.00743188 11:0.00019764 12:0.0032505 13:0.09107309 14:0.05830836 15:0.09187321 16:0.04188818 17:0.02450814 18:0.01696096 19:0.94866687 20:0.95043242 21:0.95334023 
0.1450449173010572 1:0.00846456 2:0.41448241 3:0.80512625 4:0.98525703 5:0.15294118 6:0.00344869 7:0.014132 8:0.95619142 9:1.0073757 10:0.00733245 11:0.0002015 12:0.00325931 13:0.09212156 14:0.05937726 15:0.09109319 16:0.04176699 17:0.02419968 18:0.0166862 19:0.94841212 20:0.95030171 21:0.95326531 
0.08876245384631891 1:0.00985166 2:0.40129739 3:0.77206284 4:0.9860571 5:0.16078432 6:0.00321749 7:0.01465818 8:0.91139084 9:1.0068438 10:0.00754791 11:0.00021544 12:0.00412465 13:0.09974857 14:0.05865613 15:0.09562115 16:0.04873676 17:0.03011915 18:0.02102194 19:0.94725537 20:0.94846338 21:0.95074695 
0.2575009773348959 1:0.00889158 2:0.41020852 3:0.77852368 4:0.98575616 5:0.12156863 6:0.00308746 7:0.01495153 8:0.93127853 9:1.0070145 10:0.00767485 11:0.00020124 12:0.0037249 13:0.09982652 14:0.06133163 15:0.09889356 16:0.05101301 17:0.03148202 18:0.02236067 19:0.94904107 20:0.94993526 21:0.9517073 
0.07203952970940197 1:0.00982068 2:0.40156406 3:0.81422424 4:0.98544312 5:0.12941177 6:0.00406524 7:0.01265471 8:0.92012966 9:1.007261 10:0.00661972 11:0.00020578 12:0.00394048 13:0.0908226 14:0.05311789 15:0.07841115 16:0.0376665 17:0.02410329 18:0.017689 19:0.94788229 20:0.95083141 21:0.95414877 
0.01829539118817369 1:0.00762299 2:0.42359328 3:0.8287583 4:0.9851383 5:0.05098039 6:0.0035727 7:0.012688 8:0.96238595 9:1.0074544 10:0.00646371 11:0.00015422 12:0.00266546 13:0.08407197 14:0.06245604 15:0.0823498 16:0.03811768 17:0.02299496 18:0.01623731 19:0.957955 20:0.96003073 21:0.9627794 
0.1224349492710025 1:0.00887548 2:0.41035539 3:0.83259583 4:0.98510718 5:0.13333334 6:0.00420246 7:0.01234055 8:0.94015044 9:1.0074759 10:0.00633303 11:0.00020663 12:0.00384884 13:0.09403741 14:0.05595949 15:0.07927778 16:0.03869165 17:0.02468555 18:0.01824501 19:0.94912159 20:0.95192432 21:0.95556915 
0.06730659536794914 1:0.00993071 2:0.40059412 3:0.79304075 4:0.98584956 5:0.12156863 6:0.00356802 7:0.01329275 8:0.91124165 9:1.0069796 10:0.00698372 11:0.00019656 12:0.00360982 13:0.09712993 14:0.06120707 15:0.08990484 16:0.04607176 17:0.02920937 18:0.02098672 19:0.94925642 20:0.95164359 21:0.95302451 
0.09586863623999849 1:0.00888154 2:0.41030037 3:0.82545012 4:0.98538744 5:0.13725491 6:0.00392298 7:0.01151866 8:0.91556513 9:1.0072414 10:0.00593174 11:0.00016297 12:0.00315059 13:0.09092078 14:0.06429148 15:0.08332023 16:0.04244952 17:0.02626305 18:0.01867629 19:0.96003073 20:0.96147048 21:0.96343136 
0.1037419179357235 1:0.00822339 2:0.41698971 3:0.83698958 4:0.98528337 5:0.10980392 6:0.00387892 7:0.01122656 8:0.92547268 9:1.0073218 10:0.00577392 11:0.00012599 12:0.00275112 13:0.06896254 14:0.05519909 15:0.06264472 16:0.0292582 17:0.01912409 18:0.01484855 19:0.96500999 20:0.96763259 21:0.9701485 
0.04100381997217038 1:0.00773355 2:0.42234159 3:0.81760901 4:0.98520678 5:0.08235294 6:0.00338299 7:0.01347478 8:0.96030486 9:1.0074287 10:0.00692525 11:0.00017005 12:0.00293089 13:0.0893191 14:0.0672297 15:0.08894663 16:0.03898005 17:0.02224327 18:0.01492065 19:0.95528877 20:0.95719171 21:0.95992357 
0.3416024780758517 1:0.00868614 2:0.41222984 3:0.79332763 4:0.98525584 5:0.40784314 6:0.0033964 7:0.0147602 8:0.95573896 9:1.0073099 10:0.00754716 11:0.00023545 12:0.00401381 13:0.10406007 14:0.06283512 15:0.10116027 16:0.05149042 17:0.03183766 18:0.02239706 19:0.94391084 20:0.9449358 21:0.946621 
0.1514943229989924 1:0.00908283 2:0.40834609 3:0.78699684 4:0.98539293 5:0.39607844 6:0.00341201 7:0.01508812 8:0.94376677 9:1.0072355 10:0.00773901 11:0.00025482 12:0.0045872 13:0.10346293 14:0.05620136 15:0.09799139 16:0.05051915 17:0.03225911 18:0.02325866 19:0.94090205 20:0.94227445 21:0.94427067 
0.1715555239789892 1:0.00819927 2:0.41724998 3:0.81884545 4:0.98522002 5:0.10588235 6:0.00366537 7:0.01331176 8:0.93824774 9:1.00737 10:0.00673854 11:0.00018386 12:0.00396984 13:0.08133391 14:0.04462324 15:0.07310591 16:0.03683183 17:0.02498965 18:0.01957875 19:0.95318896 20:0.95538604 21:0.95823646 
0.0004521279739221792 1:0.00806636 2:0.41866815 3:0.81281465 4:0.98521328 5:0.10980392 6:0.00348246 7:0.01354872 8:0.94363809 9:1.0073538 10:0.00687738 11:0.00019016 12:0.00399305 13:0.09138045 14:0.05063732 15:0.08580118 16:0.04509343 17:0.03000255 18:0.02262895 19:0.95299691 20:0.95440137 21:0.95627934 
0.07015467129617403 1:0.00894843 2:0.40964934 3:0.79532486 4:0.98556226 5:0.21176471 6:0.00339242 7:0.01380083 8:0.93089801 9:1.0071783 10:0.00712159 11:0.00020014 12:0.00353576 13:0.09514232 14:0.06234708 15:0.09646996 16:0.04711645 17:0.02859064 18:0.02016092 19:0.95015198 20:0.95111001 21:0.95294446 
0.1849828687288397 1:0.00957654 2:0.40375447 3:0.79926252 4:0.98585349 5:0.14509805 6:0.00353163 7:0.01234521 8:0.91127133 9:1.0069791 10:0.00647826 11:0.00015163 12:0.00242374 13:0.08746368 14:0.07381461 15:0.09103289 16:0.04245885 17:0.02474827 18:0.01663889 19:0.95841694 20:0.96036863 21:0.96155965 
0.04060941059722945 1:0.0090793 2:0.408382 3:0.80354643 4:0.9854275 5:0.10196079 6:0.00367162 7:0.01396267 8:0.92949015 9:1.0072002 10:0.00720058 11:0.00021152 12:0.00451248 13:0.08590595 14:0.0446023 15:0.07772537 16:0.03886516 17:0.02578009 18:0.0199149 19:0.94734085 20:0.9501161 21:0.95359093 
0.01658785696018187 1:0.00880329 2:0.41106454 3:0.80650407 4:0.98535591 5:0.09019608 6:0.00365038 7:0.01393165 8:0.93373072 9:1.0072501 10:0.00716307 11:0.00020574 12:0.00435267 13:0.08564214 14:0.04568284 15:0.07912351 16:0.0392166 17:0.0256561 18:0.01996183 19:0.94832098 20:0.95083141 21:0.95394158 
0.0279636354854909 1:0.00864877 2:0.41261181 3:0.80835611 4:0.98548555 5:0.34901962 6:0.00350512 7:0.01265469 8:0.92646325 9:1.0072328 10:0.00653413 11:0.00016548 12:0.00315547 13:0.08297588 14:0.05757166 15:0.08151978 16:0.03968788 17:0.02510668 18:0.01830901 19:0.95877707 20:0.95989764 21:0.96168309 
0.2142243963152318 1:0.00785746 2:0.42095187 3:0.8487407 4:0.98500162 5:0.13333334 6:0.00408717 7:0.01145431 8:0.95287716 9:1.0074938 10:0.00577665 11:0.00016654 12:0.00312135 13:0.08192521 14:0.05939836 15:0.07300541 16:0.03474624 17:0.02217401 18:0.01667924 19:0.95944703 20:0.96137291 21:0.96411014 
0.09549447567289453 1:0.00810812 2:0.41821709 3:0.84964514 4:0.98499918 5:0.12156863 6:0.00423483 7:0.0114299 8:0.94558746 9:1.0074954 10:0.00576468 11:0.00017967 12:0.00339218 13:0.08289918 14:0.05677458 15:0.07157803 16:0.03420335 17:0.0221036 18:0.01690688 19:0.95755476 20:0.95987183 21:0.96291935 
0.01892757105194796 1:0.00849268 2:0.41419587 3:0.80633509 4:0.985506 5:0.35294119 6:0.00342581 7:0.01268104 8:0.93084317 9:1.0071205 10:0.00652047 11:0.00015995 12:0.00284684 13:0.08787952 14:0.06444142 15:0.08953393 16:0.04437551 17:0.02841454 18:0.02090397 19:0.95914584 20:0.95982218 21:0.96117884 
0.01303260376519556 1:0.0080239 2:0.41912267 3:0.82937151 4:0.98506993 5:0.27058825 6:0.00379814 7:0.01248681 8:0.95564514 9:1.0074887 10:0.00636524 11:0.00017982 12:0.00332325 13:0.09273431 14:0.05965343 15:0.08478764 16:0.0427716 17:0.02733377 18:0.02004571 19:0.95515698 20:0.95656711 21:0.9586395 
0.05793342755358733 1:0.00734606 2:0.42680684 3:0.82910812 4:0.98507291 5:0.07450981 6:0.00343914 7:0.01259397 8:0.94985723 9:1.0075055 10:0.0063851 11:0.000159 12:0.00313083 13:0.08076358 14:0.06510368 15:0.08567666 16:0.03877583 17:0.02318887 18:0.01637114 19:0.96161145 20:0.96332085 21:0.96559775 
0.06001426440107028 1:0.01045587 2:0.39612406 3:0.77044749 4:0.98618001 5:0.16470589 6:0.00334117 7:0.01442699 8:0.90501231 9:1.0067293 10:0.00745246 11:0.00021947 12:0.00441902 13:0.10977274 14:0.05938241 15:0.10122282 16:0.05422581 17:0.03443453 18:0.02441726 19:0.94468099 20:0.94680047 21:0.94882619 
0.06149676537414013 1:0.01069872 2:0.3941282 3:0.78201294 4:0.98593807 5:0.17254902 6:0.00365276 7:0.01381908 8:0.90510648 9:1.0069082 10:0.00720442 11:0.00023157 12:0.00464604 13:0.11290445 14:0.06066815 15:0.09632363 16:0.05051922 17:0.03163837 18:0.02203713 19:0.94328147 20:0.94480681 21:0.94726664 
0.4316267288146587 1:0.01082257 2:0.39313155 3:0.76571739 4:0.98635709 5:0.19215687 6:0.00333769 7:0.01440513 8:0.89450139 9:1.0066729 10:0.00744683 11:0.00021652 12:0.00442627 13:0.11208927 14:0.06180917 15:0.09942742 16:0.05390232 17:0.03451528 18:0.02454039 19:0.94499803 20:0.94595605 21:0.94793171 
0.02935812467332598 1:0.01048551 2:0.395877 3:0.79018331 4:0.98577237 5:0.17647059 6:0.00379953 7:0.01376371 8:0.90949506 9:1.0070477 10:0.00714873 11:0.00023144 12:0.00479802 13:0.10031552 14:0.05014116 15:0.08452433 16:0.04394107 17:0.02910165 18:0.02178732 19:0.94219339 20:0.94437104 21:0.94766277 
0.128488162759587 1:0.0090415 2:0.40874517 3:0.81683266 4:0.9851048 5:0.17647059 6:0.00399996 7:0.01358241 8:0.94831824 9:1.0074101 10:0.00694729 11:0.00023769 12:0.00422709 13:0.10243205 14:0.05778772 15:0.08882581 16:0.04565653 17:0.02905814 18:0.02105244 19:0.94108897 20:0.94353014 21:0.9469431 
0.4195278774552941 1:0.01066624 2:0.39439553 3:0.80954695 4:0.98536384 5:0.22352941 6:0.00432059 7:0.01324452 8:0.9186669 9:1.00725 10:0.00694486 11:0.00029398 12:0.00580147 13:0.09944288 14:0.04828498 15:0.07995388 16:0.03894132 17:0.02429389 18:0.01803001 19:0.93631029 20:0.94027954 21:0.94490385 
0.06786902576199449 1:0.0094606 2:0.40480927 3:0.78332484 4:0.98552048 5:0.21176471 6:0.00343107 7:0.01532925 8:0.93380296 9:1.0071228 10:0.00788695 11:0.00024577 12:0.00496711 13:0.09970562 14:0.04977371 15:0.0887714 16:0.0452712 17:0.02940041 18:0.02200068 19:0.93865323 20:0.94043547 21:0.94314122 
0.1401290860224191 1:0.00763763 2:0.42341506 3:0.77999872 4:0.98551017 5:0.10196079 6:0.00280101 7:0.0158906 8:0.95662516 9:1.0071882 10:0.00799571 11:0.00018467 12:0.00320078 13:0.09755567 14:0.06535694 15:0.10730512 16:0.05697869 17:0.03562118 18:0.02535092 19:0.95155674 20:0.95188892 21:0.95318359 
0.2321763844665911 1:0.01023954 2:0.3979378 3:0.78936267 4:0.98569793 5:0.13333334 6:0.00366398 7:0.01401909 8:0.90321636 9:1.0071131 10:0.007312 11:0.00025515 12:0.00608736 13:0.11331247 14:0.05990981 15:0.09204726 16:0.05020801 17:0.03218818 18:0.0227487 19:0.9415651 20:0.94347304 21:0.94601882 
0.1196383881231354 1:0.00838502 2:0.41529557 3:0.81423724 4:0.98514658 5:0.47450981 6:0.00364694 7:0.01338757 8:0.95256305 9:1.0074327 10:0.00687582 11:0.00020224 12:0.00340105 13:0.09373075 14:0.05873966 15:0.09129854 16:0.04315567 17:0.0263234 18:0.0187523 19:0.95023572 20:0.95180488 21:0.95413768 
0.2767899177214009 1:0.00835221 2:0.41563603 3:0.81342787 4:0.98515284 5:0.47058824 6:0.00362184 7:0.01344952 8:0.95290601 9:1.0074059 10:0.00690285 11:0.00020146 12:0.00335961 13:0.09288148 14:0.05992353 15:0.09118801 16:0.04316241 17:0.02635779 18:0.01881917 19:0.95039743 20:0.95180106 21:0.95452225 
0.3644859817743579 1:0.01040207 2:0.39656985 3:0.77255988 4:0.98564041 5:0.34509805 6:0.00353764 7:0.01607126 8:0.93134791 9:1.0070627 10:0.00832892 11:0.00032249 12:0.00597684 13:0.10771185 14:0.05173812 15:0.09433609 16:0.0474239 17:0.02994099 18:0.02153375 19:0.9277733 20:0.93017066 21:0.93385625 
0.1920969276008334 1:0.00828914 2:0.41629672 3:0.83873415 4:0.98501939 5:0.10196079 6:0.00409292 7:0.01218785 8:0.95055652 9:1.0074849 10:0.00624857 11:0.00018839 12:0.00348222 13:0.09711123 14:0.06144835 15:0.08577093 16:0.04354724 17:0.02756803 18:0.01975983 19:0.95278364 20:0.95498061 21:0.95772088 
0.08032901935875002 1:0.00791666 2:0.42029595 3:0.83099604 4:0.98501438 5:0.05882353 6:0.00377669 7:0.01258746 8:0.95337778 9:1.0074999 10:0.00642125 11:0.00018009 12:0.00339395 13:0.09882005 14:0.06408922 15:0.0902055 16:0.04632216 17:0.02944869 18:0.02071223 19:0.95466894 20:0.95611393 21:0.95856041 
0.2497426840784782 1:0.00954952 2:0.40399918 3:0.80140394 4:0.98524761 5:0.14509805 6:0.00388645 7:0.01452263 8:0.9327805 9:1.007374 10:0.00737119 11:0.00027939 12:0.00625559 13:0.0971918 14:0.04445948 15:0.08147407 16:0.04267712 17:0.02859768 18:0.02187137 19:0.93614 20:0.93943119 21:0.9435026 
0.08323403669408425 1:0.00712053 2:0.42951843 3:0.86617309 4:0.98492187 5:0.03529412 6:0.00402711 7:0.01049564 8:0.96542567 9:1.0076284 10:0.00531051 11:0.000116 12:0.00222092 13:0.07246254 14:0.06935401 15:0.06735694 16:0.03054525 17:0.01908547 18:0.01386777 19:0.96849269 20:0.97026581 21:0.97246855 
0.005560909010296519 1:0.00926134 2:0.40666214 3:0.79669511 4:0.98564905 5:0.13725491 6:0.00349281 7:0.01346572 8:0.91773748 9:1.0071182 10:0.0069611 11:0.0002107 12:0.00426751 13:0.10709167 14:0.06695398 15:0.09498331 16:0.04916283 17:0.03034824 18:0.02115078 19:0.95073783 20:0.95190543 21:0.95371705 
0.021718147561986 1:0.00906253 2:0.40854424 3:0.79878044 4:0.9853012 5:0.16470589 6:0.00360339 7:0.0145836 8:0.93528301 9:1.0073065 10:0.0075403 11:0.00024627 12:0.00535709 13:0.09987341 14:0.04725617 15:0.08955095 16:0.04771066 17:0.03148872 18:0.02358628 19:0.94182616 20:0.94345921 21:0.9464705 
0.01124254967660289 1:0.00956968 2:0.40381446 3:0.78614098 4:0.98558813 5:0.16862746 6:0.00346321 7:0.01483454 8:0.92291147 9:1.0070781 10:0.00769702 11:0.00024272 12:0.00535455 13:0.10085994 14:0.04726601 15:0.08986297 16:0.04888354 17:0.03275124 18:0.02482879 19:0.94112611 20:0.94266611 21:0.94501179 
0.1982257619001174 1:0.00868649 2:0.41222543 3:0.79768759 4:0.98527616 5:0.18431373 6:0.00347876 7:0.0146853 8:0.9426831 9:1.0072904 10:0.007512 11:0.00023237 12:0.00477983 13:0.09903064 14:0.04892463 15:0.09348645 16:0.05042844 17:0.03336847 18:0.024773 19:0.94362921 20:0.94508559 21:0.9474048 
0.2657224275352392 1:0.01000454 2:0.39995921 3:0.77448714 4:0.98573118 5:0.29019609 6:0.0034841 7:0.01579056 8:0.91211545 9:1.0070324 10:0.00801273 11:0.00029276 12:0.00587037 13:0.10131333 14:0.05021052 15:0.0884358 16:0.04414454 17:0.02752014 18:0.01972637 19:0.93516672 20:0.93821204 21:0.94238728 
0.09460330974400488 1:0.00855121 2:0.4135986 3:0.83628428 4:0.98528337 5:0.1254902 6:0.00397318 7:0.01110831 8:0.92480093 9:1.0073831 10:0.00575524 11:0.00014299 12:0.0027232 13:0.08563202 14:0.06768617 15:0.07796985 16:0.03602776 17:0.02168547 18:0.01499406 19:0.96293932 20:0.9643575 21:0.96640199 
0.006891290329769497 1:0.00870444 2:0.41204634 3:0.7986142 4:0.98532003 5:0.19215687 6:0.00344876 7:0.01428704 8:0.94655782 9:1.007189 10:0.00735395 11:0.0002146 12:0.00386005 13:0.10276973 14:0.0632102 15:0.09987237 16:0.05255303 17:0.03280097 18:0.02326253 19:0.94567174 20:0.94663781 21:0.94874763 
0.006115507631183605 1:0.00902848 2:0.40887147 3:0.79915774 4:0.9852106 5:0.10196079 6:0.00362895 7:0.01472486 8:0.94520432 9:1.0073854 10:0.00755897 11:0.00026576 12:0.00509922 13:0.11570366 14:0.06037695 15:0.09909778 16:0.051127 17:0.03070454 18:0.02116885 19:0.93886364 20:0.94037741 21:0.94326067 
0.01405333138793354 1:0.00834452 2:0.41572472 3:0.81780273 4:0.98530841 5:0.19215687 6:0.00358841 7:0.01259202 8:0.93113607 9:1.0073575 10:0.00645311 11:0.00017106 12:0.00339292 13:0.08737092 14:0.06660281 15:0.08307599 16:0.03918111 17:0.02395754 18:0.01681152 19:0.95755464 20:0.95902222 21:0.96125269 
0.08463257817080748 1:0.00801224 2:0.41925734 3:0.81970221 4:0.98524642 5:0.18039216 6:0.00349751 7:0.01268806 8:0.9417783 9:1.0073882 10:0.00647874 11:0.00016885 12:0.00330215 13:0.08445618 14:0.0678212 15:0.08378854 16:0.03832638 17:0.02329925 18:0.01637856 19:0.95867592 20:0.96008205 21:0.96216375 
0.02907136717846694 1:0.00864633 2:0.4126305 3:0.80893755 4:0.98513645 5:0.13333334 6:0.00367059 7:0.01400996 8:0.94020683 9:1.0073878 10:0.00712391 11:0.00024426 12:0.00536938 13:0.10887769 14:0.0587625 15:0.09218692 16:0.04806585 17:0.03021954 18:0.0215178 19:0.94426346 20:0.94588286 21:0.94838619 
0.04846314866826121 1:0.00831743 2:0.4160012 3:0.82668 4:0.98535883 5:0.12941177 6:0.00372351 7:0.01160557 8:0.93567622 9:1.0072731 10:0.00598821 11:0.00013473 12:0.0021491 13:0.08021537 14:0.07085483 15:0.08239 16:0.03699361 17:0.02123303 18:0.01426318 19:0.96290195 20:0.96540475 21:0.96762037 
0.009685624993786127 1:0.00797072 2:0.41970715 3:0.80870086 4:0.98518574 5:0.07058824 6:0.00338959 7:0.01387951 8:0.93742734 9:1.0073656 10:0.0069887 11:0.00019772 12:0.00448636 13:0.09463152 14:0.05792331 15:0.08943047 16:0.04651789 17:0.02995884 18:0.0220611 19:0.9523685 20:0.9537881 21:0.9557085 
0.1755688913411216 1:0.00849295 2:0.41418526 3:0.80772668 4:0.9853223 5:0.35686275 6:0.00351671 7:0.01348398 8:0.94532979 9:1.0072776 10:0.0069469 11:0.00018946 12:0.00340907 13:0.09614698 14:0.06007484 15:0.0974916 16:0.05105734 17:0.03288774 18:0.02404508 19:0.95140874 20:0.95221096 21:0.95385265 
0.173152174917703 1:0.00822282 2:0.41699189 3:0.82484633 4:0.98511034 5:0.33725491 6:0.00377718 7:0.01282688 8:0.9498924 9:1.0074526 10:0.00653638 11:0.00019062 12:0.00352786 13:0.09633541 14:0.06543219 15:0.09291733 16:0.04787824 17:0.0297738 18:0.02105241 19:0.9519093 20:0.95314634 21:0.95501345 
0.0003992537721900382 1:0.00711417 2:0.42958993 3:0.83959651 4:0.98499662 5:0.05490196 6:0.00354045 7:0.01202833 8:0.96806657 9:1.0075021 10:0.00612983 11:0.00013625 12:0.00221426 13:0.08530581 14:0.07667896 15:0.0970246 16:0.04730686 17:0.0281204 18:0.01907505 19:0.96308565 20:0.96400678 21:0.96524394 
0.1022293613846484 1:0.00808579 2:0.4184618 3:0.81711036 4:0.98540145 5:0.11764706 6:0.00344405 7:0.0123191 8:0.94333756 9:1.0072434 10:0.00636782 11:0.00013827 12:0.00224056 13:0.08544225 14:0.07706314 15:0.09955401 16:0.04979119 17:0.02987513 18:0.02017537 19:0.96137738 20:0.96223062 21:0.96344382 
0.09236206003846936 1:0.00817042 2:0.41755852 3:0.81272054 4:0.98534763 5:0.09411765 6:0.00342082 7:0.01319229 8:0.95106 9:1.0073401 10:0.00684861 11:0.00016868 12:0.00269802 13:0.09118275 14:0.07028809 15:0.0934337 16:0.04051575 17:0.02257419 18:0.01473202 19:0.95531881 20:0.9567368 21:0.95900691 
0.1310475286204351 1:0.00736137 2:0.4266296 3:0.83076811 4:0.98506659 5:0.07450981 6:0.00348007 7:0.01256557 8:0.9682579 9:1.0075371 10:0.00642348 11:0.0001509 12:0.00241283 13:0.08810511 14:0.07728442 15:0.09297346 16:0.04134404 17:0.02312577 18:0.01535838 19:0.95993429 20:0.96125942 21:0.96332425 
0.0760121629230152 1:0.00688747 2:0.43241006 3:0.84421545 4:0.98502684 5:0.04313726 6:0.00350843 7:0.01152072 8:0.94403559 9:1.0075709 10:0.0057501 11:0.00012546 12:0.00294914 13:0.07333662 14:0.06705242 15:0.07787219 16:0.03750246 17:0.02354482 18:0.01721004 19:0.96805441 20:0.96924323 21:0.97100461 
0.122706443813513 1:0.0067379 2:0.43431482 3:0.84833336 4:0.98504269 5:0.03137255 6:0.00348312 7:0.0112819 8:0.95223731 9:1.0075611 10:0.00563691 11:0.00011472 12:0.00248612 13:0.06939612 14:0.0703656 15:0.07866771 16:0.03669484 17:0.02218706 18:0.01556984 19:0.96964771 20:0.97090393 21:0.9726575 
0.1223569677561302 1:0.01044367 2:0.39622718 3:0.80043185 4:0.98545283 5:0.17647059 6:0.00404227 7:0.01399301 8:0.93028355 9:1.0072523 10:0.00737635 11:0.00027553 12:0.0049937 13:0.10351277 14:0.05256218 15:0.08719734 16:0.04250653 17:0.02652642 18:0.019563 19:0.93409091 20:0.93723142 21:0.94083959 
0.04761819339196693 1:0.00873184 2:0.41178268 3:0.80590987 4:0.9855718 5:0.19215687 6:0.00348784 7:0.01249131 8:0.9197489 9:1.0071462 10:0.00641146 11:0.00015787 12:0.00301302 13:0.09095724 14:0.06774458 15:0.09155875 16:0.04631782 17:0.02907387 18:0.02082857 19:0.95877975 20:0.95940089 21:0.96077305 
0.2170775353476472 1:0.00922984 2:0.40696064 3:0.80369431 4:0.98564804 5:0.19607843 6:0.00360563 7:0.01255654 8:0.90962082 9:1.0071431 10:0.00643739 11:0.00018741 12:0.00401016 13:0.09769215 14:0.06743296 15:0.08984131 16:0.04648139 17:0.0294153 18:0.02079741 19:0.95565057 20:0.95646912 21:0.9581129 
0.2199662325609709 1:0.00791423 2:0.42033234 3:0.83817947 4:0.98510599 5:0.20784314 6:0.0038842 7:0.01199987 8:0.95365602 9:1.0075061 10:0.00610228 11:0.00016013 12:0.00308773 13:0.0832452 14:0.05261147 15:0.07342153 16:0.03590187 17:0.02338503 18:0.01735017 19:0.95841849 20:0.96062273 21:0.96336728 
0.3315172133893782 1:0.00847909 2:0.41434437 3:0.79276156 4:0.98542035 5:0.07058824 6:0.00327916 7:0.01518281 8:0.95311499 9:1.007262 10:0.00776034 11:0.00022096 12:0.00398096 13:0.0981232 14:0.05735905 15:0.08709325 16:0.04053337 17:0.02444943 18:0.01712187 19:0.94497585 20:0.94747168 21:0.95103467 
0.2064733275841955 1:0.00946577 2:0.40476349 3:0.78687525 4:0.98563701 5:0.48627451 6:0.00342578 7:0.01444923 8:0.93893379 9:1.0071157 10:0.00751718 11:0.00022598 12:0.00374776 13:0.09919149 14:0.0590066 15:0.0958138 16:0.04762479 17:0.02924966 18:0.02056706 19:0.94435251 20:0.94562441 21:0.94805485 
0.4387959263474099 1:0.00869861 2:0.41210473 3:0.80700231 4:0.98518026 5:0.49019608 6:0.00364517 7:0.01393486 8:0.95607847 9:1.0074099 10:0.0071761 11:0.00022177 12:0.00369188 13:0.09882194 14:0.06028984 15:0.09360194 16:0.04539761 17:0.02747525 18:0.01918125 19:0.94546497 20:0.94695401 21:0.95003259 
0.1351086185107669 1:0.00812312 2:0.41806257 3:0.81396806 4:0.98520237 5:0.08627451 6:0.00354647 7:0.01350894 8:0.91252422 9:1.0074185 10:0.00676542 11:0.00019139 12:0.00521758 13:0.08428573 14:0.05298525 15:0.07530968 16:0.03799938 17:0.02538364 18:0.01974202 19:0.95431173 20:0.95612037 21:0.95855159 
0.03724594944936192 1:0.00851557 2:0.41395897 3:0.81599158 4:0.98529637 5:0.35294119 6:0.00365203 7:0.01284296 8:0.93294978 9:1.0073385 10:0.0066118 11:0.0001883 12:0.00395407 13:0.09330636 14:0.05679648 15:0.08293546 16:0.04115314 17:0.02622715 18:0.01926468 19:0.95489436 20:0.95640099 21:0.95859253 
0.01342000746947386 1:0.0083893 2:0.41525573 3:0.82263732 4:0.9851805 5:0.34509805 6:0.0037543 7:0.01266394 8:0.9406997 9:1.0074179 10:0.00651395 11:0.00019338 12:0.00398805 13:0.09512798 14:0.05755939 15:0.08301657 16:0.04085299 17:0.02556989 18:0.01844988 19:0.95451838 20:0.95633703 21:0.95870644 
0.03799002613100595 1:0.00750157 2:0.42498598 3:0.83264577 4:0.98537064 5:0.14509805 6:0.0034527 7:0.01116046 8:0.93390489 9:1.0072801 10:0.00576058 11:0.00010478 12:0.00199246 13:0.0730954 14:0.06509962 15:0.08205368 16:0.04044059 17:0.02587592 18:0.01907205 19:0.96994132 20:0.97081918 21:0.97202373 
0.1871359123948308 1:0.00855461 2:0.41356117 3:0.80010366 4:0.98525393 5:0.1254902 6:0.00344581 7:0.01457673 8:0.95866787 9:1.0073484 10:0.00748982 11:0.00022535 12:0.00365015 13:0.10647797 14:0.06996308 15:0.10340304 16:0.04924773 17:0.02843855 18:0.01913187 19:0.94348693 20:0.94469529 21:0.94715112 
0.3547780030737819 1:0.00969425 2:0.40269092 3:0.78360891 4:0.98540509 5:0.09803922 6:0.00359538 7:0.01577921 8:0.91982377 9:1.0072319 10:0.00804443 11:0.00031121 12:0.00743654 13:0.10773571 14:0.04585174 15:0.09093632 16:0.05087963 17:0.03379209 18:0.02552241 19:0.93196082 20:0.93450797 21:0.9377715 
0.3833430657309198 1:0.00986206 2:0.40119746 3:0.77865708 4:0.98583591 5:0.4509804 6:0.00331524 7:0.01456882 8:0.9191891 9:1.0070069 10:0.00765196 11:0.0002272 12:0.00417582 13:0.10218544 14:0.05651487 15:0.09704985 16:0.04859015 17:0.02980732 18:0.02116519 19:0.94462234 20:0.94598728 21:0.94753462 
0.166291016291965 1:0.00990142 2:0.40085149 3:0.78834748 4:0.98567456 5:0.44313726 6:0.00351569 7:0.01417531 8:0.92329848 9:1.007072 10:0.00749775 11:0.00023037 12:0.00411382 13:0.10013333 14:0.05713549 15:0.09389631 16:0.04560137 17:0.02814659 18:0.02005695 19:0.94392461 20:0.94579399 21:0.94761759 
0.3091220291338396 1:0.00855816 2:0.41351593 3:0.81884348 4:0.98507386 5:0.06666667 6:0.00384243 7:0.01326793 8:0.91597867 9:1.0073905 10:0.00663792 11:0.0002245 12:0.00577771 13:0.09786157 14:0.05531707 15:0.08240788 16:0.04464288 17:0.02945604 18:0.02161999 19:0.94933873 20:0.95160753 21:0.95418978 
0.2395195295824787 1:0.00870871 2:0.41200203 3:0.80439919 4:0.98519439 5:0.0627451 6:0.00364726 7:0.01425554 8:0.90762591 9:1.0073285 10:0.00710165 11:0.00025315 12:0.00664761 13:0.10203444 14:0.05257016 15:0.08484979 16:0.04725935 17:0.03101723 18:0.02308073 19:0.94498211 20:0.94700104 21:0.9499588 
0.05702389710850554 1:0.00950653 2:0.40439451 3:0.80998671 4:0.98548132 5:0.13333334 6:0.00381425 7:0.01280232 8:0.92218804 9:1.0072314 10:0.0067069 11:0.00019706 12:0.00364734 13:0.09661762 14:0.06489754 15:0.08466949 16:0.03737364 17:0.02173264 18:0.01518426 19:0.95063454 20:0.95288706 21:0.95604533 
0.1239649700509965 1:0.01007489 2:0.39934257 3:0.78542626 4:0.98546904 5:0.14509805 6:0.00369957 7:0.01541999 8:0.93467647 9:1.0071765 10:0.0079956 11:0.00029053 12:0.00542052 13:0.10484272 14:0.05014845 15:0.08919263 16:0.04492129 17:0.02897603 18:0.0214848 19:0.9304567 20:0.93376523 21:0.93807954 
0.07830586339360796 1:0.00945682 2:0.40484467 3:0.80503958 4:0.98567516 5:0.12941177 6:0.00362349 7:0.0125171 8:0.91948354 9:1.0071117 10:0.00664533 11:0.00016241 12:0.00264417 13:0.09318781 14:0.07391483 15:0.09403189 16:0.04484306 17:0.02648252 18:0.01777833 19:0.95546347 20:0.95740759 21:0.95912725 
0.03831038318293135 1:0.00854458 2:0.41366059 3:0.80736321 4:0.98553067 5:0.11372549 6:0.00341072 7:0.01281461 8:0.93295169 9:1.0071833 10:0.00669425 11:0.00015282 12:0.00247213 13:0.09106439 14:0.0770654 15:0.09937287 16:0.04815675 17:0.0286528 18:0.01935701 19:0.95776302 20:0.95889348 21:0.96042067 
0.0219281049898141 1:0.00801087 2:0.4192659 3:0.81604624 4:0.98514545 5:0.28627452 6:0.00349763 7:0.01315218 8:0.95963162 9:1.0073932 10:0.0067714 11:0.00017078 12:0.00274331 13:0.08761032 14:0.06454511 15:0.09292916 16:0.0417613 17:0.02470107 18:0.01719334 19:0.95522451 20:0.95641583 21:0.95823574 
0.04003278873674766 1:0.01007897 2:0.39931267 3:0.77401268 4:0.98563522 5:0.11764706 6:0.00347025 7:0.01596962 8:0.91910535 9:1.0070184 10:0.00818962 11:0.00026955 12:0.00564254 13:0.0989344 14:0.04718981 15:0.0885426 16:0.04605867 17:0.03064763 18:0.0229626 19:0.93367845 20:0.93670654 21:0.94032687 
0.07142164445364703 1:0.00906247 2:0.40854028 3:0.80087495 4:0.98556185 5:0.26274511 6:0.00351887 7:0.01339667 8:0.92074347 9:1.0071137 10:0.00691018 11:0.00020499 12:0.00448534 13:0.10133881 14:0.05811124 15:0.08912501 16:0.04544276 17:0.0285256 18:0.02041629 19:0.95105654 20:0.95321989 21:0.95537579 
0.03517798486241887 1:0.0083589 2:0.41557685 3:0.80892181 4:0.98521942 5:0.37254903 6:0.00353377 7:0.01381126 8:0.95306778 9:1.0074084 10:0.00704318 11:0.00020753 12:0.00371961 13:0.09438408 14:0.05580988 15:0.08825495 16:0.04191105 17:0.02579868 18:0.01858958 19:0.9492628 20:0.95090514 21:0.95354259 
0.01378171847443679 1:0.00731871 2:0.42712972 3:0.84156251 4:0.98501498 5:0.24313726 6:0.00367445 7:0.01172221 8:0.95406449 9:1.0075333 10:0.00589814 11:0.00015133 12:0.00283391 13:0.07896089 14:0.06381885 15:0.07932123 16:0.03801044 17:0.02401726 18:0.01780672 19:0.96330494 20:0.96459126 21:0.96629816 
0.3614101809663204 1:0.01058765 2:0.39503887 3:0.80739075 4:0.98531681 5:0.19215687 6:0.00427925 7:0.0138048 8:0.9272843 9:1.0073487 10:0.00725276 11:0.00028079 12:0.00563442 13:0.0996775 14:0.04569846 15:0.07975902 16:0.03978436 17:0.02595603 18:0.01972545 19:0.93157697 20:0.9359467 21:0.94078666 
0.03690208670049906 1:0.00901421 2:0.4090068 3:0.79475284 4:0.98525703 5:0.19607843 6:0.00357359 7:0.01501438 8:0.9470883 9:1.0072524 10:0.00763709 11:0.00024489 12:0.00468479 13:0.1000249 14:0.05081353 15:0.09362926 16:0.04827552 17:0.03124194 18:0.02314968 19:0.93827409 20:0.93995643 21:0.94268692 
0.3344788923601275 1:0.00738483 2:0.42635292 3:0.82974249 4:0.98507208 5:0.36862746 6:0.00347138 7:0.0122745 8:0.96216601 9:1.0075346 10:0.00625877 11:0.00015193 12:0.00261575 13:0.086528 14:0.0724921 15:0.08975673 16:0.04119118 17:0.02412623 18:0.01669723 19:0.96220177 20:0.96297902 21:0.96466678 
0.1033324164861607 1:0.00755478 2:0.4243744 3:0.84663194 4:0.98499602 5:0.19607843 6:0.00388753 7:0.01150458 8:0.950836 9:1.007544 10:0.00579561 11:0.00014527 12:0.00288182 13:0.08133791 14:0.06158546 15:0.07488111 16:0.03683281 17:0.02356878 18:0.01763947 19:0.96171325 20:0.96315521 21:0.96543962 
0.1580042057634569 1:0.00790563 2:0.42041898 3:0.82792115 4:0.9852106 5:0.33333334 6:0.00362956 7:0.01206801 8:0.94649404 9:1.0073884 10:0.00620789 11:0.00014997 12:0.00290993 13:0.07901295 14:0.0527495 15:0.08243793 16:0.04078053 17:0.0260193 18:0.01936336 19:0.96160316 20:0.96260846 21:0.96428633 
0.1925816248795979 1:0.00897076 2:0.40943661 3:0.81063545 4:0.98555243 5:0.32156864 6:0.00365086 7:0.01215088 8:0.91932672 9:1.0072297 10:0.00627812 11:0.00015398 12:0.00295403 13:0.07999692 14:0.05501712 15:0.08188156 16:0.04023054 17:0.02579527 18:0.01908685 19:0.95996737 20:0.96105176 21:0.96282613 
0.06787803593159963 1:0.00856417 2:0.41346553 3:0.82235426 4:0.98531824 5:0.34117648 6:0.00375582 7:0.01206013 8:0.93140775 9:1.0073152 10:0.00624502 11:0.0001607 12:0.00301027 13:0.08280247 14:0.05483459 15:0.07907341 16:0.03892589 17:0.02489116 18:0.01855194 19:0.95909321 20:0.96033859 21:0.9621619 
0.1692475894596062 1:0.00834902 2:0.41567343 3:0.83441931 4:0.98513144 5:0.34117648 6:0.00396109 7:0.01183256 8:0.94098246 9:1.0074675 10:0.00611104 11:0.00016735 12:0.0031421 13:0.0837142 14:0.05343534 15:0.07879296 16:0.03928162 17:0.0257005 18:0.01947349 19:0.95808804 20:0.95968962 21:0.96186209 
0.1322526845639329 1:0.00791033 2:0.42036495 3:0.83151156 4:0.98507142 5:0.36078432 6:0.00377096 7:0.01230737 8:0.95369142 9:1.007478 10:0.00628073 11:0.00016995 12:0.00318265 13:0.08337177 14:0.05215598 15:0.07825492 16:0.03930589 17:0.02596678 18:0.01986847 19:0.95808882 20:0.95948899 21:0.96154594 
0.1267525531301138 1:0.00916 2:0.40761876 3:0.79301089 4:0.98562467 5:0.12156863 6:0.00341685 7:0.01374183 8:0.91629475 9:1.0070416 10:0.00708284 11:0.00020897 12:0.00439628 13:0.10810859 14:0.06430615 15:0.09738395 16:0.05278015 17:0.03315488 18:0.02321632 19:0.95020634 20:0.95092463 21:0.95262802 
0.08819283025159777 1:0.00933663 2:0.40595758 3:0.80159569 4:0.98552829 5:0.12156863 6:0.00363842 7:0.01340228 8:0.91562355 9:1.007166 10:0.00692255 11:0.00023145 12:0.00526466 13:0.11052056 14:0.06206246 15:0.09237757 16:0.04777047 17:0.02897261 18:0.01991397 19:0.94868058 20:0.95007771 21:0.95241624 
0.1332081643409562 1:0.00857349 2:0.41336328 3:0.81568712 4:0.98512954 5:0.08627451 6:0.00376672 7:0.01355008 8:0.93268424 9:1.0074014 10:0.00685709 11:0.00026402 12:0.00620737 13:0.10658497 14:0.05738735 15:0.08795216 16:0.04488633 17:0.02815586 18:0.02028173 19:0.94680703 20:0.94859165 21:0.95121872 
0.3982789798052371 1:0.00949745 2:0.40446952 3:0.80408287 4:0.98537356 5:0.09803922 6:0.00378357 7:0.01368489 8:0.90902489 9:1.0072457 10:0.00705275 11:0.00028804 12:0.00751029 13:0.11236177 14:0.05748236 15:0.08641499 16:0.0454792 17:0.02875244 18:0.02055538 19:0.94388217 20:0.94627988 21:0.94913542 
0.04115891169978579 1:0.01016041 2:0.39861274 3:0.7919085 4:0.98588687 5:0.16078432 6:0.00366588 7:0.01311665 8:0.90255314 9:1.0069811 10:0.00680926 11:0.00020231 12:0.00430403 13:0.09846134 14:0.05748673 15:0.08378588 16:0.04219186 17:0.02653547 18:0.01885599 19:0.95007056 20:0.95265335 21:0.95548362 
0.2932494981298041 1:0.00897915 2:0.409347 3:0.82596469 4:0.98509687 5:0.21176471 6:0.00413658 7:0.01289065 8:0.94590431 9:1.007476 10:0.00659975 11:0.00022817 12:0.00436229 13:0.09713341 14:0.05332993 15:0.08026463 16:0.03922296 17:0.02488395 18:0.01842858 19:0.9452526 20:0.94790971 21:0.95153272 
0.2452619312304428 1:0.00773797 2:0.42227665 3:0.84175062 4:0.98503685 5:0.14901961 6:0.00388594 7:0.01174231 8:0.93054104 9:1.0075132 10:0.00585939 11:0.00015589 12:0.00397726 13:0.07742472 14:0.05373223 15:0.07146804 16:0.03633427 17:0.02393689 18:0.01817851 19:0.96167612 20:0.96374118 21:0.96612853 
0.01167819471652922 1:0.00737492 2:0.42646325 3:0.83477819 4:0.98506063 5:0.13725491 6:0.00356621 7:0.01213662 8:0.94096142 9:1.0075068 10:0.00607964 11:0.00016204 12:0.0037281 13:0.08686939 14:0.06728801 15:0.08242442 16:0.04063852 17:0.02524573 18:0.01780465 19:0.9617067 20:0.96302128 21:0.96501094 
0.09866018238609568 1:0.00965047 2:0.40308198 3:0.77859998 4:0.98545945 5:0.11764706 6:0.00347629 7:0.01605368 8:0.92379659 9:1.0071846 10:0.00812832 11:0.00029079 12:0.00628923 13:0.09767 14:0.05077729 15:0.09424144 16:0.04559133 17:0.02738895 18:0.01952043 19:0.93476844 20:0.93749118 21:0.94123846 
0.2680701708419835 1:0.00955437 2:0.40395108 3:0.78000396 4:0.98538899 5:0.08235294 6:0.00350949 7:0.01606957 8:0.92742562 9:1.0072033 10:0.00809665 11:0.00029499 12:0.00636626 13:0.09607388 14:0.04836584 15:0.09299285 16:0.04516529 17:0.02783563 18:0.02024027 19:0.93495512 20:0.93762481 21:0.94179559 
0.2274693859548931 1:0.00883822 2:0.4107267 3:0.80083221 4:0.98554963 5:0.24705882 6:0.00353912 7:0.01390465 8:0.92341369 9:1.0072365 10:0.0070998 11:0.00020776 12:0.00375841 13:0.09167847 14:0.05527236 15:0.07965467 16:0.03650898 17:0.02229018 18:0.01598549 19:0.94997442 20:0.95277512 21:0.95625895 
0.1364440637022943 1:0.00740212 2:0.42613429 3:0.84221941 4:0.985138 5:0.19607843 6:0.00365564 7:0.01117553 8:0.95390981 9:1.0074511 10:0.00574481 11:0.00012102 12:0.00204045 13:0.07701238 14:0.0740907 15:0.08681193 16:0.04148706 17:0.02528132 18:0.01766332 19:0.96695179 20:0.96827835 21:0.96934605 
0.123080043560519 1:0.00722208 2:0.42827904 3:0.84460557 4:0.98506582 5:0.20392157 6:0.0036409 7:0.01121268 8:0.95760959 9:1.0074748 10:0.00573275 11:0.00012018 12:0.0020351 13:0.07704645 14:0.07516674 15:0.08790836 16:0.04179833 17:0.02550546 18:0.01798318 19:0.96738905 20:0.96857864 21:0.96970856 
0.03664500695563421 1:0.00824998 2:0.4167138 3:0.80863351 4:0.9853794 5:0.15686275 6:0.00338224 7:0.01305858 8:0.93434739 9:1.0072675 10:0.00673032 11:0.00016989 12:0.00321513 13:0.09438969 14:0.06863902 15:0.09508067 16:0.0471237 17:0.02827722 18:0.01959882 19:0.95687503 20:0.95758665 21:0.9591589 
0.1378740282474313 1:0.00843198 2:0.41481674 3:0.81529665 4:0.9853164 5:0.30588236 6:0.00361397 7:0.01321461 8:0.94336003 9:1.0073239 10:0.00682265 11:0.00018728 12:0.00353703 13:0.08536055 14:0.04983944 15:0.08021572 16:0.03982441 17:0.02603021 18:0.01977626 19:0.95290804 20:0.95520908 21:0.9579463 
0.04012652075558313 1:0.00817429 2:0.41751635 3:0.8207413 4:0.98515165 5:0.32156864 6:0.00367165 7:0.01316035 8:0.95677692 9:1.0074233 10:0.0067533 11:0.00018948 12:0.00329051 13:0.08917075 14:0.05667968 15:0.08431164 16:0.04025741 17:0.02563245 18:0.01868583 19:0.95253175 20:0.95452189 21:0.95748091 
0.002377299546245002 1:0.01019071 2:0.39835688 3:0.77726972 4:0.98589087 5:0.20784314 6:0.00350763 7:0.01513551 8:0.92254853 9:1.0069289 10:0.00785081 11:0.00027608 12:0.00447927 13:0.10365412 14:0.05460342 15:0.09462776 16:0.04706765 17:0.02914958 18:0.02068871 19:0.9372068 20:0.94017935 21:0.94386798 
0.1149125243916454 1:0.00833929 2:0.4157764 3:0.81450343 4:0.98512173 5:0.21568628 6:0.00360959 7:0.013669 8:0.96103567 9:1.0074394 10:0.00705956 11:0.00020124 12:0.00327001 13:0.09556058 14:0.06413577 15:0.09211019 16:0.04154627 17:0.02399483 18:0.01644482 19:0.94898152 20:0.95072061 21:0.95345861 
0.02174258798385648 1:0.00812001 2:0.41809127 3:0.83966821 4:0.98503852 5:0.12941177 6:0.00402007 7:0.01207669 8:0.95571017 9:1.0075074 10:0.00616042 11:0.00017694 12:0.00305753 13:0.08995284 14:0.06134566 15:0.08327442 16:0.04017575 17:0.02489782 18:0.01818406 19:0.95449162 20:0.95649385 21:0.95908225 
0.05984040094409753 1:0.00785656 2:0.42095825 3:0.83005977 4:0.98523551 5:0.11764706 6:0.00361665 7:0.01193146 8:0.9522078 9:1.0073632 10:0.00615429 11:0.00013665 12:0.00220031 13:0.08375281 14:0.07693661 15:0.08903268 16:0.04194157 17:0.024401 18:0.01647005 19:0.96174508 20:0.9635849 21:0.96558875 
0.0641527897860205 1:0.00930309 2:0.4062638 3:0.8008216 4:0.98538387 5:0.1254902 6:0.00366846 7:0.01392354 8:0.9425754 9:1.0072247 10:0.00724227 11:0.00022194 12:0.00354491 13:0.10589083 14:0.06984754 15:0.10187733 16:0.05109892 17:0.03062481 18:0.0207082 19:0.94334334 20:0.94549423 21:0.94804305 
0.004145498534201323 1:0.0083606 2:0.41555014 3:0.80228883 4:0.98515409 5:0.12156863 6:0.0034566 7:0.01438087 8:0.92880952 9:1.0073596 10:0.00724528 11:0.00022481 12:0.00515095 13:0.09858558 14:0.05296057 15:0.09172244 16:0.0480511 17:0.03095967 18:0.02289901 19:0.94810891 20:0.94946617 21:0.95167249 
0.01143954903643266 1:0.00880286 2:0.41107261 3:0.82335806 4:0.98508137 5:0.20392157 6:0.00401406 7:0.01309937 8:0.94722253 9:1.0074408 10:0.0067022 11:0.00022166 12:0.00432197 13:0.09831893 14:0.05402328 15:0.08282023 16:0.04112738 17:0.02616793 18:0.01938201 19:0.94547397 20:0.94803321 21:0.95140809 
0.2258869948856646 1:0.00788051 2:0.42070481 3:0.82882172 4:0.98524237 5:0.07450981 6:0.00363551 7:0.01275512 8:0.95987487 9:1.0074159 10:0.00655766 11:0.00017272 12:0.00285629 13:0.08545627 14:0.05731413 15:0.07765908 16:0.03357147 17:0.01937713 18:0.01368213 19:0.95623779 20:0.95907974 21:0.96276635 
0.2404273352995788 1:0.00680451 2:0.43346232 3:0.85682005 4:0.98491341 5:0.05882353 6:0.00367453 7:0.01095462 8:0.96675378 9:1.0075841 10:0.00553917 11:0.00011112 12:0.00201921 13:0.07505935 14:0.0762276 15:0.07651604 16:0.03304312 17:0.01924809 18:0.01336292 19:0.96904421 20:0.97040993 21:0.97228158 
0.02682703307837389 1:0.00837197 2:0.41543406 3:0.81993181 4:0.98527879 5:0.33333334 6:0.00367383 7:0.01250719 8:0.93520135 9:1.007353 10:0.00643937 11:0.00017028 12:0.00341847 13:0.08396731 14:0.05556946 15:0.08027402 16:0.04045526 17:0.02682692 18:0.02072561 19:0.95699817 20:0.95808178 21:0.95985985 
0.0362755265751838 1:0.00785893 2:0.42093414 3:0.81600839 4:0.98520315 5:0.35686275 6:0.00344277 7:0.01295599 8:0.94594622 9:1.0073354 10:0.006602 11:0.00016338 12:0.00331435 13:0.08343545 14:0.05285029 15:0.0818893 16:0.0421306 17:0.02839185 18:0.02168189 19:0.9586249 20:0.95938194 21:0.9610163 
0.3457343813897182 1:0.00880869 2:0.4110167 3:0.79928398 4:0.98534197 5:0.29411766 6:0.00354426 7:0.01456652 8:0.93173641 9:1.0073038 10:0.0073959 11:0.00022914 12:0.00514201 13:0.08913972 14:0.04506164 15:0.07606261 16:0.03744734 17:0.02380207 18:0.01718878 19:0.94677007 20:0.95069587 21:0.9549529 
0.2793104954501822 1:0.00906498 2:0.40851918 3:0.80593181 4:0.98529828 5:0.36078432 6:0.00378247 7:0.01406865 8:0.92741966 9:1.007318 10:0.0071228 11:0.00023865 12:0.0055154 13:0.08821373 14:0.04497106 15:0.07427519 16:0.03720433 17:0.0242145 18:0.01808098 19:0.94496942 20:0.94862324 21:0.95301187 
0.01106204392653791 1:0.00871513 2:0.41193998 3:0.79717553 4:0.98533303 5:0.36862746 6:0.00346527 7:0.01450244 8:0.92980373 9:1.0072522 10:0.00736149 11:0.00021803 12:0.00488205 13:0.0894045 14:0.04726865 15:0.08062808 16:0.04028031 17:0.02624319 18:0.01960783 19:0.94762498 20:0.94996363 21:0.95294726 
0.184007597842488 1:0.00841076 2:0.41503686 3:0.81513602 4:0.98524517 5:0.36078432 6:0.00367398 7:0.01338303 8:0.94486541 9:1.0073718 10:0.00679606 11:0.00020559 12:0.00406325 13:0.09115055 14:0.04996028 15:0.07744011 16:0.03750655 17:0.02349895 18:0.0173388 19:0.95105737 20:0.95378089 21:0.95721841 
0.1496554662105352 1:0.00968978 2:0.40273243 3:0.78956246 4:0.9855873 5:0.36470589 6:0.00356343 7:0.01432921 8:0.92403948 9:1.0071031 10:0.00740914 11:0.00023387 12:0.00430053 13:0.09404439 14:0.05126869 15:0.08557559 16:0.04165295 17:0.02649334 18:0.01929685 19:0.94396973 20:0.94611406 21:0.94952762 
0.08963465877970146 1:0.00806485 2:0.41868865 3:0.8160103 4:0.98516005 5:0.05882353 6:0.00353952 7:0.01359405 8:0.96340972 9:1.0074511 10:0.00697121 11:0.00018682 12:0.00311558 13:0.09420823 14:0.0620896 15:0.09113383 16:0.04268679 17:0.02538216 18:0.0173274 19:0.95106804 20:0.95298672 21:0.95545661 
0.1899462036987487 1:0.00706559 2:0.43018878 3:0.84780091 4:0.98505616 5:0.21960784 6:0.00363528 7:0.01135298 8:0.96076792 9:1.0075496 10:0.00572429 11:0.00012514 12:0.00242758 13:0.07714336 14:0.06466167 15:0.0743428 16:0.03498019 17:0.02161475 18:0.01553043 19:0.96655178 20:0.96807635 21:0.96999252 
0.2278379112952504 1:0.00780445 2:0.42154357 3:0.83161956 4:0.98509723 5:0.30588236 6:0.00370288 7:0.01243469 8:0.96681923 9:1.0074863 10:0.00636281 11:0.00016715 12:0.00273104 13:0.08838445 14:0.06558455 15:0.08376093 16:0.03706171 17:0.02111009 18:0.01451696 19:0.95733237 20:0.95925784 21:0.96214223 
0.0958407682875468 1:0.0093052 2:0.40624702 3:0.79182923 4:0.98544079 5:0.4627451 6:0.00351213 7:0.01442507 8:0.93898094 9:1.0072223 10:0.00747776 11:0.00022992 12:0.00410786 13:0.10013171 14:0.05659668 15:0.09361139 16:0.04811935 17:0.03070863 18:0.02232145 19:0.94325131 20:0.9447453 21:0.94688755 
0.1001655522564063 1:0.0087866 2:0.41124329 3:0.806494 4:0.98551184 5:0.2 6:0.00349579 7:0.01269644 8:0.92931175 9:1.0072205 10:0.00656554 11:0.00016495 12:0.00290852 13:0.08988682 14:0.06747542 15:0.08848082 16:0.04199528 17:0.02557488 18:0.01774233 19:0.95712233 20:0.95826364 21:0.96001023 
0.1604599370968509 1:0.00656389 2:0.436591 3:0.85336256 4:0.98492533 5:0.17254902 6:0.00351873 7:0.01106446 8:0.971623 9:1.0075219 10:0.00558643 11:0.00010654 12:0.00186114 13:0.06942968 14:0.07258103 15:0.08413036 16:0.03927329 17:0.02436407 18:0.01752588 19:0.97041672 20:0.97099322 21:0.97222793 
0.1224902939833095 1:0.00801556 2:0.41922396 3:0.81351411 4:0.98534632 5:0.07450981 6:0.00342643 7:0.01372182 8:0.94873619 9:1.007341 10:0.00697685 11:0.00018683 12:0.0036372 13:0.08938336 14:0.05107667 15:0.08019424 16:0.03861168 17:0.02432214 18:0.01797259 19:0.95307142 20:0.95565891 21:0.95877409 
0.2384288375843422 1:0.00782636 2:0.42130372 3:0.8007654 4:0.9853642 5:0.38039216 6:0.00315573 7:0.01416638 8:0.95351952 9:1.0072855 10:0.00721068 11:0.00018041 12:0.00315123 13:0.09134705 14:0.06461679 15:0.09561978 16:0.04779631 17:0.02923526 18:0.02066996 19:0.95445585 20:0.95547968 21:0.95719171 
0.04051977484394111 1:0.00860512 2:0.41304699 3:0.80341411 4:0.98522681 5:0.15686275 6:0.0035683 7:0.01434181 8:0.95130253 9:1.0073347 10:0.00730861 11:0.00022462 12:0.00407724 13:0.09472938 14:0.05156219 15:0.08971462 16:0.04493809 17:0.02835241 18:0.02042053 19:0.94478488 20:0.94662017 21:0.94967276 
0.1231366799133444 1:0.00952522 2:0.40421832 3:0.82179177 4:0.98520631 5:0.10980392 6:0.00420526 7:0.01287297 8:0.93025637 9:1.0074174 10:0.00661689 11:0.00024358 12:0.00504452 13:0.0920443 14:0.04955754 15:0.07446273 16:0.03542628 17:0.02260272 18:0.0166938 19:0.94454169 20:0.94816291 21:0.95258582 
0.03415848850107885 1:0.00866319 2:0.41246116 3:0.81203878 4:0.98546588 5:0.10588235 6:0.00361845 7:0.01301639 8:0.91454148 9:1.0071824 10:0.0067024 11:0.0001731 12:0.00449775 13:0.07988503 14:0.04248765 15:0.07152808 16:0.03776899 17:0.02643973 18:0.02107946 19:0.95576304 20:0.95801771 21:0.96053517 
0.1946752492310343 1:0.00905537 2:0.40861243 3:0.80759066 4:0.98556566 5:0.10980392 6:0.00364941 7:0.01301149 8:0.90539283 9:1.0071465 10:0.00672573 11:0.00017763 12:0.00468177 13:0.08158362 14:0.0419816 15:0.07106965 16:0.03806524 17:0.02643395 18:0.02082374 19:0.95495182 20:0.95741069 21:0.96014982 
0.369775238643012 1:0.00948471 2:0.40458778 3:0.7902168 4:0.98539317 5:0.50196081 6:0.00357609 7:0.0147029 8:0.94241351 9:1.0072492 10:0.0076217 11:0.00025144 12:0.0041317 13:0.10206784 14:0.05701274 15:0.09499929 16:0.04696202 17:0.02907147 18:0.02081566 19:0.93957794 20:0.94135672 21:0.94390881 
0.005652441448765501 1:0.00961277 2:0.40342271 3:0.79019058 4:0.9854244 5:0.49411765 6:0.00360433 7:0.01460548 8:0.94205606 9:1.0072408 10:0.00758067 11:0.00025143 12:0.00415938 13:0.10239386 14:0.05624155 15:0.09361853 16:0.04596459 17:0.02862627 18:0.02043138 19:0.93929052 20:0.94101107 21:0.94391966 
0.04877637559837655 1:0.0090835 2:0.40834662 3:0.81171423 4:0.98526567 5:0.10980392 6:0.00380109 7:0.01358481 8:0.94885862 9:1.0073357 10:0.00710718 11:0.00022205 12:0.00358915 13:0.10469892 14:0.06381568 15:0.08913355 16:0.04151689 17:0.02469818 18:0.01695915 19:0.94460207 20:0.94784892 21:0.95158225 
0.0841935071903539 1:0.00869868 2:0.41211048 3:0.81752944 4:0.98518044 5:0.09803922 6:0.00380777 7:0.01353502 8:0.95704579 9:1.0073884 10:0.00701445 11:0.00022067 12:0.00359188 13:0.10456225 14:0.0665532 15:0.09144357 16:0.04294292 17:0.0249259 18:0.01685458 19:0.94531721 20:0.94818592 21:0.95173568 
0.1254624196330066 1:0.00796253 2:0.41980597 3:0.83004576 4:0.98512548 5:0.05490196 6:0.00375396 7:0.01265809 8:0.96125847 9:1.0074427 10:0.00645896 11:0.00017657 12:0.00304511 13:0.09051549 14:0.06080146 15:0.08041873 16:0.03694133 17:0.02210013 18:0.01543356 19:0.95528525 20:0.95791745 21:0.96126366 
0.02549009981635035 1:0.00798507 2:0.41954765 3:0.8466261 4:0.98513764 5:0.10588235 6:0.00399611 7:0.01090521 8:0.94051951 9:1.0074342 10:0.00560635 11:0.0001336 12:0.00255945 13:0.0822297 14:0.06808564 15:0.0760539 16:0.03736452 17:0.02381143 18:0.01753299 19:0.96431756 20:0.96646738 21:0.96841425 
0.1677864144263139 1:0.00683355 2:0.43309173 3:0.84771508 4:0.98495632 5:0.20784314 6:0.00354796 7:0.01136926 8:0.96943903 9:1.0076008 10:0.00575072 11:0.00011676 12:0.002136 13:0.07222512 14:0.06830406 15:0.07785979 16:0.03484656 17:0.0214519 18:0.01551356 19:0.96826172 20:0.96928495 21:0.97097707 
0.1819081330209548 1:0.0095153 2:0.40430814 3:0.81155473 4:0.98542893 5:0.27058825 6:0.00390336 7:0.01284478 8:0.92695993 9:1.0072143 10:0.00671498 11:0.00020911 12:0.00372152 13:0.09689225 14:0.05825973 15:0.08562494 16:0.04227406 17:0.02591416 18:0.01821997 19:0.94819593 20:0.95066875 21:0.95367026 
0.0914264476933067 1:0.00959095 2:0.40362552 3:0.78837496 4:0.98565227 5:0.40000001 6:0.00349594 7:0.01399489 8:0.90969074 9:1.0071052 10:0.00716239 11:0.00024222 12:0.00533293 13:0.10537437 14:0.05786734 15:0.09215052 16:0.05000766 17:0.03202127 18:0.02276338 19:0.94692957 20:0.94812179 21:0.95020503 
0.287588695236409 1:0.00955767 2:0.40392721 3:0.7875821 4:0.98570055 5:0.39607844 6:0.00346723 7:0.01394846 8:0.9121173 9:1.007075 10:0.00714642 11:0.00022902 12:0.00487276 13:0.10595679 14:0.05879091 15:0.09452698 16:0.0503368 17:0.03154801 18:0.02230754 19:0.94778544 20:0.94873816 21:0.95051616 
0.0324664140416233 1:0.00913967 2:0.40780938 3:0.78890985 4:0.98535311 5:0.10980392 6:0.0034876 7:0.01546665 8:0.94812477 9:1.0072796 10:0.00790114 11:0.00026304 12:0.00517422 13:0.10222404 14:0.04932912 15:0.09315413 16:0.04795977 17:0.03125835 18:0.02319765 19:0.93623871 20:0.93793398 21:0.94094145 
0.03170709981927837 1:0.00856342 2:0.41347322 3:0.8053562 4:0.98517859 5:0.38431373 6:0.00356865 7:0.01408645 8:0.95523173 9:1.0074159 10:0.00719283 11:0.00021879 12:0.00383784 13:0.09738948 14:0.05837546 15:0.09072891 16:0.04328391 17:0.02669701 18:0.01898943 19:0.94646281 20:0.94822216 21:0.95093471 
0.1830458991028577 1:0.00835752 2:0.41558152 3:0.81886971 4:0.9850747 5:0.10980392 6:0.00373735 7:0.01341536 8:0.96137077 9:1.0074408 10:0.00688776 11:0.00020546 12:0.00333675 13:0.10293169 14:0.07047572 15:0.09758715 16:0.04741824 17:0.02804824 18:0.01923078 19:0.94788593 20:0.94940329 21:0.95204318 
0.1929046206190666 1:0.00851414 2:0.41397882 3:0.80405158 4:0.98550975 5:0.37254903 6:0.00336358 7:0.0127711 8:0.93077999 9:1.0072509 10:0.00660578 11:0.00015815 12:0.00277696 13:0.08552684 14:0.06645326 15:0.08949579 16:0.04404046 17:0.02692322 18:0.01916771 19:0.95969099 20:0.96030748 21:0.96168762 
0.01076822395346067 1:0.0086285 2:0.41280997 3:0.82635528 4:0.98514974 5:0.29803923 6:0.003924 7:0.01255028 8:0.9539414 9:1.0073878 10:0.00651685 11:0.00019169 12:0.0030851 13:0.0942483 14:0.06329074 15:0.08463917 16:0.03846691 17:0.02277124 18:0.01572321 19:0.95143229 20:0.95387787 21:0.95708293 
0.1277281111373728 1:0.00822508 2:0.41698882 3:0.80734628 4:0.98522449 5:0.07843138 6:0.00344261 7:0.01419226 8:0.96073902 9:1.0073968 10:0.0072917 11:0.00020279 12:0.00325354 13:0.10262301 14:0.0712507 15:0.09609889 16:0.04437124 17:0.0254673 18:0.01702402 19:0.94805378 20:0.94988626 21:0.95280397 
0.01367846081487542 1:0.0065794 2:0.43637997 3:0.856668 4:0.98493081 5:0.03921569 6:0.00356958 7:0.01099197 8:0.97731555 9:1.0076231 10:0.00557651 11:0.00010486 12:0.0017255 13:0.07101958 14:0.07728784 15:0.08028825 16:0.03462209 17:0.01980325 18:0.01367057 19:0.9705984 20:0.97174728 21:0.97339642 
0.1410142766301884 1:0.00821614 2:0.41707602 3:0.81665641 4:0.98538923 5:0.24313726 6:0.00354184 7:0.01301739 8:0.93541867 9:1.0072987 10:0.00667919 11:0.00018333 12:0.00310801 13:0.09228264 14:0.06313723 15:0.08305588 16:0.0386417 17:0.02334374 18:0.01662433 19:0.95613915 20:0.95845455 21:0.96139354 
0.02334618518498987 1:0.00871137 2:0.41197985 3:0.81905228 4:0.98533624 5:0.10588235 6:0.00374987 7:0.01270374 8:0.94064099 9:1.0072955 10:0.00663743 11:0.00017441 12:0.00294392 13:0.08520157 14:0.05580117 15:0.07829157 16:0.03424742 17:0.02028126 18:0.0143945 19:0.95403278 20:0.95681179 21:0.959988 
0.0226407932540963 1:0.00779894 2:0.42160031 3:0.83535844 4:0.98516202 5:0.09803922 6:0.00370843 7:0.01172999 8:0.95101482 9:1.0074178 10:0.0060453 11:0.00014079 12:0.00223982 13:0.08421899 14:0.07568185 15:0.08816702 16:0.04048525 17:0.02321986 18:0.01548319 19:0.96210849 20:0.96408033 21:0.96614802 
0.1664909796363283 1:0.00846162 2:0.41451156 3:0.80059969 4:0.98546565 5:0.17647059 6:0.00333099 7:0.01438708 8:0.94235277 9:1.007243 10:0.00740689 11:0.00020022 12:0.00383243 13:0.09063641 14:0.04969548 15:0.08339199 16:0.03985614 17:0.02449173 18:0.01774625 19:0.94974446 20:0.9523536 21:0.95598292 
0.07699223903289401 1:0.00890264 2:0.41009259 3:0.81133544 4:0.98522383 5:0.15294118 6:0.00382132 7:0.0138609 8:0.93767732 9:1.0073672 10:0.00706581 11:0.00023376 12:0.00504719 13:0.09282328 14:0.04502911 15:0.07756072 16:0.03807636 17:0.02461142 18:0.01886921 19:0.94459015 20:0.94780403 21:0.9516921 
0.1179994524590205 1:0.00735814 2:0.4266558 3:0.83225095 4:0.98505181 5:0.05882353 6:0.00352811 7:0.01250803 8:0.96578258 9:1.0074427 10:0.00638085 11:0.00014821 12:0.00239327 13:0.08887529 14:0.07758934 15:0.09899816 16:0.04657396 17:0.02691073 18:0.01814373 19:0.95964569 20:0.96055055 21:0.96219748 
0.4221469522094658 1:0.00769393 2:0.42277688 3:0.77020174 4:0.98577499 5:0.09803922 6:0.00264831 7:0.01655799 8:0.95941353 9:1.0069851 10:0.0083412 11:0.00018393 12:0.00312585 13:0.09452485 14:0.06318783 15:0.10683 16:0.05456755 17:0.03365904 18:0.0233072 19:0.95022553 20:0.95059854 21:0.95217675 
0.04974133626163627 1:0.00758347 2:0.42402908 3:0.84313536 4:0.98501873 5:0.12941177 6:0.00382127 7:0.01178639 8:0.9582333 9:1.0075097 10:0.00601886 11:0.00015194 12:0.00285347 13:0.08959856 14:0.06595784 15:0.08666164 16:0.04296484 17:0.02653478 18:0.01877706 19:0.96031481 20:0.96167427 21:0.96365499 
0.05824042041387228 1:0.00847577 2:0.4143624 3:0.80745256 4:0.98516357 5:0.20392157 6:0.00357299 7:0.01406778 8:0.9565019 9:1.0073503 10:0.00720106 11:0.00021535 12:0.00381371 13:0.10299009 14:0.06201478 15:0.09777045 16:0.04890972 17:0.03043121 18:0.02170379 19:0.94533622 20:0.94655037 21:0.94894052 
0.07827600407522498 1:0.00784756 2:0.42106518 3:0.82447726 4:0.9852066 5:0.32156864 6:0.00351794 7:0.01212222 8:0.94803506 9:1.007394 10:0.00625091 11:0.00014332 12:0.00259724 13:0.08139451 14:0.06736637 15:0.08292554 16:0.03888921 17:0.0238627 18:0.01700876 19:0.96269923 20:0.96366793 21:0.96538895 
0.1272018795994874 1:0.00791429 2:0.42032143 3:0.82785434 4:0.98520666 5:0.21960784 6:0.00361279 7:0.01217033 8:0.95266497 9:1.0073873 10:0.00630424 11:0.00015205 12:0.00244911 13:0.08636634 14:0.07554299 15:0.09212485 16:0.04266348 17:0.02510547 18:0.01705101 19:0.95995951 20:0.96107101 21:0.96285802 
0.1604687618069358 1:0.00832072 2:0.41597131 3:0.81695402 4:0.98537391 5:0.22352941 6:0.00353342 7:0.01230568 8:0.93947428 9:1.007283 10:0.00640445 11:0.00014838 12:0.00238899 13:0.08628929 14:0.07420813 15:0.09348103 16:0.04361636 17:0.02568758 18:0.01747391 19:0.95979035 20:0.96085173 21:0.96241701 
0.2239405276062596 1:0.00713598 2:0.4293333 3:0.81796706 4:0.98514956 5:0.07843138 6:0.0031868 7:0.01329514 8:0.95865941 9:1.0074725 10:0.00674573 11:0.00014361 12:0.00260919 13:0.08440635 14:0.06176706 15:0.09229299 16:0.04530277 17:0.02814259 18:0.02001994 19:0.96111012 20:0.96198702 21:0.96362162 
0.2617823181557527 1:0.00810179 2:0.41829127 3:0.81460375 4:0.9851647 5:0.29411766 6:0.00350486 7:0.01355546 8:0.96049184 9:1.0074576 10:0.0069803 11:0.00019162 12:0.00304813 13:0.09506872 14:0.06786814 15:0.09021633 16:0.03821495 17:0.02109751 18:0.01398366 19:0.95167714 20:0.9535498 21:0.95610422 
0.3171715721926017 1:0.01016956 2:0.39853132 3:0.78789502 4:0.98535854 5:0.24313726 6:0.003793 7:0.01542335 8:0.94141728 9:1.0072349 10:0.00804321 11:0.00030745 12:0.00552572 13:0.10607723 14:0.05016147 15:0.09012362 16:0.0433434 17:0.02701053 18:0.01952313 19:0.92789328 20:0.93090159 21:0.9354313 
0.009186591776495813 1:0.0096741 2:0.40287131 3:0.77999097 4:0.9853465 5:0.17647059 6:0.00353358 7:0.01619303 8:0.94751108 9:1.0072155 10:0.0083182 11:0.00029864 12:0.00529591 13:0.10664297 14:0.05201361 15:0.09593826 16:0.04703611 17:0.02914005 18:0.02097983 19:0.92891419 20:0.93097585 21:0.93451476 
0.1673120321280505 1:0.00966113 2:0.40298805 3:0.78005373 4:0.98538375 5:0.18039216 6:0.00352776 7:0.01614957 8:0.94762391 9:1.007212 10:0.0082977 11:0.00029729 12:0.00533982 13:0.10858762 14:0.05183783 15:0.09527615 16:0.04695191 17:0.02914397 18:0.02095404 19:0.92907232 20:0.93129432 21:0.93488961 
0.08526663105962602 1:0.01016469 2:0.39857316 3:0.80750167 4:0.98564184 5:0.14901961 6:0.00394974 7:0.01234826 8:0.90737325 9:1.0072074 10:0.00653711 11:0.00018221 12:0.00342028 13:0.09066679 14:0.05772969 15:0.08083178 16:0.03884612 17:0.02438263 18:0.01782218 19:0.95161152 20:0.95415759 21:0.95681387 
0.138846106707002 1:0.00669901 2:0.43482071 3:0.85494012 4:0.98496503 5:0.16078432 6:0.00360876 7:0.01100328 8:0.96736056 9:1.0075384 10:0.00555769 11:0.00010704 12:0.00190107 13:0.06909458 14:0.0672443 15:0.07704723 16:0.03553289 17:0.0221712 18:0.01618064 19:0.96979988 20:0.97076625 21:0.97232944 
0.0495685220097445 1:0.00879471 2:0.41115022 3:0.81187546 4:0.98523521 5:0.30980393 6:0.00371247 7:0.01346672 8:0.95039904 9:1.0073316 10:0.00699044 11:0.00020832 12:0.00335513 13:0.10280119 14:0.06875665 15:0.09547358 16:0.04430159 17:0.02545749 18:0.0171668 19:0.94699258 20:0.94922704 21:0.95197141 
0.04647647612934993 1:0.00773996 2:0.42225784 3:0.8323155 4:0.9850477 5:0.21960784 6:0.0037272 7:0.01227209 8:0.93498451 9:1.007496 10:0.00613438 11:0.00015832 12:0.00358116 13:0.08475954 14:0.0591529 15:0.08055249 16:0.04216422 17:0.02775806 18:0.02082137 19:0.95887297 20:0.96016741 21:0.96212453 
0.4808066631765383 1:0.00980141 2:0.40173706 3:0.78466964 4:0.9853282 5:0.50196081 6:0.00366187 7:0.01557229 8:0.9455443 9:1.0073384 10:0.00800996 11:0.00028941 12:0.0050421 13:0.10865214 14:0.05335871 15:0.09497538 16:0.04889356 17:0.0313962 18:0.02269315 19:0.93017185 20:0.93261445 21:0.93654794 
0.1847491093734051 1:0.00858811 2:0.41322091 3:0.83194315 4:0.98511052 5:0.07058824 6:0.00406959 7:0.01261952 8:0.94400066 9:1.0074581 10:0.0064683 11:0.00020267 12:0.00418638 13:0.08972169 14:0.05164106 15:0.07365805 16:0.03504924 17:0.02231942 18:0.01676768 19:0.95062786 20:0.95396644 21:0.95783126 
0.0722638723860891 1:0.00905367 2:0.40863556 3:0.79578322 4:0.98528433 5:0.16078432 6:0.00359223 7:0.01478936 8:0.94317538 9:1.0073615 10:0.00750564 11:0.00024457 12:0.00488274 13:0.09650042 14:0.05188354 15:0.085213 16:0.04140422 17:0.02606482 18:0.0189066 19:0.94165409 20:0.9446187 21:0.94850421 
0.01832591806400177 1:0.00778962 2:0.42170984 3:0.83354753 4:0.98527575 5:0.11372549 6:0.00364292 7:0.01125815 8:0.93002135 9:1.007349 10:0.0057447 11:0.00012519 12:0.00233391 13:0.08192363 14:0.07339388 15:0.08730274 16:0.04565723 17:0.02909078 18:0.02096752 19:0.96640211 20:0.96706212 21:0.96816188 
0.02960417998535567 1:0.00795704 2:0.41986081 3:0.82846314 4:0.98532301 5:0.12156863 6:0.00361061 7:0.01140186 8:0.92720747 9:1.0072764 10:0.00581984 11:0.00012634 12:0.00240166 13:0.08291256 14:0.07314022 15:0.08807393 16:0.04597395 17:0.02944366 18:0.02153076 19:0.96583086 20:0.96636993 21:0.96753663 
0.1139121497143935 1:0.00907386 2:0.4084402 3:0.80482322 4:0.98538947 5:0.27450982 6:0.00368033 7:0.01389746 8:0.93998569 9:1.0072757 10:0.00715373 11:0.00022572 12:0.00430966 13:0.09068467 14:0.05337696 15:0.07907765 16:0.03567651 17:0.02165533 18:0.01546297 19:0.94681978 20:0.95044994 21:0.95462984 
0.1436364371911958 1:0.00893962 2:0.40973568 3:0.81291044 4:0.98539603 5:0.26274511 6:0.00370866 7:0.0134359 8:0.94614613 9:1.0072651 10:0.00700876 11:0.00020667 12:0.00348666 13:0.090682 14:0.05497292 15:0.07709451 16:0.03457962 17:0.02059382 18:0.01447483 19:0.94808286 20:0.95194197 21:0.95622605 
0.1795433284029058 1:0.00842566 2:0.41488564 3:0.81187803 4:0.98525465 5:0.27450982 6:0.00359284 7:0.01369335 8:0.95610124 9:1.0073737 10:0.00701301 11:0.0002026 12:0.0034906 13:0.09220103 14:0.05466572 15:0.08235443 16:0.03764309 17:0.02278648 18:0.01623445 19:0.9490298 20:0.95167398 21:0.95492554 
0.0660218361853445 1:0.0090303 2:0.40885329 3:0.79855341 4:0.98551852 5:0.13725491 6:0.00349765 7:0.01375135 8:0.9389472 9:1.0071521 10:0.00711591 11:0.00019953 12:0.00324361 13:0.10253589 14:0.07182281 15:0.10172399 16:0.05110834 17:0.03070046 18:0.02070797 19:0.94826627 20:0.9503029 21:0.95252275 
0.04240860594311439 1:0.00860455 2:0.41305894 3:0.79422778 4:0.985659 5:0.29019609 6:0.0033313 7:0.01413907 8:0.9299373 9:1.0071402 10:0.00721034 11:0.00021941 12:0.00336063 13:0.09735951 14:0.06885601 15:0.09506422 16:0.04617332 17:0.02741019 18:0.01847794 19:0.95196462 20:0.9533478 21:0.95574355 
0.2473852601696746 1:0.00851539 2:0.41396043 3:0.81165016 4:0.98521119 5:0.24313726 6:0.00366832 7:0.01374636 8:0.94645452 9:1.0073879 10:0.00698798 11:0.00020615 12:0.0040518 13:0.08902998 14:0.04984101 15:0.0785696 16:0.0376355 17:0.02431355 18:0.01848223 19:0.94831306 20:0.95081347 21:0.95395768 
0.213646851080934 1:0.00973101 2:0.4023619 3:0.78456044 4:0.98535347 5:0.35294119 6:0.00362648 7:0.01560759 8:0.94583404 9:1.0072354 10:0.00800081 11:0.00029771 12:0.00520874 13:0.11066904 14:0.05639549 15:0.09572746 16:0.04961583 17:0.03149539 18:0.02272 19:0.93026823 20:0.93254846 21:0.93613124 
0.1570934230209328 1:0.00974993 2:0.40219304 3:0.78442645 4:0.98533869 5:0.34509805 6:0.00363885 7:0.01563676 8:0.94541752 9:1.0072312 10:0.00799033 11:0.00030396 12:0.00538256 13:0.11140037 14:0.05528773 15:0.09599935 16:0.04993504 17:0.03177628 18:0.02307305 19:0.92941046 20:0.93141395 21:0.93492144 
0.3722697120462121 1:0.00980626 2:0.40168777 3:0.77907199 4:0.98577118 5:0.10980392 6:0.00336922 7:0.01488227 8:0.89679706 9:1.0069534 10:0.0076629 11:0.00023629 12:0.00615458 13:0.10496619 14:0.05641453 15:0.09035115 16:0.04920898 17:0.03227771 18:0.02336686 19:0.94392526 20:0.94587493 21:0.94822526 
0.1578889568513112 1:0.00923623 2:0.40689972 3:0.78216118 4:0.98555571 5:0.09803922 6:0.00332899 7:0.0157881 8:0.94023693 9:1.0071937 10:0.00813012 11:0.00025652 12:0.00492709 13:0.09657452 14:0.04980282 15:0.08976337 16:0.0439018 17:0.02768062 18:0.02030748 19:0.93902951 20:0.94153136 21:0.944749 
0.1542906092777473 1:0.00905002 2:0.40866315 3:0.79803067 4:0.98536021 5:0.09803922 6:0.00355107 7:0.01428828 8:0.93085021 9:1.0072485 10:0.00736786 11:0.00023742 12:0.00500395 13:0.11284214 14:0.05834255 15:0.09554937 16:0.05114061 17:0.03213395 18:0.02255449 19:0.94365823 20:0.9456569 21:0.94809711 
0.06451544111867448 1:0.00821747 2:0.4170593 3:0.81020892 4:0.98529202 5:0.3137255 6:0.00343472 7:0.01328766 8:0.92883527 9:1.0073633 10:0.0067565 11:0.00019149 12:0.00394641 13:0.08414299 14:0.05777647 15:0.0817329 16:0.03851773 17:0.02405004 18:0.01771265 19:0.95694107 20:0.95848769 21:0.96095264 
0.03367925763067064 1:0.00872726 2:0.4118197 3:0.80001986 4:0.98529786 5:0.28627452 6:0.0034889 7:0.01418672 8:0.95076686 9:1.0072616 10:0.00732245 11:0.00021162 12:0.0033848 13:0.10235344 14:0.06895607 15:0.10215978 16:0.0501457 17:0.03007395 18:0.02066734 19:0.94593722 20:0.94733125 21:0.94957876 
0.1062826468412364 1:0.00875088 2:0.41158754 3:0.81464249 4:0.98521781 5:0.0627451 6:0.0038153 7:0.01369507 8:0.94164485 9:1.0073693 10:0.00699632 11:0.00021781 12:0.00452537 13:0.09234484 14:0.04620602 15:0.07998716 16:0.04177505 17:0.02815435 18:0.02158248 19:0.94565296 20:0.94824862 21:0.9516471 
0.07146575650762661 1:0.00996145 2:0.40033051 3:0.79040408 4:0.98589581 5:0.18039216 6:0.00352832 7:0.01329285 8:0.90593702 9:1.0070006 10:0.00696144 11:0.00018789 12:0.00371719 13:0.09010132 14:0.05443433 15:0.08585287 16:0.04330359 17:0.02778092 18:0.02008123 19:0.95103049 20:0.95303923 21:0.95482486 
0.1807140320076401 1:0.00858128 2:0.4132832 3:0.83640748 4:0.98509556 5:0.11764706 6:0.00412067 7:0.01202632 8:0.9564473 9:1.0074482 10:0.00624074 11:0.0001824 12:0.00293186 13:0.09593393 14:0.07161828 15:0.08737957 16:0.04003236 17:0.02360168 18:0.0163606 19:0.95228523 20:0.9542557 21:0.95694327 
0.1155509835815244 1:0.00764286 2:0.42336163 3:0.82499152 4:0.9851355 5:0.0627451 6:0.00353189 7:0.01272103 8:0.92959422 9:1.0074512 10:0.00635461 11:0.0001636 12:0.00403627 13:0.08059549 14:0.05888073 15:0.07500678 16:0.03629915 17:0.02304306 18:0.01690133 19:0.96007442 20:0.96238023 21:0.96487761 
0.0388954508175458 1:0.00891108 2:0.41000733 3:0.8052628 4:0.98551047 5:0.10196079 6:0.00354037 7:0.01292102 8:0.90449923 9:1.0071892 10:0.00660476 11:0.0001835 12:0.00420653 13:0.09095766 14:0.0573295 15:0.08494642 16:0.04487922 17:0.02932158 18:0.02181339 19:0.95454651 20:0.95601374 21:0.95774215 
0.1761176818561802 1:0.00835766 2:0.41558471 3:0.82349515 4:0.98526973 5:0.09019608 6:0.00375046 7:0.01250114 8:0.89957607 9:1.0073893 10:0.00627759 11:0.00017494 12:0.00502991 13:0.0808865 14:0.05659543 15:0.07202709 16:0.03776268 17:0.02532209 18:0.01948177 19:0.9578861 20:0.95998889 21:0.96261901 
0.007923268832145705 1:0.00857977 2:0.4132992 3:0.81052321 4:0.98513383 5:0.21960784 6:0.003682 7:0.01389786 8:0.94855243 9:1.007424 10:0.00709487 11:0.0002294 12:0.00429104 13:0.10538695 14:0.06097768 15:0.09506162 16:0.04746155 17:0.02884728 18:0.02044474 19:0.94515622 20:0.94669974 21:0.949247 
0.1908617917918754 1:0.00847463 2:0.4143782 3:0.81618607 4:0.98539007 5:0.28235295 6:0.00369687 7:0.01279707 8:0.91369975 9:1.0073066 10:0.00648159 11:0.0002053 12:0.00399942 13:0.09097286 14:0.05569926 15:0.08122275 16:0.04119015 17:0.02638433 18:0.01928065 19:0.95593041 20:0.95778239 21:0.96063304 
0.1025894346248725 1:0.00996804 2:0.40027177 3:0.77732515 4:0.98565841 5:0.12156863 6:0.00346407 7:0.015618 8:0.91502452 9:1.0070383 10:0.00801989 11:0.00027816 12:0.0064265 13:0.11221422 14:0.04885092 15:0.09166734 16:0.05052572 17:0.03214793 18:0.02271291 19:0.93489528 20:0.93723553 21:0.94053352 
0.1551909888620991 1:0.0114262 2:0.38841584 3:0.75489444 4:0.98662525 5:0.20392157 6:0.00329254 7:0.01502026 8:0.88802409 9:1.0065011 10:0.00773278 11:0.0002392 12:0.00498231 13:0.10070464 14:0.05210159 15:0.09424386 16:0.04863145 17:0.03097008 18:0.02272956 19:0.94116461 20:0.94254386 21:0.94460201 
0.41887110452594 1:0.01139656 2:0.38864133 3:0.75635129 4:0.98658568 5:0.21176471 6:0.00331611 7:0.01494199 8:0.88818944 9:1.0065351 10:0.00768729 11:0.00023669 12:0.00503218 13:0.09982847 14:0.05238188 15:0.09333041 16:0.04804486 17:0.03084506 18:0.02258036 19:0.94124037 20:0.94269276 21:0.94499147 
0.3462649349936198 1:0.00834576 2:0.41570526 3:0.83458662 4:0.98507673 5:0.27843139 6:0.00402629 7:0.01224943 8:0.93651438 9:1.0075262 10:0.00620089 11:0.00019335 12:0.00438927 13:0.08897128 14:0.05616557 15:0.07550859 16:0.03706991 17:0.0237811 18:0.01785289 19:0.95397305 20:0.95627439 21:0.95974976 
0.1522508489262979 1:0.00863265 2:0.41276592 3:0.81942058 4:0.98507822 5:0.14901961 6:0.00386679 7:0.01334028 8:0.95981699 9:1.007422 10:0.00685874 11:0.00021655 12:0.00348622 13:0.10032912 14:0.06347475 15:0.09397148 16:0.04494567 17:0.02673758 18:0.01875272 19:0.94540656 20:0.94740123 21:0.95038915 
0.3039815228704774 1:0.00733131 2:0.42698207 3:0.83307886 4:0.98557854 5:0.16078432 6:0.00338105 7:0.01120526 8:0.9282158 9:1.0072728 10:0.00571855 11:0.00011342 12:0.00175443 13:0.06398477 14:0.06624664 15:0.07171665 16:0.03102894 17:0.01836696 18:0.0127768 19:0.97132987 20:0.97330874 21:0.97514087 
0.2305869695610996 1:0.00724169 2:0.42805061 3:0.83828157 4:0.98546171 5:0.16862746 6:0.00345795 7:0.01111257 8:0.93363523 9:1.0073368 10:0.00566908 11:0.00011448 12:0.00180222 13:0.06584325 14:0.06677068 15:0.07186604 16:0.03133406 17:0.0187243 18:0.01331294 19:0.97137809 20:0.97324401 21:0.97516042 
0.2553714812418807 1:0.00936545 2:0.40568978 3:0.82068324 4:0.98517638 5:0.33333334 6:0.00412512 7:0.01284037 8:0.94065011 9:1.0074384 10:0.00667617 11:0.00023265 12:0.00419723 13:0.09776229 14:0.05628561 15:0.07933041 16:0.03749731 17:0.0230483 18:0.01639621 19:0.94503319 20:0.94843155 21:0.95218611 
0.3815791400583063 1:0.00897957 2:0.40934622 3:0.80309862 4:0.98546487 5:0.47450981 6:0.0035577 7:0.0133606 8:0.93289632 9:1.007202 10:0.00692504 11:0.00018762 12:0.00336662 13:0.09118917 14:0.05593995 15:0.08568326 16:0.03999471 17:0.02422317 18:0.01720778 19:0.95164478 20:0.9536621 21:0.95635456 
0.1026337049002356 1:0.00903049 2:0.40885529 3:0.797629 4:0.98541826 5:0.21176471 6:0.00355535 7:0.01443489 8:0.92582178 9:1.0072029 10:0.00737407 11:0.00022992 12:0.00531027 13:0.09284683 14:0.04558069 15:0.08346516 16:0.04453507 17:0.03007881 18:0.02310888 19:0.94468087 20:0.94655746 21:0.94918841 
0.009996466741976818 1:0.00840304 2:0.41511819 3:0.81462508 4:0.98523408 5:0.21176471 6:0.00366896 7:0.01356054 8:0.94498318 9:1.0073782 10:0.00688822 11:0.00020724 12:0.00399376 13:0.08723717 14:0.04687797 15:0.07937664 16:0.03901935 17:0.02516308 18:0.01874648 19:0.94980508 20:0.9522143 21:0.95549512 
0.1011091751471187 1:0.0085839 2:0.41326255 3:0.81663376 4:0.98518711 5:0.20392157 6:0.00380325 7:0.01345786 8:0.94489104 9:1.0074277 10:0.00683877 11:0.00021633 12:0.00418027 13:0.08813018 14:0.04661985 15:0.07983778 16:0.03937688 17:0.02562307 18:0.01923604 19:0.94808781 20:0.95077395 21:0.95432627 
0.02371079844516238 1:0.00772017 2:0.4224875 3:0.84749556 4:0.98514253 5:0.10588235 6:0.00389973 7:0.01091186 8:0.94479007 9:1.0074385 10:0.00559114 11:0.00011949 12:0.00216463 13:0.07351024 14:0.06830098 15:0.07128661 16:0.03364295 17:0.02052 18:0.0147667 19:0.96678346 20:0.96907985 21:0.97148734 
0.01223748444272836 1:0.00958211 2:0.40369895 3:0.78610694 4:0.98568338 5:0.26274511 6:0.00340057 7:0.01426005 8:0.92553532 9:1.0070807 10:0.00745394 11:0.00021037 12:0.00369211 13:0.09862606 14:0.06226429 15:0.09672181 16:0.04903113 17:0.03057627 18:0.02178967 19:0.94590855 20:0.94733816 21:0.9493826 
0.07590206125058792 1:0.01047141 2:0.3959958 3:0.77073425 4:0.98569816 5:0.16862746 6:0.00349591 7:0.01609239 8:0.93528408 9:1.0069996 10:0.00838205 11:0.00030156 12:0.00522986 13:0.109033 14:0.05393185 15:0.10035894 16:0.0516507 17:0.03294491 18:0.02390924 19:0.92727637 20:0.92923617 21:0.93242085 
0.146330461173829 1:0.01058627 2:0.39504874 3:0.77022326 4:0.98571575 5:0.18039216 6:0.00351232 7:0.01604152 8:0.93449473 9:1.0069827 10:0.00837249 11:0.00029953 12:0.00518577 13:0.1109711 14:0.05404137 15:0.09969282 16:0.05132984 17:0.03263591 18:0.02341769 19:0.92704082 20:0.92919552 21:0.93264943 
0.2247517845132493 1:0.01111674 2:0.39080465 3:0.76758248 4:0.98591179 5:0.16862746 6:0.00354727 7:0.01580152 8:0.92576838 9:1.006912 10:0.00830059 11:0.00030404 12:0.00527635 13:0.10893252 14:0.05184929 15:0.09775551 16:0.04937397 17:0.03110731 18:0.02232731 19:0.92677611 20:0.92948157 21:0.93312573 
0.07045090108108075 1:0.0073919 2:0.42626336 3:0.84509057 4:0.98499715 5:0.22352941 6:0.00378407 7:0.01154852 8:0.95298398 9:1.0075417 10:0.00582234 11:0.00014689 12:0.00314575 13:0.08075938 14:0.05908768 15:0.07601426 16:0.03766881 17:0.02376826 18:0.0173395 19:0.96347958 20:0.96493298 21:0.96707737 
0.03072632171591838 1:0.00735652 2:0.42668298 3:0.85024339 4:0.9850468 5:0.05098039 6:0.00381467 7:0.01131623 8:0.95189619 9:1.0075154 10:0.00568987 11:0.00013594 12:0.00293048 13:0.0740952 14:0.06290974 15:0.06884918 16:0.0312091 17:0.01919377 18:0.01389259 19:0.96514392 20:0.96722138 21:0.96988803 
0.2457588653210499 1:0.00913667 2:0.40783519 3:0.79838121 4:0.98525757 5:0.32549021 6:0.00367933 7:0.01459499 8:0.92883533 9:1.0072998 10:0.00737494 11:0.00025883 12:0.00580977 13:0.09770117 14:0.04849247 15:0.08431485 16:0.04372222 17:0.0289378 18:0.02192655 19:0.9411602 20:0.94358021 21:0.94658655 
0.0773809004273905 1:0.00771329 2:0.42257136 3:0.80778509 4:0.98520273 5:0.07058824 6:0.00328201 7:0.01398417 8:0.9540717 9:1.0073906 10:0.00707315 11:0.00017667 12:0.00333099 13:0.09024854 14:0.05540763 15:0.09022287 16:0.04582655 17:0.02993221 18:0.02245675 19:0.95421857 20:0.95538044 21:0.9572773 
0.2652663859906204 1:0.00882887 2:0.41082168 3:0.80621839 4:0.98523319 5:0.4509804 6:0.00367897 7:0.01392949 8:0.94211233 9:1.0073937 10:0.00712247 11:0.00022726 12:0.00453535 13:0.09692711 14:0.04969684 15:0.08462846 16:0.04280755 17:0.02769229 18:0.02016812 19:0.94523668 20:0.94752806 21:0.95081687 
0.5422696043832268 1:0.01051382 2:0.39564252 3:0.81077212 4:0.98532444 5:0.35294119 6:0.00436402 7:0.01341974 8:0.91143304 9:1.0073702 10:0.00693153 11:0.00028969 12:0.00738797 13:0.09231122 14:0.04350553 15:0.06886036 16:0.03694561 17:0.02583369 18:0.02031512 19:0.93695927 20:0.94179767 21:0.94642681 
0.2423125848769204 1:0.00909119 2:0.40827361 3:0.79882085 4:0.98526704 5:0.37254903 6:0.00367749 7:0.01433923 8:0.93255693 9:1.007308 10:0.00723981 11:0.00024667 12:0.00584706 13:0.09391604 14:0.04801709 15:0.07834342 16:0.04205094 17:0.02917375 18:0.0228265 19:0.94320393 20:0.94474494 21:0.94801718 
0.00784132203579946 1:0.00896339 2:0.40950111 3:0.80810851 4:0.98519081 5:0.29411766 6:0.00379295 7:0.01400866 8:0.94246548 9:1.0073625 10:0.00713388 11:0.00024299 12:0.00473732 13:0.10157581 14:0.05393097 15:0.08561867 16:0.04309737 17:0.02784956 18:0.02041794 19:0.94266486 20:0.94506633 21:0.94842196 
0.007997359173489817 1:0.00897245 2:0.40941012 3:0.78982043 4:0.98545235 5:0.10980392 6:0.00336772 7:0.01481608 8:0.92487043 9:1.007193 10:0.00760821 11:0.0002206 12:0.00473956 13:0.10239674 14:0.05248597 15:0.0951744 16:0.05179395 17:0.03327863 18:0.02398739 19:0.94500142 20:0.94698799 21:0.94918483 
0.1356010562166753 1:0.00832694 2:0.41590095 3:0.80249083 4:0.98521769 5:0.07058824 6:0.00343743 7:0.01447369 8:0.93796206 9:1.0072985 10:0.00734932 11:0.00022143 12:0.004904 13:0.10527146 14:0.05472185 15:0.09503426 16:0.05083613 17:0.03250577 18:0.02322747 19:0.94687504 20:0.94824946 21:0.9504751 
0.0585860164361279 1:0.00854753 2:0.41362479 3:0.81365049 4:0.98520941 5:0.45490196 6:0.00366327 7:0.0134052 8:0.94676536 9:1.0073655 10:0.00691408 11:0.00020964 12:0.00384503 13:0.09603916 14:0.05981721 15:0.0910017 16:0.04494298 17:0.0280711 18:0.0201728 19:0.94990265 20:0.95172131 21:0.95415592 
0.08742073996408176 1:0.00758999 2:0.42396346 3:0.82639527 4:0.98510599 5:0.03529412 6:0.00352324 7:0.01262776 8:0.93374825 9:1.0074726 10:0.00629365 11:0.00017207 12:0.0039452 13:0.08166285 14:0.05746871 15:0.07998144 16:0.04089738 17:0.02670296 18:0.0199327 19:0.95948726 20:0.96109957 21:0.96342063 
0.167801714890581 1:0.00683052 2:0.43313614 3:0.85001564 4:0.98510402 5:0.09803922 6:0.0035126 7:0.01073196 8:0.95813942 9:1.0074723 10:0.00548653 11:9.509e-05 12:0.00154015 13:0.06495252 14:0.07927919 15:0.08234386 16:0.03639316 17:0.02119857 18:0.01469097 19:0.97252375 20:0.97377568 21:0.97501647 
0.2646528117695935 1:0.00869491 2:0.41214165 3:0.82210296 4:0.98513252 5:0.28235295 6:0.00393834 7:0.0130628 8:0.95724583 9:1.0073986 10:0.00670164 11:0.0002176 12:0.00354269 13:0.09986714 14:0.06191791 15:0.0914671 16:0.04528928 17:0.02783532 18:0.01944746 19:0.94622678 20:0.94815433 21:0.95092851 
0.05117840238654525 1:0.00735348 2:0.42671084 3:0.83514899 4:0.98504257 5:0.09019608 6:0.00358756 7:0.01219072 8:0.95921165 9:1.007401 10:0.00619069 11:0.0001459 12:0.00267066 13:0.08964022 14:0.06461381 15:0.09218831 16:0.04815261 17:0.03124003 18:0.02293256 19:0.9609012 20:0.9614616 21:0.96281999 
0.04208320327884773 1:0.00888301 2:0.410281 3:0.804447 4:0.98520124 5:0.16862746 6:0.00368839 7:0.01429435 8:0.93564099 9:1.0073648 10:0.00727915 11:0.00024577 12:0.00558701 13:0.09675866 14:0.04802502 15:0.08803879 16:0.04691974 17:0.03127446 18:0.02350596 19:0.94283825 20:0.94459486 21:0.94776136 
0.197850267658951 1:0.00791825 2:0.42027569 3:0.82080811 4:0.98521429 5:0.09803922 6:0.00352369 7:0.01299582 8:0.95512229 9:1.0073584 10:0.00669089 11:0.00016168 12:0.00265217 13:0.08151635 14:0.05461444 15:0.08207542 16:0.03589585 17:0.02125817 18:0.01499629 19:0.9568283 20:0.95917201 21:0.96186304 
0.2257259395781007 1:0.01048834 2:0.39585564 3:0.79569763 4:0.98542398 5:0.1882353 6:0.00400266 7:0.01464405 8:0.93372083 9:1.0072672 10:0.00768482 11:0.00030079 12:0.00563138 13:0.10333953 14:0.04774081 15:0.0857001 16:0.04080688 17:0.02569846 18:0.01872252 19:0.92965978 20:0.93408537 21:0.93920094 
0.1763669459725065 1:0.01039325 2:0.3966462 3:0.76409554 4:0.98615527 5:0.1882353 6:0.00325758 7:0.01525793 8:0.90430909 9:1.0067234 10:0.007819 11:0.00024236 12:0.0049652 13:0.10178396 14:0.05169731 15:0.09553247 16:0.05121578 17:0.03330028 18:0.02407426 19:0.94158179 20:0.94281858 21:0.94492215 
0.0007713360207831167 1:0.0074683 2:0.42537606 3:0.83596337 4:0.98520428 5:0.08627451 6:0.00361912 7:0.0121913 8:0.94759268 9:1.007399 10:0.00617941 11:0.00014435 12:0.00288502 13:0.07739867 14:0.04953709 15:0.07208586 16:0.03502518 17:0.02247734 18:0.01667877 19:0.96200204 20:0.96419924 21:0.96681964 
0.08888744474215603 1:0.00757204 2:0.42416996 3:0.83630294 4:0.9850719 5:0.03137255 6:0.00370853 7:0.01210035 8:0.92906111 9:1.0075147 10:0.00606651 11:0.00014719 12:0.00387393 13:0.08060429 14:0.05557875 15:0.07156136 16:0.03850874 17:0.02635137 18:0.02005992 19:0.96113932 20:0.9626283 21:0.96504617 
0.1206332256790933 1:0.00806446 2:0.41870046 3:0.83385539 4:0.98518139 5:0.05882353 6:0.00382403 7:0.01246232 8:0.95155871 9:1.0074345 10:0.00639009 11:0.00017624 12:0.00340983 13:0.08777115 14:0.05302047 15:0.07244768 16:0.03284275 17:0.019702 18:0.01389708 19:0.95600438 20:0.9592815 21:0.96295726 
0.0809472094989106 1:0.00835937 2:0.41556948 3:0.80392337 4:0.98527312 5:0.30588236 6:0.00344962 7:0.01424264 8:0.94337904 9:1.0073545 10:0.00723749 11:0.00021276 12:0.00432187 13:0.09053761 14:0.04959645 15:0.08213607 16:0.03997622 17:0.02521048 18:0.01840117 19:0.95032823 20:0.9527446 21:0.95607865 
0.2996947977236278 1:0.00831549 2:0.41601926 3:0.84782672 4:0.98500592 5:0.12156863 6:0.00428908 7:0.01152505 8:0.93309098 9:1.0075813 10:0.00578702 11:0.00018755 12:0.00431307 13:0.08665816 14:0.05482545 15:0.06931298 16:0.03535295 17:0.02295654 18:0.01729332 19:0.95594716 20:0.95856237 21:0.96170771 
0.04306510650993038 1:0.00861031 2:0.41299355 3:0.80091131 4:0.9853251 5:0.19607843 6:0.00345321 7:0.01451473 8:0.95073789 9:1.0073103 10:0.00746705 11:0.0002215 12:0.00388112 13:0.09759399 14:0.05656105 15:0.09070978 16:0.04282651 17:0.02563421 18:0.01802187 19:0.9451645 20:0.94710183 21:0.95010185 
0.1321884602639166 1:0.00847855 2:0.41433915 3:0.81115174 4:0.98520494 5:0.09411765 6:0.00362875 7:0.01388877 8:0.96110308 9:1.0073847 10:0.00711911 11:0.00021538 12:0.0034749 13:0.10543739 14:0.070535 15:0.09816696 16:0.04855079 17:0.02913419 18:0.01951759 19:0.94590652 20:0.9479965 21:0.9508819 
0.1702815219455202 1:0.0084116 2:0.41502243 3:0.79707575 4:0.98541719 5:0.09803922 6:0.00328615 7:0.01415319 8:0.93060523 9:1.0072193 10:0.00721504 11:0.00018387 12:0.00362947 13:0.08757552 14:0.05436626 15:0.08948205 16:0.04494506 17:0.02872239 18:0.02098176 19:0.95220476 20:0.95409876 21:0.95644343 
0.2268211046780193 1:0.01023206 2:0.39800128 3:0.7686426 4:0.98576862 5:0.36470589 6:0.00335737 7:0.01588473 8:0.9267506 9:1.0069461 10:0.00820817 11:0.00028578 12:0.00537967 13:0.10447911 14:0.05225099 15:0.09439624 16:0.0480028 17:0.03025643 18:0.02160581 19:0.9337526 20:0.93555534 21:0.93840629 
0.2050087875384333 1:0.01010385 2:0.3990992 3:0.77134645 4:0.98571056 5:0.36862746 6:0.00337103 7:0.0158825 8:0.93117338 9:1.007035 10:0.00821535 11:0.00028916 12:0.00523605 13:0.10425891 14:0.05180892 15:0.09253697 16:0.04597133 17:0.02860925 18:0.0205785 19:0.9341706 20:0.9364481 21:0.93975353 
0.08535541229042995 1:0.00893566 2:0.40977439 3:0.79841608 4:0.98549664 5:0.22352941 6:0.0034571 7:0.01382265 8:0.94287729 9:1.0072013 10:0.00716975 11:0.00019942 12:0.00316829 13:0.09713449 14:0.06721538 15:0.09872453 16:0.04766231 17:0.02833509 18:0.01944386 19:0.94891143 20:0.95001453 21:0.95209038 
0.1876696228224324 1:0.0093045 2:0.40626144 3:0.79212022 4:0.98579389 5:0.23921569 6:0.00343667 7:0.01391813 8:0.9255814 9:1.0070967 10:0.00721864 11:0.00020296 12:0.00328025 13:0.09571467 14:0.06668236 15:0.09673554 16:0.04574811 17:0.02693784 18:0.01845536 19:0.94890434 20:0.95032197 21:0.95243311 
0.04636246200023762 1:0.00844263 2:0.41470709 3:0.81675386 4:0.9852978 5:0.2 6:0.00361668 7:0.01269438 8:0.94717622 9:1.0073544 10:0.00659233 11:0.00016834 12:0.00272178 13:0.09116536 14:0.07038454 15:0.09220808 16:0.04233513 17:0.02496315 18:0.01719822 19:0.95537847 20:0.95659763 21:0.95846838 
0.1396504725511483 1:0.00959803 2:0.40355629 3:0.80192721 4:0.98537213 5:0.25098041 6:0.00381417 7:0.01403368 8:0.92721844 9:1.007287 10:0.00725473 11:0.00025341 12:0.00532036 13:0.09912122 14:0.05355894 15:0.08218332 16:0.04010735 17:0.02569456 18:0.01903291 19:0.94114619 20:0.94379836 21:0.94752121 
0.3393120924117022 1:0.00951269 2:0.40433192 3:0.82225043 4:0.98521501 5:0.33725491 6:0.00421023 7:0.01284598 8:0.9324891 9:1.0074438 10:0.00664606 11:0.00022801 12:0.00467534 13:0.09306335 14:0.04823444 15:0.07438762 16:0.03676489 17:0.02371781 18:0.01753851 19:0.94450212 20:0.94848484 21:0.95258075 
0.2414774720808069 1:0.01011868 2:0.3989656 3:0.77506071 4:0.98549199 5:0.17647059 6:0.00361659 7:0.01621375 8:0.91685659 9:1.0071509 10:0.00813131 11:0.00032644 12:0.00763086 13:0.09800728 14:0.04574403 15:0.08700289 16:0.04355508 17:0.02792962 18:0.02079031 19:0.93189615 20:0.93549347 21:0.93994045 
0.400683932731855 1:0.00800481 2:0.41933364 3:0.85104513 4:0.98495227 5:0.15686275 6:0.00418184 7:0.01145498 8:0.96458304 9:1.0075812 10:0.00588611 11:0.00016377 12:0.00264605 13:0.0845333 14:0.06620342 15:0.07746506 16:0.03449484 17:0.02083405 18:0.01484224 19:0.95780057 20:0.96010208 21:0.96304512 
0.208637336707902 1:0.00741377 2:0.42601302 3:0.83668917 4:0.98506314 5:0.16862746 6:0.0036107 7:0.0121687 8:0.96514106 9:1.0075188 10:0.0062239 11:0.00014603 12:0.00236053 13:0.08281696 14:0.07267771 15:0.08501296 16:0.03781572 17:0.02189629 18:0.01481615 19:0.96096867 20:0.96242142 21:0.964715 
0.1002893591973706 1:0.00756522 2:0.42425075 3:0.80904406 4:0.98528618 5:0.05490196 6:0.00319361 7:0.01397062 8:0.95465738 9:1.007353 10:0.00708469 11:0.00017932 12:0.00322971 13:0.0898314 14:0.06191767 15:0.08991124 16:0.04226793 17:0.02518628 18:0.01740112 19:0.95623451 20:0.95771557 21:0.96020329 
0.07031682378766338 1:0.00752699 2:0.42468306 3:0.84300172 4:0.98496318 5:0.12156863 6:0.00382375 7:0.01169108 8:0.93806958 9:1.0075066 10:0.00586779 11:0.00015785 12:0.00369368 13:0.08709763 14:0.06076956 15:0.07792267 16:0.04011979 17:0.02615073 18:0.01945822 19:0.96155334 20:0.96282619 21:0.96472466 
0.008637789723121559 1:0.00982713 2:0.40150604 3:0.78174829 4:0.98546952 5:0.10980392 6:0.0035746 7:0.01555662 8:0.92064565 9:1.0071642 10:0.0078606 11:0.00029474 12:0.00627822 13:0.09739107 14:0.04641634 15:0.08547119 16:0.04299171 17:0.0278196 18:0.02105528 19:0.9349398 20:0.93819338 21:0.94214612 
0.2131620555752914 1:0.00977342 2:0.40198296 3:0.78276587 4:0.98550576 5:0.16078432 6:0.00355806 7:0.01549175 8:0.92085147 9:1.007158 10:0.00784332 11:0.0002839 12:0.00610513 13:0.09598585 14:0.0475645 15:0.0833956 16:0.04151406 17:0.02682288 18:0.0201373 19:0.93572158 20:0.93938822 21:0.94329107 
0.05663584152769179 1:0.00985859 2:0.4012289 3:0.7834211 4:0.98546809 5:0.11372549 6:0.00361039 7:0.01546405 8:0.91727209 9:1.0071939 10:0.00782787 11:0.00028775 12:0.00628534 13:0.09620861 14:0.0463935 15:0.08327972 16:0.04191378 17:0.02729862 18:0.02075447 19:0.93531018 20:0.93871886 21:0.94281292 
0.1527561517912935 1:0.00839406 2:0.41520229 3:0.83653474 4:0.98501313 5:0.11764706 6:0.00410175 7:0.01231295 8:0.96079111 9:1.0074782 10:0.00633219 11:0.00019174 12:0.00308379 13:0.09306969 14:0.06298743 15:0.08614126 16:0.03990892 17:0.02367734 18:0.01678301 19:0.95101559 20:0.95339054 21:0.95646507 
0.2005927647783076 1:0.00793394 2:0.42011833 3:0.80651057 4:0.98522228 5:0.40784314 6:0.00331172 7:0.01382573 8:0.95686823 9:1.0074079 10:0.00705189 11:0.00018844 12:0.00318203 13:0.09358066 14:0.06376959 15:0.09182159 16:0.04359512 17:0.02630629 18:0.01827165 19:0.95388389 20:0.9552961 21:0.95747322 
0.02225450218902465 1:0.0075354 2:0.42459989 3:0.82619917 4:0.98506898 5:0.30588236 6:0.00349027 7:0.01265577 8:0.95148498 9:1.0074813 10:0.0064043 11:0.00015935 12:0.00314893 13:0.08343372 14:0.05952789 15:0.08067058 16:0.03868785 17:0.02370716 18:0.01704672 19:0.96014535 20:0.9617601 21:0.96418798 
0.1391069128684667 1:0.01063299 2:0.39466175 3:0.76279128 4:0.98599553 5:0.15294118 6:0.00335122 7:0.01600446 8:0.92196864 9:1.0067806 10:0.00827118 11:0.00027267 12:0.00490391 13:0.10629529 14:0.05160206 15:0.09960712 16:0.05078446 17:0.03173078 18:0.02291479 19:0.93205762 20:0.93388867 21:0.93677247 
0.3904958476122334 1:0.00884311 2:0.41067436 3:0.82936096 4:0.98507059 5:0.25882354 6:0.00414216 7:0.01271125 8:0.94928813 9:1.0074271 10:0.00653632 11:0.00021789 12:0.00408726 13:0.09493212 14:0.05473567 15:0.07839088 16:0.03691715 17:0.0232784 18:0.01726119 19:0.94695711 20:0.94979477 21:0.95350802 
0.1203617356071867 1:0.01044846 2:0.39618614 3:0.77854782 4:0.98572236 5:0.20784314 6:0.00361077 7:0.01531496 8:0.92032206 9:1.0069721 10:0.00795533 11:0.00027298 12:0.00551051 13:0.0967145 14:0.04630016 15:0.08326332 16:0.0417011 17:0.02669655 18:0.01971743 19:0.93474442 20:0.93851703 21:0.94246501 
0.07569673282164488 1:0.00785766 2:0.4209471 3:0.83027589 4:0.98508334 5:0.22745098 6:0.00373354 7:0.01249696 8:0.95360184 9:1.0074779 10:0.00635526 11:0.00016852 12:0.00315589 13:0.08649658 14:0.05408051 15:0.08003335 16:0.03925413 17:0.02531272 18:0.01904325 19:0.95663273 20:0.95846927 21:0.96107054 
0.1750550457849037 1:0.00902333 2:0.40892011 3:0.80466235 4:0.98524988 5:0.35686275 6:0.00374315 7:0.01423143 8:0.94718903 9:1.0073644 10:0.00726882 11:0.00024292 12:0.00443524 13:0.09977128 14:0.05371345 15:0.08923311 16:0.0442589 17:0.02784308 18:0.02008194 19:0.9417417 20:0.94426304 21:0.94792855 
0.003721572713776169 1:0.00967137 2:0.40289649 3:0.79355121 4:0.98567724 5:0.3137255 6:0.00355278 7:0.01352664 8:0.91572696 9:1.0070529 10:0.00704236 11:0.00020364 12:0.00405521 13:0.0955081 14:0.06110085 15:0.09336664 16:0.04741572 17:0.02964095 18:0.02122682 19:0.9487682 20:0.9502871 21:0.95238125 
0.087751699617597 1:0.00774822 2:0.42217335 3:0.8082397 4:0.98519111 5:0.20784314 6:0.00329853 7:0.01388312 8:0.95824128 9:1.0073774 10:0.0070323 11:0.00018079 12:0.00317919 13:0.09333616 14:0.0606829 15:0.09635557 16:0.04874697 17:0.03064644 18:0.02190366 19:0.95387757 20:0.95490438 21:0.9567278 
0.1001261381260652 1:0.00998672 2:0.4001075 3:0.79366297 4:0.985412 5:0.21176471 6:0.00379355 7:0.01464512 8:0.9389258 9:1.0072255 10:0.00764575 11:0.00027722 12:0.00490334 13:0.11094303 14:0.05861687 15:0.0960331 16:0.04875736 17:0.03029321 18:0.02101929 19:0.93366122 20:0.93563104 21:0.93907291 
0.1989708021457663 1:0.01046279 2:0.39606458 3:0.78768915 4:0.98553586 5:0.21960784 6:0.00380442 7:0.01465329 8:0.93044299 9:1.0071666 10:0.0076491 11:0.00028465 12:0.00513172 13:0.11129045 14:0.05669814 15:0.09532395 16:0.0483525 17:0.02989864 18:0.02087387 19:0.93241912 20:0.93453485 21:0.93776083 
0.06611420660379839 1:0.01037679 2:0.39678532 3:0.77809542 4:0.98598802 5:0.2 6:0.00349686 7:0.01419849 8:0.90297818 9:1.0069283 10:0.00730424 11:0.00023266 12:0.00488282 13:0.10604843 14:0.05794618 15:0.09263066 16:0.04830812 17:0.03030295 18:0.02113525 19:0.94410682 20:0.94551146 21:0.94784713 
0.3407392544604226 1:0.01056525 2:0.39522094 3:0.80085891 4:0.98539519 5:0.11372549 6:0.00412718 7:0.01420144 8:0.92173249 9:1.0072868 10:0.00742985 11:0.00029799 12:0.00594598 13:0.10099994 14:0.04784479 15:0.08008367 16:0.03950375 17:0.0255498 18:0.01888542 19:0.93187743 20:0.93630832 21:0.94162446 
0.1045166523222057 1:0.01030422 2:0.39739326 3:0.78294146 4:0.98599327 5:0.15686275 6:0.00352663 7:0.01387149 8:0.90669513 9:1.0069222 10:0.00722194 11:0.00020704 12:0.00407403 13:0.09271937 14:0.05217501 15:0.08438648 16:0.04088176 17:0.02571923 18:0.01895114 19:0.94733894 20:0.94925588 21:0.95224112 
0.04443207030363171 1:0.01031926 2:0.39727101 3:0.7885018 4:0.98557967 5:0.13725491 6:0.00374743 7:0.01451538 8:0.92848098 9:1.0071257 10:0.00758022 11:0.00026358 12:0.00456183 13:0.11234324 14:0.06109499 15:0.09855962 16:0.05080907 17:0.03153198 18:0.02231277 19:0.93493593 20:0.93758786 21:0.94055116 
0.03344435441191872 1:0.0100405 2:0.3996464 3:0.78101766 4:0.98569256 5:0.12941177 6:0.00351388 7:0.01503127 8:0.93330586 9:1.0071031 10:0.00780431 11:0.00025403 12:0.00448386 13:0.11214491 14:0.06211356 15:0.10123227 16:0.05274378 17:0.03305139 18:0.02367724 19:0.93635482 20:0.93841028 21:0.94110268 
0.05409190735729302 1:0.00828906 2:0.41629714 3:0.81098336 4:0.98516738 5:0.22745098 6:0.00356939 7:0.01379127 8:0.96012115 9:1.0073392 10:0.00703695 11:0.00020299 12:0.00325039 13:0.09756587 14:0.06611042 15:0.10009376 16:0.04867264 17:0.02912399 18:0.02018647 19:0.94821846 20:0.94943064 21:0.95150107 
0.141833515860254 1:0.00866436 2:0.41245314 3:0.80330199 4:0.98538959 5:0.21568628 6:0.00353113 7:0.01437092 8:0.93607849 9:1.0073209 10:0.00730601 11:0.00022009 12:0.00473099 13:0.08935289 14:0.04452648 15:0.07642299 16:0.03767059 17:0.02438351 18:0.01856345 19:0.94692403 20:0.9500289 21:0.95408416 
0.2085573044116314 1:0.00886438 2:0.41046977 3:0.80258453 4:0.98533881 5:0.2 6:0.00361695 7:0.01443465 8:0.93840033 9:1.0073053 10:0.00733722 11:0.00023176 12:0.00504527 13:0.08937473 14:0.04421337 15:0.07613472 16:0.03742189 17:0.02472165 18:0.01868845 19:0.94481826 20:0.94812012 21:0.95218247 
0.3256557162435456 1:0.01117043 2:0.39038005 3:0.7689361 4:0.98616529 5:0.30980393 6:0.00354881 7:0.0146345 8:0.90364975 9:1.0068139 10:0.0075783 11:0.000259 12:0.0049944 13:0.1085437 14:0.05745673 15:0.09618515 16:0.05151584 17:0.03354597 18:0.02440918 19:0.93709308 20:0.93826669 21:0.9405154 
0.1902726101275683 1:0.00956595 2:0.40385205 3:0.78131175 4:0.98568678 5:0.36078432 6:0.00337066 7:0.01492216 8:0.93022913 9:1.0070673 10:0.00769256 11:0.00024464 12:0.00446709 13:0.10568334 14:0.06063562 15:0.09843338 16:0.05150861 17:0.03283289 18:0.0234181 19:0.9415915 20:0.94266856 21:0.94483781 
0.1062311872930409 1:0.00868072 2:0.41228476 3:0.80492026 4:0.98516184 5:0.34509805 6:0.00363086 7:0.01410588 8:0.94869643 9:1.0073851 10:0.00718826 11:0.00023053 12:0.00417136 13:0.10463458 14:0.05925053 15:0.09625209 16:0.05046034 17:0.03240617 18:0.02376319 19:0.94421101 20:0.94541645 21:0.94771159 
0.0001339382094561441 1:0.0077141 2:0.42254996 3:0.8545993 4:0.98499858 5:0.03921569 6:0.00411804 7:0.01114607 8:0.94393492 9:1.0075195 10:0.00561991 11:0.00014466 12:0.00322111 13:0.07668647 14:0.05427848 15:0.06610865 16:0.03247024 17:0.02147144 18:0.01651631 19:0.96250474 20:0.964706 21:0.96721959 
0.2996996303957412 1:0.01017455 2:0.3984924 3:0.77539766 4:0.98566329 5:0.23921569 6:0.00346905 7:0.01573351 8:0.91989869 9:1.0070869 10:0.00817552 11:0.00028133 12:0.0061903 13:0.10691076 14:0.04813581 15:0.09164075 16:0.04875961 17:0.03202793 18:0.02368709 19:0.93340546 20:0.9358393 21:0.93877012 
0.1578657302836596 1:0.01039496 2:0.39662862 3:0.77301276 4:0.98569971 5:0.18431373 6:0.00352161 7:0.0159796 8:0.90766734 9:1.007063 10:0.00816323 11:0.00033594 12:0.00828497 13:0.10360607 14:0.0459179 15:0.08742797 16:0.04639377 17:0.03008891 18:0.02226964 19:0.931454 20:0.93435347 21:0.93832177 
0.009479754935918011 1:0.00900172 2:0.40913704 3:0.80635542 4:0.98520744 5:0.10980392 6:0.00373325 7:0.01435751 8:0.95341963 9:1.007391 10:0.007416 11:0.00024738 12:0.00419995 13:0.10530216 14:0.05919825 15:0.09122616 16:0.04302332 17:0.0252684 18:0.01693757 19:0.93995339 20:0.94287771 21:0.94679302 
0.2159042815860298 1:0.00705285 2:0.4303503 3:0.83726919 4:0.98507488 5:0.03921569 6:0.00347089 7:0.01194493 8:0.92519981 9:1.007495 10:0.0059529 11:0.00012891 12:0.00345062 13:0.07158794 14:0.0620205 15:0.07156166 16:0.03589274 17:0.02449138 18:0.0195034 19:0.96674806 20:0.96774793 21:0.96929115 
0.2219220608863595 1:0.00772414 2:0.42243212 3:0.84052628 4:0.98507619 5:0.04313726 6:0.0038499 7:0.01182105 8:0.91621548 9:1.0074288 10:0.00590018 11:0.00015313 12:0.00421936 13:0.07309902 14:0.0567428 15:0.06627102 16:0.03379438 17:0.02335211 18:0.01883932 19:0.96250379 20:0.96404368 21:0.96643782 
0.09407938653677715 1:0.00804421 2:0.4189128 3:0.7882815 4:0.98534846 5:0.10196079 6:0.00308193 7:0.01530144 8:0.94974691 9:1.0073139 10:0.00774025 11:0.00019541 12:0.00354641 13:0.09737115 14:0.05955411 15:0.10345052 16:0.05416064 17:0.03401674 18:0.02408329 19:0.94821602 20:0.9491663 21:0.95089012 
0.2268583867153344 1:0.00749014 2:0.42511803 3:0.81636339 4:0.98514205 5:0.3137255 6:0.00331366 7:0.01324253 8:0.96069264 9:1.00744 10:0.00672608 11:0.00016324 12:0.00268876 13:0.08454157 14:0.06251337 15:0.0926533 16:0.04302564 17:0.02586556 18:0.01827595 19:0.95845562 20:0.95939392 21:0.96107107 
0.1308744956192537 1:0.00921765 2:0.40707114 3:0.77769327 4:0.98556596 5:0.14901961 6:0.00324667 7:0.01570735 8:0.92896134 9:1.0071071 10:0.0080528 11:0.00025323 12:0.00514759 13:0.10618283 14:0.05443266 15:0.09849025 16:0.05310127 17:0.0339473 18:0.02440244 19:0.94027227 20:0.94131094 21:0.9438206 
0.0925009200396584 1:0.00789141 2:0.42057022 3:0.82250756 4:0.98504984 5:0.12156863 6:0.00361084 7:0.01306649 8:0.94908977 9:1.0074283 10:0.006624 11:0.00018851 12:0.00395315 13:0.10064053 14:0.06483579 15:0.09399353 16:0.04925575 17:0.031463 18:0.02249193 19:0.95368284 20:0.95477283 21:0.95636028 
0.0230059806359375 1:0.00799778 2:0.41941079 3:0.81874788 4:0.98510522 5:0.05098039 6:0.00357499 7:0.01339616 8:0.95891136 9:1.0074523 10:0.00683381 11:0.0001858 12:0.00330366 13:0.09080599 14:0.05915504 15:0.08903882 16:0.04235053 17:0.02622413 18:0.01875176 19:0.95265925 20:0.95441872 21:0.95691884 
0.09582378538798832 1:0.01028841 2:0.39752543 3:0.77033091 4:0.98593158 5:0.19607843 6:0.00333784 7:0.01555159 8:0.91187644 9:1.0069035 10:0.00806687 11:0.00028338 12:0.00583658 13:0.10732739 14:0.05317466 15:0.09467808 16:0.04905968 17:0.03035985 18:0.02159743 19:0.93785745 20:0.93984765 21:0.94274646 
0.2064009118163504 1:0.00806008 2:0.4187381 3:0.84226847 4:0.98504102 5:0.05098039 6:0.00403192 7:0.01195537 8:0.95574814 9:1.0074592 10:0.00612054 11:0.00016504 12:0.00307327 13:0.08387408 14:0.05550185 15:0.07085155 16:0.03208819 17:0.02011546 18:0.01516094 19:0.95657766 20:0.95942962 21:0.96273506 
0.08412849338331577 1:0.01022309 2:0.3980771 3:0.77962685 4:0.98562264 5:0.11372549 6:0.00359734 7:0.01563274 8:0.91971445 9:1.0070771 10:0.00808822 11:0.00029888 12:0.00653147 13:0.10275611 14:0.04361652 15:0.08981269 16:0.04752353 17:0.03124975 18:0.02330874 19:0.93155241 20:0.93419391 21:0.93777388 
0.05433135673245904 1:0.01049065 2:0.39583266 3:0.76492554 4:0.98591202 5:0.13725491 6:0.00336513 7:0.01623211 8:0.91081136 9:1.0068527 10:0.00836088 11:0.00029881 12:0.00681691 13:0.1029701 14:0.04273883 15:0.09256836 16:0.05011069 17:0.03272026 18:0.02438726 19:0.93196392 20:0.93408245 21:0.93715435 
