svm_type c_svc
kernel_type rbf
gamma 0.125
nr_class 2
total_sv 419
rho 2.41477
label 1 2
probA -2.94809
probB 0.165328
nr_sv 234 185
SV
1.957160836922161 1:0 2:0 3:0 4:0 5:0 6:0 7:0 8:0 9:0 10:0 11:0 12:0.027451 13:0.321569 14:0.313726 15:0.294118 16:0.298039 17:0.298039 18:0.290196 19:0.254902 20:0.223529 21:0 22:0 23:0 24:0 25:0 26:0 27:0 28:0 29:0 30:0 31:0.301961 32:0.305882 33:0.313726 34:0.329412 35:0.352941 36:0.380392 37:0.407843 38:0.415686 39:0.388235 40:0.356863 41:0.345098 42:0.333333 43:0.298039 44:0.258824 45:0.215686 46:0 47:0 48:0 49:0 50:0.207843 51:0.235294 52:0.286275 53:0.333333 54:0.368627 55:0.384314 56:0.384314 57:0.376471 58:0.384314 59:0.407843 60:0.435294 61:0.466667 62:0.482353 63:0.466667 64:0.439216 65:0.388235 66:0.372549 67:0.341176 68:0.290196 69:0.243137 70:0.2 71:0 72:0 73:0 74:0.243137 75:0.290196 76:0.34902 77:0.4 78:0.431373 79:0.447059 80:0.45098 81:0.45098 82:0.443137 83:0.462745 84:0.482353 85:0.498039 86:0.513726 87:0.513726 88:0.494118 89:0.447059 90:0.403922 91:0.376471 92:0.329412 93:0.270588 94:0.223529 95:0 96:0 97:0 98:0.270588 99:0.345098 100:0.4 101:0.447059 102:0.482353 103:0.501961 104:0.509804 105:0.513726 106:0.513726 107:0.501961 108:0.513726 109:0.521569 110:0.52549 111:0.52549 112:0.517647 113:0.494118 114:0.443137 115:0.396078 116:0.356863 117:0.294118 118:0.243137 119:0.2 120:0 121:0 122:0.301961 123:0.384314 124:0.443137 125:0.486275 126:0.52549 127:0.545098 128:0.54902 129:0.54902 130:0.552941 131:0.54902 132:0.537255 133:0.533333 134:0.533333 135:0.529412 136:0.52549 137:0.509804 138:0.47451 139:0.419608 140:0.372549 141:0.317647 142:0.254902 143:0.211765 144:0 145:0 146:0.333333 147:0.415686 148:0.470588 149:0.517647 150:0.552941 151:0.576471 152:0.576471 153:0.568627 154:0.568627 155:0.564706 156:0.560784 157:0.54902 158:0.537255 159:0.533333 160:0.52549 161:0.513726 162:0.494118 163:0.439216 164:0.380392 165:0.32549 166:0.266667 167:0.219608 168:0 169:0 170:0.356863 171:0.439216 172:0.498039 173:0.545098 174:0.580392 175:0.603922 176:0.607843 177:0.588235 178:0.576471 179:0.572549 180:0.572549 181:0.564706 182:0.556863 183:0.537255 184:0.529412 185:0.517647 186:0.494118 187:0.454902 188:0.396078 189:0.341176 190:0.282353 191:0.231373 192:0 193:0 194:0.376471 195:0.454902 196:0.517647 197:0.564706 198:0.6 199:0.623529 200:0.631373 201:0.619608 202:0.592157 203:0.584314 204:0.580392 205:0.576471 206:0.568627 207:0.556863 208:0.537255 209:0.521569 210:0.494118 211:0.454902 212:0.407843 213:0.34902 214:0.298039 215:0.239216 216:0.192157 217:0 218:0.392157 219:0.466667 220:0.529412 221:0.576471 222:0.611765 223:0.635294 224:0.643137 225:0.643137 226:0.611765 227:0.6 228:0.596078 229:0.592157 230:0.580392 231:0.568627 232:0.552941 233:0.521569 234:0.494118 235:0.458824 236:0.415686 237:0.356863 238:0.305882 239:0.25098 240:0.2 241:0 242:0.4 243:0.470588 244:0.537255 245:0.584314 246:0.619608 247:0.639216 248:0.65098 249:0.654902 250:0.647059 251:0.615686 252:0.607843 253:0.603922 254:0.596078 255:0.580392 256:0.560784 257:0.533333 258:0.498039 259:0.458824 260:0.423529 261:0.368627 262:0.317647 263:0.262745 264:0.207843 265:0 266:0.403922 267:0.47451 268:0.541176 269:0.588235 270:0.627451 271:0.647059 272:0.654902 273:0.662745 274:0.666667 275:0.643137 276:0.619608 277:0.607843 278:0.6 279:0.584314 280:0.564706 281:0.537255 282:0.501961 283:0.462745 284:0.427451 285:0.376471 286:0.32549 287:0.270588 288:0.215686 289:0 290:0.4 291:0.47451 292:0.541176 293:0.592157 294:0.635294 295:0.65098 296:0.658824 297:0.666667 298:0.670588 299:0.662745 300:0.627451 301:0.611765 302:0.6 303:0.584314 304:0.568627 305:0.537255 306:0.501961 307:0.462745 308:0.431373 309:0.380392 310:0.333333 311:0.278431 312:0.227451 313:0 314:0.388235 315:0.466667 316:0.541176 317:0.596078 318:0.635294 319:0.654902 320:0.658824 321:0.666667 322:0.670588 323:0.666667 324:0.643137 325:0.611765 326:0.596078 327:0.584314 328:0.568627 329:0.541176 330:0.501961 331:0.462745 332:0.431373 333:0.384314 334:0.337255 335:0.278431 336:0.231373 337:0 338:0.360784 339:0.454902 340:0.533333 341:0.588235 342:0.627451 343:0.654902 344:0.662745 345:0.670588 346:0.67451 347:0.67451 348:0.662745 349:0.623529 350:0.6 351:0.580392 352:0.568627 353:0.533333 354:0.501961 355:0.462745 356:0.431373 357:0.384314 358:0.337255 359:0.282353 360:0.235294 361:0 362:0 363:0.427451 364:0.513726 365:0.572549 366:0.615686 367:0.647059 368:0.666667 369:0.67451 370:0.682353 371:0.682353 372:0.678431 373:0.647059 374:0.615686 375:0.588235 376:0.564706 377:0.529412 378:0.501961 379:0.466667 380:0.431373 381:0.384314 382:0.341176 383:0.286275 384:0.235294 385:0 386:0 387:0.396078 388:0.482353 389:0.54902 390:0.6 391:0.635294 392:0.666667 393:0.682353 394:0.690196 395:0.690196 396:0.690196 397:0.670588 398:0.635294 399:0.596078 400:0.564706 401:0.533333 402:0.505882 403:0.470588 404:0.435294 405:0.388235 406:0.341176 407:0.282353 408:0.231373 409:0 410:0 411:0.364706 412:0.443137 413:0.517647 414:0.568627 415:0.615686 416:0.654902 417:0.686275 418:0.690196 419:0.694118 420:0.690196 421:0.682353 422:0.654902 423:0.611765 424:0.576471 425:0.537255 426:0.509804 427:0.47451 428:0.431373 429:0.384314 430:0.333333 431:0.278431 432:0.219608 433:0 434:0 435:0.329412 436:0.407843 437:0.478431 438:0.541176 439:0.592157 440:0.639216 441:0.67451 442:0.686275 443:0.690196 444:0.686275 445:0.678431 446:0.666667 447:0.627451 448:0.592157 449:0.54902 450:0.513726 451:0.470588 452:0.427451 453:0.376471 454:0.317647 455:0.262745 456:0.203922 457:0 458:0 459:0.286275 460:0.360784 461:0.435294 462:0.501961 463:0.556863 464:0.607843 465:0.65098 466:0.67451 467:0.678431 468:0.67451 469:0.670588 470:0.658824 471:0.631373 472:0.596078 473:0.54902 474:0.509804 475:0.458824 476:0.415686 477:0.352941 478:0.298039 479:0.235294 480:0.180392 481:0 482:0 483:0 484:0 485:0.380392 486:0.45098 487:0.517647 488:0.568627 489:0.611765 490:0.643137 491:0.65098 492:0.654902 493:0.654902 494:0.639216 495:0.615686 496:0.584314 497:0.537255 498:0.494118 499:0.439216 500:0.388235 501:0.32549 502:0.266667 503:0.203922 504:0 505:0 506:0 507:0 508:0 509:0.152941 510:0.392157 511:0.462745 512:0.52549 513:0.568627 514:0.596078 515:0.615686 516:0.619608 517:0.619608 518:0.611765 519:0.584314 520:0.556863 521:0.509804 522:0.462745 523:0.407843 524:0.34902 525:0.286275 526:0.223529 527:0 528:0 529:0 530:0 531:0 532:0 533:0 534:0 535:0.4 536:0.462745 537:0.513726 538:0.54902 539:0.568627 540:0.572549 541:0.572549 542:0.564706 543:0.541176 544:0.513726 545:0.466667 546:0.419608 547:0.356863 548:0.298039 549:0.231373 550:0 551:0 552:0 553:0 554:0 555:0 556:0 557:0 558:0 559:0.329412 560:0.396078 561:0.443137 562:0.478431 563:0.505882 564:0.513726 565:0.513726 566:0.501961 567:0.478431 568:0.454902 569:0.407843 570:0.356863 571:0.294118 572:0.227451 573:0 574:0 575:0 576:0 
6.332817732548977 1:0 2:0 3:0 4:0 5:0 6:0 7:0.317647 8:0.345098 9:0.376471 10:0.396078 11:0.403922 12:0.4 13:0.384314 14:0.356863 15:0.333333 16:0.309804 17:0.282353 18:0.0235294 19:0 20:0 21:0 22:0 23:0 24:0 25:0 26:0 27:0 28:0 29:0 30:0 31:0.345098 32:0.388235 33:0.423529 34:0.443137 35:0.454902 36:0.454902 37:0.443137 38:0.427451 39:0.407843 40:0.392157 41:0.368627 42:0.333333 43:0.278431 44:0 45:0 46:0 47:0 48:0 49:0 50:0 51:0 52:0 53:0 54:0 55:0.392157 56:0.439216 57:0.470588 58:0.486275 59:0.494118 60:0.498039 61:0.490196 62:0.482353 63:0.470588 64:0.454902 65:0.431373 66:0.4 67:0.34902 68:0.298039 69:0.235294 70:0 71:0 72:0 73:0 74:0 75:0 76:0 77:0 78:0.364706 79:0.439216 80:0.482353 81:0.505882 82:0.517647 83:0.521569 84:0.521569 85:0.513726 86:0.509804 87:0.505882 88:0.494118 89:0.47451 90:0.443137 91:0.4 92:0.352941 93:0.298039 94:0.235294 95:0 96:0 97:0 98:0 99:0 100:0 101:0.145098 102:0.423529 103:0.482353 104:0.513726 105:0.533333 106:0.545098 107:0.54902 108:0.545098 109:0.537255 110:0.52549 111:0.521569 112:0.513726 113:0.494118 114:0.470588 115:0.431373 116:0.392157 117:0.333333 118:0.27451 119:0.113725 120:0 121:0 122:0 123:0 124:0.384314 125:0.415686 126:0.466667 127:0.513726 128:0.541176 129:0.560784 130:0.568627 131:0.576471 132:0.572549 133:0.564706 134:0.552941 135:0.533333 136:0.521569 137:0.501961 138:0.478431 139:0.447059 140:0.407843 141:0.356863 142:0.298039 143:0.243137 144:0 145:0 146:0 147:0 148:0.407843 149:0.447059 150:0.498039 151:0.541176 152:0.568627 153:0.584314 154:0.596078 155:0.6 156:0.6 157:0.592157 158:0.580392 159:0.560784 160:0.533333 161:0.505882 162:0.482353 163:0.45098 164:0.411765 165:0.364706 166:0.313726 167:0.258824 168:0.0862745 169:0 170:0 171:0 172:0.427451 173:0.482353 174:0.529412 175:0.572549 176:0.592157 177:0.607843 178:0.619608 179:0.623529 180:0.623529 181:0.615686 182:0.6 183:0.576471 184:0.54902 185:0.513726 186:0.482353 187:0.45098 188:0.411765 189:0.364706 190:0.317647 191:0.270588 192:0.227451 193:0 194:0 195:0 196:0.443137 197:0.505882 198:0.560784 199:0.592157 200:0.615686 201:0.631373 202:0.643137 203:0.643137 204:0.643137 205:0.631373 206:0.619608 207:0.588235 208:0.552941 209:0.517647 210:0.482353 211:0.447059 212:0.411765 213:0.364706 214:0.321569 215:0.278431 216:0.239216 217:0 218:0 219:0 220:0.45098 221:0.52549 222:0.580392 223:0.615686 224:0.639216 225:0.662745 226:0.666667 227:0.658824 228:0.65098 229:0.643137 230:0.627451 231:0.584314 232:0.552941 233:0.517647 234:0.482353 235:0.443137 236:0.411765 237:0.364706 238:0.321569 239:0.282353 240:0.243137 241:0 242:0 243:0 244:0.462745 245:0.54902 246:0.603922 247:0.639216 248:0.670588 249:0.694118 250:0.690196 251:0.67451 252:0.658824 253:0.647059 254:0.619608 255:0.580392 256:0.552941 257:0.513726 258:0.47451 259:0.435294 260:0.411765 261:0.368627 262:0.32549 263:0.286275 264:0.243137 265:0.337255 266:0.372549 267:0.407843 268:0.470588 269:0.560784 270:0.615686 271:0.662745 272:0.694118 273:0.709804 274:0.709804 275:0.698039 276:0.670588 277:0.647059 278:0.607843 279:0.580392 280:0.552941 281:0.509804 282:0.470588 283:0.435294 284:0.411765 285:0.372549 286:0.32549 287:0.286275 288:0.239216 289:0.368627 290:0.392157 291:0.419608 292:0.478431 293:0.564706 294:0.619608 295:0.670588 296:0.705882 297:0.717647 298:0.717647 299:0.705882 300:0.678431 301:0.643137 302:0.607843 303:0.584314 304:0.54902 305:0.505882 306:0.470588 307:0.435294 308:0.407843 309:0.376471 310:0.333333 311:0.286275 312:0.239216 313:0.380392 314:0.4 315:0.427451 316:0.482353 317:0.564706 318:0.619608 319:0.670588 320:0.705882 321:0.717647 322:0.717647 323:0.709804 324:0.682353 325:0.635294 326:0.607843 327:0.584314 328:0.54902 329:0.505882 330:0.47451 331:0.435294 332:0.407843 333:0.376471 334:0.333333 335:0.290196 336:0.239216 337:0.364706 338:0.396078 339:0.419608 340:0.478431 341:0.560784 342:0.619608 343:0.666667 344:0.698039 345:0.713726 346:0.713726 347:0.701961 348:0.666667 349:0.623529 350:0.603922 351:0.576471 352:0.541176 353:0.501961 354:0.47451 355:0.439216 356:0.411765 357:0.376471 358:0.337255 359:0.298039 360:0.243137 361:0.321569 362:0.368627 363:0.407843 364:0.470588 365:0.552941 366:0.615686 367:0.662745 368:0.686275 369:0.705882 370:0.705882 371:0.686275 372:0.65098 373:0.615686 374:0.596078 375:0.568627 376:0.529412 377:0.501961 378:0.478431 379:0.443137 380:0.415686 381:0.380392 382:0.337255 383:0.298039 384:0.247059 385:0 386:0 387:0 388:0.458824 389:0.541176 390:0.603922 391:0.647059 392:0.670588 393:0.690196 394:0.686275 395:0.662745 396:0.631373 397:0.607843 398:0.584314 399:0.552941 400:0.521569 401:0.498039 402:0.478431 403:0.45098 404:0.423529 405:0.388235 406:0.341176 407:0.298039 408:0.247059 409:0 410:0 411:0 412:0.435294 413:0.517647 414:0.576471 415:0.619608 416:0.647059 417:0.662745 418:0.658824 419:0.635294 420:0.611765 421:0.592157 422:0.568627 423:0.533333 424:0.513726 425:0.498039 426:0.486275 427:0.458824 428:0.427451 429:0.396078 430:0.34902 431:0.298039 432:0.243137 433:0 434:0 435:0 436:0.419608 437:0.494118 438:0.545098 439:0.592157 440:0.619608 441:0.635294 442:0.631373 443:0.611765 444:0.596078 445:0.572549 446:0.545098 447:0.52549 448:0.505882 449:0.494118 450:0.486275 451:0.462745 452:0.427451 453:0.4 454:0.345098 455:0.290196 456:0.235294 457:0 458:0 459:0.360784 460:0.4 461:0.462745 462:0.505882 463:0.545098 464:0.576471 465:0.588235 466:0.588235 467:0.576471 468:0.564706 469:0.541176 470:0.52549 471:0.505882 472:0.498039 473:0.490196 474:0.478431 475:0.454902 476:0.423529 477:0.392157 478:0.333333 479:0.278431 480:0.219608 481:0 482:0 483:0.368627 484:0.384314 485:0.423529 486:0.466667 487:0.501961 488:0.521569 489:0.537255 490:0.537255 491:0.529412 492:0.521569 493:0.513726 494:0.501961 495:0.494118 496:0.486275 497:0.478431 498:0.466667 499:0.439216 500:0.407843 501:0.368627 502:0.313726 503:0.258824 504:0.2 505:0 506:0 507:0.356863 508:0.376471 509:0.392157 510:0.419608 511:0.447059 512:0.470588 513:0.478431 514:0.47451 515:0.458824 516:0.45098 517:0.458824 518:0.470588 519:0.470588 520:0.462745 521:0.454902 522:0.439216 523:0.415686 524:0.380392 525:0.341176 526:0.290196 527:0.231373 528:0 529:0 530:0 531:0.321569 532:0.337255 533:0.352941 534:0.368627 535:0.388235 536:0.4 537:0.407843 538:0.4 539:0.380392 540:0.364706 541:0.368627 542:0.384314 543:0.403922 544:0.411765 545:0.411765 546:0.4 547:0.376471 548:0.341176 549:0.305882 550:0.25098 551:0.2 552:0 553:0 554:0 555:0.266667 556:0.278431 557:0.286275 558:0.294118 559:0.305882 560:0.313726 561:0.309804 562:0.298039 563:0.290196 564:0.27451 565:0.270588 566:0 567:0.313726 568:0.341176 569:0.352941 570:0.34902 571:0.329412 572:0.301961 573:0.262745 574:0.215686 575:0 576:0 
4.99100048318589 1:0 2:0 3:0 4:0 5:0 6:0 7:0 8:0 9:0 10:0 11:0.262745 12:0.313726 13:0.341176 14:0.352941 15:0.34902 16:0.333333 17:0.301961 18:0.270588 19:0.231373 20:0.188235 21:0 22:0 23:0 24:0 25:0 26:0 27:0 28:0 29:0 30:0 31:0 32:0 33:0 34:0.294118 35:0.352941 36:0.380392 37:0.396078 38:0.403922 39:0.407843 40:0.396078 41:0.372549 42:0.333333 43:0.282353 44:0.235294 45:0.00784314 46:0 47:0 48:0 49:0 50:0 51:0 52:0 53:0 54:0 55:0 56:0 57:0.305882 58:0.380392 59:0.427451 60:0.439216 61:0.447059 62:0.454902 63:0.458824 64:0.458824 65:0.443137 66:0.403922 67:0.352941 68:0.294118 69:0.231373 70:0 71:0 72:0 73:0 74:0 75:0 76:0 77:0 78:0 79:0 80:0 81:0.388235 82:0.454902 83:0.478431 84:0.482353 85:0.486275 86:0.498039 87:0.505882 88:0.501961 89:0.494118 90:0.458824 91:0.411765 92:0.356863 93:0.286275 94:0.215686 95:0 96:0 97:0 98:0 99:0 100:0 101:0 102:0 103:0.0588235 104:0.352941 105:0.447059 106:0.494118 107:0.517647 108:0.52549 109:0.529412 110:0.541176 111:0.541176 112:0.533333 113:0.509804 114:0.498039 115:0.462745 116:0.407843 117:0.337255 118:0.258824 119:0.0862745 120:0 121:0 122:0.164706 123:0.215686 124:0.243137 125:0.258824 126:0.27451 127:0.321569 128:0.4 129:0.486275 130:0.521569 131:0.541176 132:0.54902 133:0.556863 134:0.564706 135:0.568627 136:0.572549 137:0.54902 138:0.509804 139:0.490196 140:0.447059 141:0.380392 142:0.298039 143:0.211765 144:0 145:0 146:0.215686 147:0.254902 148:0.286275 149:0.309804 150:0.345098 151:0.376471 152:0.443137 153:0.501961 154:0.529412 155:0.54902 156:0.556863 157:0.564706 158:0.572549 159:0.580392 160:0.580392 161:0.576471 162:0.54902 163:0.501961 164:0.470588 165:0.403922 166:0.321569 167:0.235294 168:0 169:0 170:0.25098 171:0.290196 172:0.321569 173:0.360784 174:0.388235 175:0.415686 176:0.482353 177:0.509804 178:0.537255 179:0.552941 180:0.560784 181:0.568627 182:0.572549 183:0.580392 184:0.584314 185:0.580392 186:0.572549 187:0.529412 188:0.482353 189:0.419608 190:0.352941 191:0.270588 192:0 193:0 194:0.278431 195:0.313726 196:0.372549 197:0.4 198:0.419608 199:0.447059 200:0.494118 201:0.517647 202:0.537255 203:0.545098 204:0.552941 205:0.568627 206:0.576471 207:0.584314 208:0.588235 209:0.592157 210:0.584314 211:0.560784 212:0.509804 213:0.439216 214:0.376471 215:0.298039 216:0.207843 217:0 218:0.298039 219:0.32549 220:0.411765 221:0.427451 222:0.443137 223:0.466667 224:0.498039 225:0.52549 226:0.541176 227:0.54902 228:0.560784 229:0.572549 230:0.588235 231:0.615686 232:0.627451 233:0.635294 234:0.619608 235:0.584314 236:0.54902 237:0.486275 238:0.407843 239:0.32549 240:0.243137 241:0.223529 242:0.301961 243:0.376471 244:0.427451 245:0.439216 246:0.458824 247:0.486275 248:0.517647 249:0.537255 250:0.545098 251:0.552941 252:0.568627 253:0.596078 254:0.631373 255:0.666667 256:0.682353 257:0.682353 258:0.65098 259:0.611765 260:0.572549 261:0.521569 262:0.443137 263:0.34902 264:0.266667 265:0.231373 266:0.301961 267:0.396078 268:0.435294 269:0.45098 270:0.482353 271:0.517647 272:0.541176 273:0.552941 274:0.564706 275:0.580392 276:0.592157 277:0.619608 278:0.658824 279:0.682353 280:0.694118 281:0.698039 282:0.678431 283:0.627451 284:0.592157 285:0.537255 286:0.466667 287:0.376471 288:0.290196 289:0.227451 290:0.305882 291:0.4 292:0.435294 293:0.462745 294:0.505882 295:0.537255 296:0.552941 297:0.568627 298:0.584314 299:0.592157 300:0.6 301:0.639216 302:0.666667 303:0.686275 304:0.698039 305:0.698039 306:0.678431 307:0.631373 308:0.596078 309:0.529412 310:0.47451 311:0.392157 312:0.301961 313:0.215686 314:0.321569 315:0.403922 316:0.431373 317:0.458824 318:0.517647 319:0.537255 320:0.556863 321:0.576471 322:0.592157 323:0.596078 324:0.611765 325:0.647059 326:0.666667 327:0.690196 328:0.694118 329:0.690196 330:0.666667 331:0.623529 332:0.584314 333:0.52549 334:0.478431 335:0.407843 336:0.317647 337:0.2 338:0.317647 339:0.4 340:0.427451 341:0.447059 342:0.494118 343:0.529412 344:0.545098 345:0.572549 346:0.592157 347:0.603922 348:0.623529 349:0.65098 350:0.666667 351:0.682353 352:0.686275 353:0.670588 354:0.643137 355:0.611765 356:0.576471 357:0.533333 358:0.490196 359:0.415686 360:0.32549 361:0 362:0.305882 363:0.384314 364:0.427451 365:0.443137 366:0.47451 367:0.521569 368:0.537255 369:0.560784 370:0.588235 371:0.607843 372:0.631373 373:0.647059 374:0.658824 375:0.670588 376:0.67451 377:0.658824 378:0.635294 379:0.607843 380:0.580392 381:0.541176 382:0.494118 383:0.415686 384:0.321569 385:0 386:0.282353 387:0.364706 388:0.415686 389:0.443137 390:0.466667 391:0.513726 392:0.537255 393:0.54902 394:0.588235 395:0.607843 396:0.627451 397:0.643137 398:0.658824 399:0.67451 400:0.67451 401:0.658824 402:0.639216 403:0.615686 404:0.592157 405:0.556863 406:0.498039 407:0.411765 408:0.313726 409:0 410:0.258824 411:0.341176 412:0.388235 413:0.439216 414:0.462745 415:0.501961 416:0.533333 417:0.552941 418:0.584314 419:0.603922 420:0.623529 421:0.643137 422:0.658824 423:0.678431 424:0.686275 425:0.678431 426:0.658824 427:0.627451 428:0.603922 429:0.560784 430:0.486275 431:0.4 432:0.298039 433:0 434:0.231373 435:0.317647 436:0.368627 437:0.423529 438:0.458824 439:0.494118 440:0.52549 441:0.552941 442:0.584314 443:0.6 444:0.615686 445:0.643137 446:0.67451 447:0.690196 448:0.698039 449:0.690196 450:0.666667 451:0.631373 452:0.6 453:0.537255 454:0.458824 455:0.372549 456:0.27451 457:0 458:0.2 459:0.282353 460:0.345098 461:0.4 462:0.447059 463:0.482353 464:0.521569 465:0.556863 466:0.580392 467:0.596078 468:0.615686 469:0.647059 470:0.678431 471:0.694118 472:0.701961 473:0.690196 474:0.658824 475:0.611765 476:0.556863 477:0.486275 478:0.407843 479:0.313726 480:0.223529 481:0 482:0 483:0.25098 484:0.313726 485:0.376471 486:0.427451 487:0.466667 488:0.509804 489:0.541176 490:0.572549 491:0.592157 492:0.615686 493:0.647059 494:0.67451 495:0.690196 496:0.694118 497:0.666667 498:0.619608 499:0.556863 500:0.486275 501:0.415686 502:0.329412 503:0.235294 504:0 505:0 506:0 507:0.211765 508:0.278431 509:0.345098 510:0.392157 511:0.439216 512:0.478431 513:0.517647 514:0.552941 515:0.584314 516:0.607843 517:0.627451 518:0.654902 519:0.670588 520:0.65098 521:0.607843 522:0.545098 523:0.47451 524:0.403922 525:0.317647 526:0.215686 527:0 528:0 529:0 530:0 531:0 532:0.239216 533:0.294118 534:0.356863 535:0.4 536:0.435294 537:0.478431 538:0.521569 539:0.552941 540:0.584314 541:0.603922 542:0.607843 543:0.603922 544:0.568627 545:0.501961 546:0.435294 547:0.34902 548:0.258824 549:0 550:0 551:0 552:0 553:0 554:0 555:0 556:0.196078 557:0.247059 558:0.298039 559:0.345098 560:0.384314 561:0.423529 562:0.466667 563:0.501961 564:0.521569 565:0.52549 566:0.513726 567:0.47451 568:0.423529 569:0.337255 570:0.211765 571:0 572:0 573:0 574:0 575:0 576:0 
8 1:0 2:0 3:0 4:0 5:0 6:0.262745 7:0.301961 8:0.364706 9:0.427451 10:0.47451 11:0.501961 12:0.498039 13:0.478431 14:0.447059 15:0.407843 16:0.356863 17:0 18:0 19:0 20:0 21:0 22:0 23:0 24:0 25:0 26:0 27:0 28:0 29:0 30:0.282353 31:0.356863 32:0.435294 33:0.501961 34:0.552941 35:0.588235 36:0.592157 37:0.580392 38:0.560784 39:0.529412 40:0.482353 41:0.419608 42:0.345098 43:0.239216 44:0.192157 45:0 46:0 47:0 48:0 49:0 50:0 51:0 52:0 53:0 54:0.32549 55:0.423529 56:0.501961 57:0.560784 58:0.607843 59:0.647059 60:0.666667 61:0.670588 62:0.654902 63:0.627451 64:0.588235 65:0.521569 66:0.45098 67:0.372549 68:0.278431 69:0 70:0 71:0 72:0 73:0 74:0 75:0 76:0 77:0 78:0.376471 79:0.47451 80:0.541176 81:0.596078 82:0.647059 83:0.678431 84:0.690196 85:0.694118 86:0.686275 87:0.666667 88:0.635294 89:0.588235 90:0.52549 91:0.45098 92:0.384314 93:0.286275 94:0 95:0 96:0 97:0 98:0 99:0 100:0 101:0.333333 102:0.431373 103:0.513726 104:0.572549 105:0.619608 106:0.666667 107:0.686275 108:0.694118 109:0.698039 110:0.694118 111:0.678431 112:0.65098 113:0.615686 114:0.568627 115:0.509804 116:0.443137 117:0.376471 118:0.286275 119:0 120:0 121:0 122:0 123:0.258824 124:0.294118 125:0.392157 126:0.470588 127:0.541176 128:0.596078 129:0.643137 130:0.67451 131:0.682353 132:0.690196 133:0.690196 134:0.686275 135:0.666667 136:0.643137 137:0.615686 138:0.580392 139:0.541176 140:0.482353 141:0.427451 142:0.356863 143:0.266667 144:0 145:0 146:0.247059 147:0.27451 148:0.34902 149:0.435294 150:0.505882 151:0.564706 152:0.619608 153:0.662745 154:0.67451 155:0.678431 156:0.678431 157:0.678431 158:0.67451 159:0.65098 160:0.635294 161:0.607843 162:0.580392 163:0.545098 164:0.498039 165:0.443137 166:0.388235 167:0.305882 168:0.227451 169:0 170:0.262745 171:0.313726 172:0.4 173:0.47451 174:0.541176 175:0.596078 176:0.639216 177:0.670588 178:0.678431 179:0.678431 180:0.67451 181:0.670588 182:0.654902 183:0.639216 184:0.619608 185:0.6 186:0.576471 187:0.545098 188:0.501961 189:0.45098 190:0.403922 191:0.32549 192:0.258824 193:0 194:0.258824 195:0.34902 196:0.439216 197:0.513726 198:0.572549 199:0.623529 200:0.662745 201:0.678431 202:0.682353 203:0.682353 204:0.67451 205:0.662745 206:0.647059 207:0.627451 208:0.607843 209:0.592157 210:0.564706 211:0.533333 212:0.494118 213:0.45098 214:0.403922 215:0.337255 216:0.27451 217:0 218:0.262745 219:0.376471 220:0.462745 221:0.541176 222:0.596078 223:0.639216 224:0.670588 225:0.682353 226:0.686275 227:0.686275 228:0.678431 229:0.658824 230:0.643137 231:0.623529 232:0.603922 233:0.584314 234:0.552941 235:0.517647 236:0.47451 237:0.447059 238:0.396078 239:0.337255 240:0.278431 241:0 242:0.270588 243:0.392157 244:0.478431 245:0.556863 246:0.611765 247:0.643137 248:0.666667 249:0.678431 250:0.682353 251:0.682353 252:0.666667 253:0.647059 254:0.631373 255:0.611765 256:0.592157 257:0.568627 258:0.537255 259:0.490196 260:0.466667 261:0.439216 262:0.392157 263:0.341176 264:0.282353 265:0 266:0.278431 267:0.396078 268:0.482353 269:0.564706 270:0.615686 271:0.635294 272:0.654902 273:0.662745 274:0.658824 275:0.65098 276:0.639216 277:0.631373 278:0.619608 279:0.6 280:0.572549 281:0.54902 282:0.521569 283:0.482353 284:0.462745 285:0.431373 286:0.388235 287:0.341176 288:0.278431 289:0 290:0.290196 291:0.396078 292:0.478431 293:0.560784 294:0.611765 295:0.631373 296:0.647059 297:0.647059 298:0.643137 299:0.635294 300:0.627451 301:0.615686 302:0.603922 303:0.576471 304:0.556863 305:0.537255 306:0.513726 307:0.482353 308:0.462745 309:0.427451 310:0.384314 311:0.333333 312:0.270588 313:0 314:0.294118 315:0.4 316:0.47451 317:0.552941 318:0.607843 319:0.627451 320:0.639216 321:0.639216 322:0.631373 323:0.623529 324:0.615686 325:0.6 326:0.580392 327:0.560784 328:0.545098 329:0.529412 330:0.509804 331:0.482353 332:0.458824 333:0.419608 334:0.372549 335:0.321569 336:0.254902 337:0 338:0.294118 339:0.4 340:0.47451 341:0.545098 342:0.596078 343:0.623529 344:0.635294 345:0.635294 346:0.623529 347:0.615686 348:0.6 349:0.584314 350:0.568627 351:0.552941 352:0.537255 353:0.521569 354:0.498039 355:0.470588 356:0.447059 357:0.403922 358:0.356863 359:0.301961 360:0.239216 361:0 362:0.282353 363:0.384314 364:0.470588 365:0.533333 366:0.580392 367:0.607843 368:0.615686 369:0.611765 370:0.596078 371:0.592157 372:0.588235 373:0.580392 374:0.568627 375:0.552941 376:0.533333 377:0.509804 378:0.486275 379:0.462745 380:0.435294 381:0.384314 382:0.341176 383:0.278431 384:0.215686 385:0 386:0.266667 387:0.372549 388:0.458824 389:0.52549 390:0.568627 391:0.584314 392:0.592157 393:0.592157 394:0.588235 395:0.588235 396:0.588235 397:0.584314 398:0.572549 399:0.552941 400:0.529412 401:0.505882 402:0.47451 403:0.447059 404:0.411765 405:0.364706 406:0.32549 407:0.258824 408:0.196078 409:0 410:0.247059 411:0.352941 412:0.427451 413:0.509804 414:0.545098 415:0.564706 416:0.572549 417:0.580392 418:0.580392 419:0.584314 420:0.584314 421:0.580392 422:0.568627 423:0.545098 424:0.521569 425:0.490196 426:0.462745 427:0.435294 428:0.392157 429:0.352941 430:0.309804 431:0.239216 432:0.180392 433:0 434:0.231373 435:0.32549 436:0.4 437:0.47451 438:0.521569 439:0.541176 440:0.545098 441:0.552941 442:0.572549 443:0.580392 444:0.580392 445:0.572549 446:0.556863 447:0.537255 448:0.509804 449:0.478431 450:0.454902 451:0.419608 452:0.380392 453:0.341176 454:0.290196 455:0.223529 456:0.160784 457:0 458:0.211765 459:0.278431 460:0.364706 461:0.419608 462:0.47451 463:0.509804 464:0.513726 465:0.517647 466:0.529412 467:0.54902 468:0.556863 469:0.54902 470:0.541176 471:0.517647 472:0.490196 473:0.466667 474:0.447059 475:0.407843 476:0.368627 477:0.321569 478:0.266667 479:0.196078 480:0 481:0 482:0.2 483:0.235294 484:0.294118 485:0.364706 486:0.407843 487:0.435294 488:0.443137 489:0.458824 490:0.47451 491:0.509804 492:0.52549 493:0.529412 494:0.513726 495:0.490196 496:0.470588 497:0.454902 498:0.431373 499:0.392157 500:0.34902 501:0.290196 502:0.235294 503:0.168627 504:0 505:0 506:0.172549 507:0.196078 508:0.235294 509:0.290196 510:0.337255 511:0.356863 512:0.364706 513:0.380392 514:0.403922 515:0.443137 516:0.466667 517:0.478431 518:0.466667 519:0.458824 520:0.45098 521:0.431373 522:0.403922 523:0.360784 524:0.313726 525:0.254902 526:0.196078 527:0 528:0 529:0 530:0 531:0 532:0.160784 533:0.207843 534:0.243137 535:0.266667 536:0.278431 537:0.290196 538:0.305882 539:0.34902 540:0.384314 541:0.411765 542:0.419608 543:0.419608 544:0.407843 545:0.388235 546:0.360784 547:0.313726 548:0.270588 549:0.215686 550:0 551:0 552:0 553:0 554:0 555:0 556:0 557:0 558:0 559:0 560:0 561:0 562:0.196078 563:0.243137 564:0.298039 565:0.341176 566:0.360784 567:0.360784 568:0.352941 569:0.337255 570:0.309804 571:0.27451 572:0.227451 573:0.176471 574:0 575:0 576:0 
8 1:0 2:0 3:0 4:0 5:0 6:0.0941176 7:0.227451 8:0.266667 9:0.294118 10:0.313726 11:0.337255 12:0.352941 13:0.364706 14:0.364706 15:0.356863 16:0.337255 17:0.301961 18:0 19:0 20:0 21:0 22:0 23:0 24:0 25:0 26:0 27:0 28:0 29:0.180392 30:0.231373 31:0.282353 32:0.32549 33:0.360784 34:0.392157 35:0.427451 36:0.458824 37:0.478431 38:0.482353 39:0.478431 40:0.462745 41:0.431373 42:0.388235 43:0.321569 44:0.247059 45:0 46:0 47:0 48:0 49:0 50:0 51:0 52:0 53:0.227451 54:0.282353 55:0.337255 56:0.380392 57:0.415686 58:0.447059 59:0.494118 60:0.537255 61:0.572549 62:0.588235 63:0.592157 64:0.580392 65:0.545098 66:0.501961 67:0.439216 68:0.360784 69:0.270588 70:0 71:0 72:0 73:0 74:0 75:0 76:0.0117647 77:0.27451 78:0.333333 79:0.392157 80:0.431373 81:0.458824 82:0.482353 83:0.533333 84:0.576471 85:0.611765 86:0.643137 87:0.666667 88:0.666667 89:0.639216 90:0.6 91:0.537255 92:0.458824 93:0.356863 94:0.270588 95:0 96:0 97:0 98:0 99:0 100:0.239216 101:0.317647 102:0.380392 103:0.435294 104:0.462745 105:0.47451 106:0.498039 107:0.545098 108:0.592157 109:0.635294 110:0.666667 111:0.694118 112:0.705882 113:0.701961 114:0.666667 115:0.603922 116:0.533333 117:0.435294 118:0.337255 119:0.243137 120:0 121:0 122:0.0196078 123:0.192157 124:0.270588 125:0.34902 126:0.411765 127:0.466667 128:0.478431 129:0.490196 130:0.513726 131:0.545098 132:0.576471 133:0.623529 134:0.658824 135:0.694118 136:0.709804 137:0.713726 138:0.698039 139:0.65098 140:0.580392 141:0.494118 142:0.396078 143:0.294118 144:0.105882 145:0 146:0.168627 147:0.219608 148:0.294118 149:0.368627 150:0.431373 151:0.478431 152:0.490196 153:0.501961 154:0.529412 155:0.552941 156:0.572549 157:0.6 158:0.631373 159:0.666667 160:0.694118 161:0.705882 162:0.690196 163:0.658824 164:0.603922 165:0.521569 166:0.435294 167:0.333333 168:0.239216 169:0 170:0.180392 171:0.254902 172:0.329412 173:0.388235 174:0.458824 175:0.486275 176:0.498039 177:0.517647 178:0.545098 179:0.564706 180:0.576471 181:0.592157 182:0.607843 183:0.635294 184:0.654902 185:0.670588 186:0.666667 187:0.647059 188:0.611765 189:0.533333 190:0.454902 191:0.360784 192:0.258824 193:0 194:0.2 195:0.294118 196:0.360784 197:0.419608 198:0.47451 199:0.490196 200:0.501961 201:0.537255 202:0.564706 203:0.580392 204:0.584314 205:0.592157 206:0.603922 207:0.627451 208:0.639216 209:0.643137 210:0.643137 211:0.635294 212:0.603922 213:0.541176 214:0.466667 215:0.380392 216:0.270588 217:0 218:0.227451 219:0.317647 220:0.380392 221:0.45098 222:0.486275 223:0.498039 224:0.513726 225:0.556863 226:0.580392 227:0.596078 228:0.6 229:0.603922 230:0.615686 231:0.631373 232:0.639216 233:0.639216 234:0.635294 235:0.627451 236:0.596078 237:0.541176 238:0.47451 239:0.392157 240:0.282353 241:0 242:0.243137 243:0.329412 244:0.396078 245:0.458824 246:0.490196 247:0.505882 248:0.529412 249:0.564706 250:0.584314 251:0.6 252:0.611765 253:0.623529 254:0.639216 255:0.647059 256:0.647059 257:0.643137 258:0.635294 259:0.623529 260:0.588235 261:0.537255 262:0.47451 263:0.4 264:0.290196 265:0 266:0.25098 267:0.329412 268:0.396078 269:0.454902 270:0.482353 271:0.505882 272:0.545098 273:0.564706 274:0.580392 275:0.603922 276:0.623529 277:0.643137 278:0.65098 279:0.658824 280:0.658824 281:0.654902 282:0.643137 283:0.623529 284:0.580392 285:0.529412 286:0.466667 287:0.392157 288:0.282353 289:0 290:0.247059 291:0.321569 292:0.392157 293:0.45098 294:0.478431 295:0.509804 296:0.541176 297:0.560784 298:0.576471 299:0.607843 300:0.635294 301:0.647059 302:0.654902 303:0.658824 304:0.662745 305:0.658824 306:0.65098 307:0.627451 308:0.576471 309:0.52549 310:0.454902 311:0.372549 312:0.266667 313:0 314:0.243137 315:0.317647 316:0.392157 317:0.45098 318:0.470588 319:0.494118 320:0.529412 321:0.560784 322:0.584314 323:0.611765 324:0.631373 325:0.639216 326:0.643137 327:0.65098 328:0.654902 329:0.654902 330:0.643137 331:0.623529 332:0.576471 333:0.517647 334:0.443137 335:0.356863 336:0.243137 337:0 338:0.243137 339:0.321569 340:0.388235 341:0.447059 342:0.458824 343:0.478431 344:0.505882 345:0.541176 346:0.568627 347:0.6 348:0.619608 349:0.627451 350:0.623529 351:0.623529 352:0.627451 353:0.631373 354:0.627451 355:0.611765 356:0.576471 357:0.513726 358:0.431373 359:0.337255 360:0.219608 361:0 362:0.243137 363:0.317647 364:0.372549 365:0.419608 366:0.439216 367:0.454902 368:0.478431 369:0.529412 370:0.564706 371:0.592157 372:0.607843 373:0.615686 374:0.611765 375:0.607843 376:0.603922 377:0.611765 378:0.611765 379:0.603922 380:0.580392 381:0.513726 382:0.423529 383:0.321569 384:0.211765 385:0 386:0.231373 387:0.301961 388:0.34902 389:0.380392 390:0.407843 391:0.435294 392:0.466667 393:0.52549 394:0.560784 395:0.588235 396:0.603922 397:0.615686 398:0.611765 399:0.603922 400:0.603922 401:0.607843 402:0.607843 403:0.6 404:0.568627 405:0.501961 406:0.411765 407:0.301961 408:0.2 409:0 410:0.207843 411:0.270588 412:0.313726 413:0.341176 414:0.372549 415:0.407843 416:0.458824 417:0.521569 418:0.560784 419:0.592157 420:0.607843 421:0.615686 422:0.615686 423:0.607843 424:0.607843 425:0.603922 426:0.603922 427:0.588235 428:0.54902 429:0.486275 430:0.392157 431:0.278431 432:0.109804 433:0 434:0.184314 435:0.231373 436:0.27451 437:0.298039 438:0.333333 439:0.380392 440:0.454902 441:0.513726 442:0.552941 443:0.580392 444:0.596078 445:0.607843 446:0.607843 447:0.603922 448:0.603922 449:0.603922 450:0.596078 451:0.568627 452:0.52549 453:0.466667 454:0.372549 455:0.254902 456:0 457:0 458:0.156863 459:0.188235 460:0.227451 461:0.254902 462:0.286275 463:0.360784 464:0.443137 465:0.494118 466:0.529412 467:0.552941 468:0.564706 469:0.584314 470:0.6 471:0.603922 472:0.607843 473:0.6 474:0.588235 475:0.541176 476:0.501961 477:0.435294 478:0.329412 479:0.219608 480:0 481:0 482:0 483:0 484:0.164706 485:0.196078 486:0.239216 487:0.321569 488:0.407843 489:0.462745 490:0.490196 491:0.517647 492:0.537255 493:0.560784 494:0.584314 495:0.6 496:0.6 497:0.592157 498:0.564706 499:0.517647 500:0.466667 501:0.380392 502:0.278431 503:0.180392 504:0 505:0 506:0 507:0 508:0 509:0 510:0 511:0.270588 512:0.364706 513:0.423529 514:0.45098 515:0.470588 516:0.498039 517:0.533333 518:0.560784 519:0.592157 520:0.588235 521:0.564706 522:0.52549 523:0.470588 524:0.4 525:0.309804 526:0.219608 527:0 528:0 529:0 530:0 531:0 532:0 533:0 534:0 535:0 536:0.301961 537:0.372549 538:0.407843 539:0.431373 540:0.454902 541:0.494118 542:0.52549 543:0.537255 544:0.52549 545:0.501961 546:0.458824 547:0.392157 548:0.317647 549:0.239216 550:0 551:0 552:0 553:0 554:0 555:0 556:0 557:0 558:0 559:0 560:0.215686 561:0.301961 562:0.352941 563:0.384314 564:0.411765 565:0.447059 566:0.470588 567:0.466667 568:0.447059 569:0.415686 570:0.364706 571:0.301961 572:0.239216 573:0.168627 574:0 575:0 576:0 
2.712419854062058 1:0 2:0 3:0 4:0 5:0 6:0 7:0 8:0 9:0 10:0 11:0 12:0 13:0 14:0 15:0.313726 16:0.321569 17:0.32549 18:0.305882 19:0.266667 20:0.227451 21:0 22:0 23:0 24:0 25:0 26:0 27:0 28:0 29:0 30:0.27451 31:0.290196 32:0.298039 33:0.298039 34:0.282353 35:0.278431 36:0.278431 37:0.294118 38:0.32549 39:0.345098 40:0.356863 41:0.356863 42:0.337255 43:0.301961 44:0.262745 45:0.215686 46:0 47:0 48:0 49:0 50:0 51:0.321569 52:0.321569 53:0.345098 54:0.372549 55:0.384314 56:0.380392 57:0.372549 58:0.364706 59:0.364706 60:0.360784 61:0.372549 62:0.384314 63:0.403922 64:0.403922 65:0.392157 66:0.376471 67:0.337255 68:0.301961 69:0.25098 70:0 71:0 72:0 73:0 74:0 75:0.341176 76:0.34902 77:0.392157 78:0.427451 79:0.447059 80:0.45098 81:0.443137 82:0.439216 83:0.435294 84:0.435294 85:0.443137 86:0.447059 87:0.45098 88:0.447059 89:0.435294 90:0.411765 91:0.376471 92:0.337255 93:0.286275 94:0.231373 95:0 96:0 97:0 98:0 99:0.34902 100:0.380392 101:0.439216 102:0.47451 103:0.498039 104:0.505882 105:0.505882 106:0.494118 107:0.486275 108:0.486275 109:0.482353 110:0.486275 111:0.478431 112:0.470588 113:0.458824 114:0.439216 115:0.403922 116:0.368627 117:0.317647 118:0.258824 119:0 120:0 121:0 122:0 123:0.356863 124:0.419608 125:0.478431 126:0.513726 127:0.545098 128:0.556863 129:0.552941 130:0.541176 131:0.52549 132:0.517647 133:0.501961 134:0.494118 135:0.486275 136:0.478431 137:0.466667 138:0.454902 139:0.427451 140:0.392157 141:0.341176 142:0.282353 143:0.219608 144:0 145:0 146:0 147:0.364706 148:0.45098 149:0.509804 150:0.54902 151:0.572549 152:0.588235 153:0.588235 154:0.568627 155:0.54902 156:0.541176 157:0.52549 158:0.509804 159:0.494118 160:0.482353 161:0.470588 162:0.458824 163:0.439216 164:0.403922 165:0.360784 166:0.305882 167:0.235294 168:0.145098 169:0 170:0 171:0.392157 172:0.478431 173:0.537255 174:0.572549 175:0.596078 176:0.611765 177:0.607843 178:0.592157 179:0.564706 180:0.552941 181:0.545098 182:0.533333 183:0.509804 184:0.490196 185:0.47451 186:0.462745 187:0.443137 188:0.411765 189:0.368627 190:0.321569 191:0.254902 192:0.219608 193:0 194:0 195:0.419608 196:0.494118 197:0.552941 198:0.584314 199:0.615686 200:0.623529 201:0.619608 202:0.607843 203:0.580392 204:0.560784 205:0.552941 206:0.545098 207:0.52549 208:0.498039 209:0.482353 210:0.466667 211:0.447059 212:0.419608 213:0.376471 214:0.329412 215:0.270588 216:0.219608 217:0 218:0.392157 219:0.443137 220:0.509804 221:0.560784 222:0.596078 223:0.627451 224:0.635294 225:0.635294 226:0.623529 227:0.6 228:0.568627 229:0.560784 230:0.552941 231:0.537255 232:0.513726 233:0.486275 234:0.466667 235:0.447059 236:0.423529 237:0.384314 238:0.337255 239:0.282353 240:0.231373 241:0 242:0.4 243:0.454902 244:0.521569 245:0.572549 246:0.615686 247:0.639216 248:0.65098 249:0.654902 250:0.639216 251:0.619608 252:0.584314 253:0.568627 254:0.556863 255:0.545098 256:0.517647 257:0.490196 258:0.470588 259:0.447059 260:0.427451 261:0.388235 262:0.345098 263:0.294118 264:0.239216 265:0 266:0.403922 267:0.462745 268:0.533333 269:0.588235 270:0.631373 271:0.666667 272:0.678431 273:0.670588 274:0.654902 275:0.631373 276:0.607843 277:0.576471 278:0.564706 279:0.54902 280:0.521569 281:0.494118 282:0.470588 283:0.447059 284:0.431373 285:0.392157 286:0.34902 287:0.301961 288:0.25098 289:0 290:0.403922 291:0.470588 292:0.545098 293:0.603922 294:0.65098 295:0.686275 296:0.694118 297:0.682353 298:0.662745 299:0.647059 300:0.619608 301:0.588235 302:0.568627 303:0.556863 304:0.533333 305:0.498039 306:0.470588 307:0.447059 308:0.427451 309:0.388235 310:0.352941 311:0.305882 312:0.258824 313:0 314:0.388235 315:0.462745 316:0.54902 317:0.611765 318:0.654902 319:0.694118 320:0.698039 321:0.694118 322:0.67451 323:0.647059 324:0.627451 325:0.603922 326:0.576471 327:0.556863 328:0.537255 329:0.505882 330:0.47451 331:0.443137 332:0.419608 333:0.384314 334:0.352941 335:0.309804 336:0.262745 337:0 338:0.380392 339:0.454902 340:0.537255 341:0.6 342:0.643137 343:0.686275 344:0.698039 345:0.698039 346:0.686275 347:0.65098 348:0.635294 349:0.611765 350:0.588235 351:0.560784 352:0.541176 353:0.509804 354:0.478431 355:0.447059 356:0.419608 357:0.380392 358:0.352941 359:0.309804 360:0.262745 361:0 362:0.396078 363:0.439216 364:0.513726 365:0.584314 366:0.627451 367:0.67451 368:0.698039 369:0.698039 370:0.694118 371:0.654902 372:0.639216 373:0.619608 374:0.596078 375:0.564706 376:0.541176 377:0.509804 378:0.482353 379:0.45098 380:0.419608 381:0.380392 382:0.352941 383:0.305882 384:0.258824 385:0 386:0.4 387:0.419608 388:0.478431 389:0.556863 390:0.607843 391:0.65098 392:0.686275 393:0.694118 394:0.690196 395:0.662745 396:0.639216 397:0.623529 398:0.6 399:0.572549 400:0.541176 401:0.513726 402:0.486275 403:0.458824 404:0.419608 405:0.380392 406:0.34902 407:0.298039 408:0.25098 409:0 410:0.392157 411:0.407843 412:0.447059 413:0.529412 414:0.580392 415:0.627451 416:0.662745 417:0.682353 418:0.67451 419:0.658824 420:0.639216 421:0.623529 422:0.6 423:0.572549 424:0.541176 425:0.517647 426:0.490196 427:0.462745 428:0.423529 429:0.384314 430:0.341176 431:0.286275 432:0.239216 433:0 434:0.380392 435:0.388235 436:0.411765 437:0.494118 438:0.556863 439:0.603922 440:0.639216 441:0.662745 442:0.662745 443:0.65098 444:0.635294 445:0.615686 446:0.596078 447:0.572549 448:0.545098 449:0.521569 450:0.498039 451:0.458824 452:0.415686 453:0.376471 454:0.329412 455:0.270588 456:0.223529 457:0 458:0.309804 459:0.321569 460:0.364706 461:0.447059 462:0.521569 463:0.568627 464:0.607843 465:0.635294 466:0.643137 467:0.639216 468:0.623529 469:0.603922 470:0.588235 471:0.568627 472:0.545098 473:0.52549 474:0.498039 475:0.447059 476:0.407843 477:0.360784 478:0.298039 479:0.239216 480:0.2 481:0 482:0 483:0 484:0 485:0.4 486:0.478431 487:0.537255 488:0.576471 489:0.603922 490:0.623529 491:0.619608 492:0.607843 493:0.592157 494:0.576471 495:0.560784 496:0.541176 497:0.517647 498:0.482353 499:0.431373 500:0.384314 501:0.321569 502:0.258824 503:0.211765 504:0 505:0 506:0 507:0 508:0 509:0.364706 510:0.439216 511:0.490196 512:0.537255 513:0.568627 514:0.588235 515:0.592157 516:0.584314 517:0.572549 518:0.560784 519:0.54902 520:0.52549 521:0.494118 522:0.45098 523:0.396078 524:0.333333 525:0.262745 526:0 527:0 528:0 529:0 530:0 531:0 532:0 533:0.368627 534:0.4 535:0.454902 536:0.490196 537:0.521569 538:0.545098 539:0.560784 540:0.560784 541:0.552941 542:0.541176 543:0.521569 544:0.490196 545:0.447059 546:0.396078 547:0.32549 548:0.184314 549:0 550:0 551:0 552:0 553:0 554:0 555:0 556:0 557:0.364706 558:0.384314 559:0.411765 560:0.454902 561:0.478431 562:0.498039 563:0.513726 564:0.517647 565:0.509804 566:0.490196 567:0.458824 568:0.411765 569:0.352941 570:0 571:0 572:0 573:0 574:0 575:0 576:0 
8 1:0 2:0 3:0 4:0 5:0 6:0.32549 7:0.368627 8:0.423529 9:0.470588 10:0.509804 11:0.52549 12:0.521569 13:0.494118 14:0.462745 15:0.419608 16:0.372549 17:0 18:0 19:0 20:0 21:0 22:0 23:0 24:0 25:0 26:0 27:0 28:0 29:0 30:0.352941 31:0.427451 32:0.494118 33:0.54902 34:0.588235 35:0.619608 36:0.623529 37:0.607843 38:0.584314 39:0.556863 40:0.513726 41:0.45098 42:0.368627 43:0 44:0 45:0 46:0 47:0 48:0 49:0 50:0 51:0 52:0 53:0 54:0.4 55:0.490196 56:0.54902 57:0.6 58:0.643137 59:0.670588 60:0.694118 61:0.694118 62:0.686275 63:0.658824 64:0.619608 65:0.564706 66:0.494118 67:0.403922 68:0.321569 69:0.184314 70:0 71:0 72:0 73:0 74:0 75:0 76:0 77:0 78:0.447059 79:0.533333 80:0.588235 81:0.635294 82:0.67451 83:0.705882 84:0.729412 85:0.737255 86:0.729412 87:0.705882 88:0.670588 89:0.619608 90:0.556863 91:0.490196 92:0.411765 93:0.321569 94:0 95:0 96:0 97:0 98:0 99:0 100:0 101:0.372549 102:0.482353 103:0.564706 104:0.623529 105:0.662745 106:0.698039 107:0.721569 108:0.737255 109:0.745098 110:0.737255 111:0.721569 112:0.694118 113:0.647059 114:0.596078 115:0.533333 116:0.466667 117:0.384314 118:0.301961 119:0.211765 120:0 121:0 122:0.266667 123:0.282353 124:0.317647 125:0.411765 126:0.501961 127:0.592157 128:0.643137 129:0.686275 130:0.713726 131:0.721569 132:0.729412 133:0.737255 134:0.733333 135:0.713726 136:0.686275 137:0.65098 138:0.603922 139:0.552941 140:0.494118 141:0.427451 142:0.345098 143:0.262745 144:0.133333 145:0 146:0.294118 147:0.317647 148:0.360784 149:0.443137 150:0.517647 151:0.603922 152:0.658824 153:0.698039 154:0.713726 155:0.717647 156:0.721569 157:0.72549 158:0.717647 159:0.698039 160:0.670588 161:0.639216 162:0.603922 163:0.556863 164:0.501961 165:0.439216 166:0.364706 167:0.286275 168:0.215686 169:0 170:0.309804 171:0.337255 172:0.403922 173:0.466667 174:0.52549 175:0.603922 176:0.658824 177:0.701961 178:0.709804 179:0.713726 180:0.709804 181:0.709804 182:0.694118 183:0.67451 184:0.65098 185:0.623529 186:0.596078 187:0.556863 188:0.501961 189:0.439216 190:0.376471 191:0.294118 192:0.231373 193:0 194:0.305882 195:0.368627 196:0.435294 197:0.494118 198:0.541176 199:0.603922 200:0.654902 201:0.690196 202:0.701961 203:0.705882 204:0.701961 205:0.698039 206:0.678431 207:0.658824 208:0.635294 209:0.607843 210:0.584314 211:0.54902 212:0.498039 213:0.435294 214:0.376471 215:0.298039 216:0.239216 217:0 218:0.290196 219:0.392157 220:0.458824 221:0.513726 222:0.552941 223:0.607843 224:0.65098 225:0.678431 226:0.690196 227:0.694118 228:0.694118 229:0.682353 230:0.666667 231:0.647059 232:0.619608 233:0.596078 234:0.564706 235:0.52549 236:0.486275 237:0.423529 238:0.372549 239:0.298039 240:0.243137 241:0 242:0.282353 243:0.4 244:0.470588 245:0.52549 246:0.568627 247:0.611765 248:0.639216 249:0.662745 250:0.678431 251:0.682353 252:0.682353 253:0.666667 254:0.65098 255:0.623529 256:0.6 257:0.572549 258:0.541176 259:0.505882 260:0.466667 261:0.411765 262:0.368627 263:0.298039 264:0.247059 265:0 266:0.294118 267:0.396078 268:0.47451 269:0.533333 270:0.572549 271:0.6 272:0.619608 273:0.643137 274:0.65098 275:0.65098 276:0.647059 277:0.635294 278:0.615686 279:0.596078 280:0.572549 281:0.54902 282:0.52549 283:0.486275 284:0.454902 285:0.403922 286:0.360784 287:0.298039 288:0.243137 289:0 290:0.298039 291:0.384314 292:0.466667 293:0.529412 294:0.568627 295:0.588235 296:0.6 297:0.603922 298:0.607843 299:0.603922 300:0.592157 301:0.580392 302:0.572549 303:0.564706 304:0.552941 305:0.529412 306:0.505882 307:0.47451 308:0.447059 309:0.396078 310:0.356863 311:0.294118 312:0.239216 313:0 314:0.294118 315:0.376471 316:0.447059 317:0.517647 318:0.552941 319:0.576471 320:0.588235 321:0.592157 322:0.592157 323:0.584314 324:0.576471 325:0.572549 326:0.564706 327:0.552941 328:0.541176 329:0.521569 330:0.498039 331:0.470588 332:0.443137 333:0.392157 334:0.34902 335:0.286275 336:0.231373 337:0 338:0.282353 339:0.364706 340:0.431373 341:0.494118 342:0.537255 343:0.564706 344:0.576471 345:0.584314 346:0.580392 347:0.576471 348:0.572549 349:0.568627 350:0.560784 351:0.54902 352:0.537255 353:0.513726 354:0.494118 355:0.470588 356:0.439216 357:0.388235 358:0.341176 359:0.278431 360:0.219608 361:0 362:0.266667 363:0.356863 364:0.415686 365:0.47451 366:0.521569 367:0.552941 368:0.564706 369:0.572549 370:0.568627 371:0.568627 372:0.572549 373:0.568627 374:0.560784 375:0.54902 376:0.533333 377:0.509804 378:0.490196 379:0.470588 380:0.431373 381:0.380392 382:0.329412 383:0.262745 384:0.203922 385:0 386:0.25098 387:0.341176 388:0.407843 389:0.458824 390:0.501961 391:0.529412 392:0.545098 393:0.552941 394:0.556863 395:0.560784 396:0.564706 397:0.560784 398:0.552941 399:0.541176 400:0.533333 401:0.513726 402:0.490196 403:0.466667 404:0.423529 405:0.368627 406:0.305882 407:0.25098 408:0.192157 409:0 410:0.239216 411:0.32549 412:0.396078 413:0.443137 414:0.478431 415:0.513726 416:0.529412 417:0.537255 418:0.545098 419:0.54902 420:0.552941 421:0.54902 422:0.545098 423:0.541176 424:0.533333 425:0.517647 426:0.490196 427:0.458824 428:0.415686 429:0.352941 430:0.286275 431:0.227451 432:0.101961 433:0 434:0.231373 435:0.301961 436:0.372549 437:0.419608 438:0.454902 439:0.482353 440:0.505882 441:0.521569 442:0.52549 443:0.537255 444:0.541176 445:0.541176 446:0.545098 447:0.541176 448:0.533333 449:0.517647 450:0.490196 451:0.45098 452:0.403922 453:0.329412 454:0.270588 455:0.211765 456:0.0705882 457:0 458:0.223529 459:0.278431 460:0.337255 461:0.388235 462:0.419608 463:0.443137 464:0.462745 465:0.482353 466:0.501961 467:0.517647 468:0.52549 469:0.533333 470:0.537255 471:0.537255 472:0.533333 473:0.509804 474:0.47451 475:0.439216 476:0.380392 477:0.305882 478:0.247059 479:0.192157 480:0 481:0 482:0.211765 483:0.235294 484:0.286275 485:0.337255 486:0.364706 487:0.384314 488:0.403922 489:0.431373 490:0.462745 491:0.486275 492:0.505882 493:0.521569 494:0.529412 495:0.513726 496:0.498039 497:0.47451 498:0.447059 499:0.411765 500:0.341176 501:0.270588 502:0.223529 503:0.164706 504:0 505:0 506:0.184314 507:0.203922 508:0.239216 509:0.278431 510:0.309804 511:0.32549 512:0.337255 513:0.360784 514:0.403922 515:0.447059 516:0.470588 517:0.482353 518:0.478431 519:0.462745 520:0.45098 521:0.439216 522:0.415686 523:0.360784 524:0.298039 525:0.243137 526:0.196078 527:0 528:0 529:0 530:0 531:0 532:0 533:0.211765 534:0.239216 535:0.254902 536:0.262745 537:0.27451 538:0.317647 539:0.376471 540:0.407843 541:0.419608 542:0.411765 543:0.403922 544:0.396078 545:0.396078 546:0.360784 547:0.301961 548:0.254902 549:0.203922 550:0 551:0 552:0 553:0 554:0 555:0 556:0 557:0 558:0 559:0 560:0 561:0.117647 562:0.219608 563:0.270588 564:0.313726 565:0.321569 566:0.321569 567:0.329412 568:0.337255 569:0.333333 570:0.294118 571:0.25098 572:0.207843 573:0.14902 574:0 575:0 576:0 
0.02938784140153906 1:0 2:0 3:0 4:0 5:0 6:0 7:0 8:0 9:0 10:0 11:0 12:0.270588 13:0.305882 14:0.321569 15:0.321569 16:0.309804 17:0.294118 18:0.270588 19:0.227451 20:0.137255 21:0 22:0 23:0 24:0 25:0 26:0 27:0 28:0 29:0 30:0 31:0 32:0 33:0 34:0.0705882 35:0.286275 36:0.329412 37:0.360784 38:0.368627 39:0.368627 40:0.356863 41:0.341176 42:0.317647 43:0.27451 44:0.223529 45:0 46:0 47:0 48:0 49:0 50:0 51:0 52:0 53:0 54:0.0823529 55:0.227451 56:0.239216 57:0.266667 58:0.301961 59:0.34902 60:0.388235 61:0.415686 62:0.427451 63:0.423529 64:0.4 65:0.380392 66:0.364706 67:0.32549 68:0.27451 69:0.211765 70:0 71:0 72:0 73:0 74:0 75:0.203922 76:0.227451 77:0.258824 78:0.278431 79:0.294118 80:0.305882 81:0.329412 82:0.360784 83:0.403922 84:0.439216 85:0.466667 86:0.47451 87:0.466667 88:0.443137 89:0.419608 90:0.4 91:0.372549 92:0.321569 93:0.254902 94:0.0823529 95:0 96:0 97:0 98:0 99:0.243137 100:0.27451 101:0.298039 102:0.32549 103:0.352941 104:0.360784 105:0.380392 106:0.407843 107:0.45098 108:0.486275 109:0.505882 110:0.509804 111:0.501961 112:0.478431 113:0.443137 114:0.427451 115:0.403922 116:0.360784 117:0.286275 118:0.219608 119:0 120:0 121:0 122:0 123:0.27451 124:0.301961 125:0.333333 126:0.372549 127:0.407843 128:0.411765 129:0.423529 130:0.45098 131:0.490196 132:0.521569 133:0.537255 134:0.537255 135:0.529412 136:0.509804 137:0.47451 138:0.443137 139:0.423529 140:0.388235 141:0.32549 142:0.254902 143:0.180392 144:0 145:0 146:0 147:0.294118 148:0.321569 149:0.368627 150:0.411765 151:0.439216 152:0.45098 153:0.462745 154:0.490196 155:0.52549 156:0.552941 157:0.560784 158:0.564706 159:0.552941 160:0.537255 161:0.498039 162:0.462745 163:0.435294 164:0.407843 165:0.34902 166:0.282353 167:0.203922 168:0 169:0 170:0 171:0.305882 172:0.34902 173:0.403922 174:0.439216 175:0.466667 176:0.482353 177:0.501961 178:0.52549 179:0.552941 180:0.572549 181:0.576471 182:0.580392 183:0.580392 184:0.560784 185:0.529412 186:0.494118 187:0.45098 188:0.419608 189:0.372549 190:0.309804 191:0.239216 192:0 193:0 194:0 195:0.313726 196:0.368627 197:0.419608 198:0.458824 199:0.490196 200:0.505882 201:0.529412 202:0.552941 203:0.572549 204:0.580392 205:0.588235 206:0.592157 207:0.592157 208:0.580392 209:0.552941 210:0.517647 211:0.470588 212:0.435294 213:0.392157 214:0.333333 215:0.266667 216:0.192157 217:0 218:0 219:0.32549 220:0.380392 221:0.431373 222:0.47451 223:0.501961 224:0.521569 225:0.545098 226:0.572549 227:0.588235 228:0.588235 229:0.596078 230:0.603922 231:0.6 232:0.588235 233:0.564706 234:0.533333 235:0.486275 236:0.447059 237:0.407843 238:0.352941 239:0.290196 240:0.211765 241:0 242:0.278431 243:0.329412 244:0.388235 245:0.439216 246:0.482353 247:0.509804 248:0.529412 249:0.560784 250:0.588235 251:0.596078 252:0.6 253:0.611765 254:0.615686 255:0.607843 256:0.592157 257:0.568627 258:0.541176 259:0.494118 260:0.454902 261:0.419608 262:0.364706 263:0.305882 264:0.235294 265:0 266:0.286275 267:0.337255 268:0.396078 269:0.443137 270:0.486275 271:0.513726 272:0.541176 273:0.580392 274:0.6 275:0.611765 276:0.619608 277:0.623529 278:0.623529 279:0.615686 280:0.592157 281:0.568627 282:0.541176 283:0.498039 284:0.458824 285:0.423529 286:0.376471 287:0.317647 288:0.254902 289:0 290:0.286275 291:0.341176 292:0.4 293:0.45098 294:0.494118 295:0.521569 296:0.556863 297:0.592157 298:0.615686 299:0.627451 300:0.635294 301:0.631373 302:0.627451 303:0.615686 304:0.596078 305:0.572549 306:0.545098 307:0.505882 308:0.466667 309:0.435294 310:0.388235 311:0.333333 312:0.270588 313:0 314:0.278431 315:0.352941 316:0.407843 317:0.458824 318:0.501961 319:0.541176 320:0.576471 321:0.607843 322:0.627451 323:0.643137 324:0.647059 325:0.639216 326:0.631373 327:0.619608 328:0.607843 329:0.588235 330:0.560784 331:0.521569 332:0.482353 333:0.45098 334:0.411765 335:0.352941 336:0.286275 337:0 338:0.266667 339:0.352941 340:0.411765 341:0.470588 342:0.513726 343:0.556863 344:0.592157 345:0.615686 346:0.639216 347:0.654902 348:0.662745 349:0.658824 350:0.643137 351:0.631373 352:0.623529 353:0.611765 354:0.588235 355:0.552941 356:0.505882 357:0.470588 358:0.431373 359:0.372549 360:0.294118 361:0 362:0 363:0.352941 364:0.415686 365:0.470588 366:0.517647 367:0.564706 368:0.596078 369:0.623529 370:0.647059 371:0.670588 372:0.67451 373:0.67451 374:0.666667 375:0.65098 376:0.643137 377:0.635294 378:0.615686 379:0.584314 380:0.541176 381:0.494118 382:0.447059 383:0.384314 384:0.298039 385:0 386:0 387:0.34902 388:0.419608 389:0.466667 390:0.513726 391:0.560784 392:0.592157 393:0.631373 394:0.662745 395:0.682353 396:0.701961 397:0.701961 398:0.690196 399:0.682353 400:0.670588 401:0.654902 402:0.635294 403:0.603922 404:0.564706 405:0.513726 406:0.458824 407:0.388235 408:0.294118 409:0 410:0 411:0.341176 412:0.411765 413:0.458824 414:0.505882 415:0.54902 416:0.588235 417:0.639216 418:0.67451 419:0.698039 420:0.713726 421:0.713726 422:0.705882 423:0.694118 424:0.686275 425:0.678431 426:0.654902 427:0.619608 428:0.580392 429:0.52549 430:0.458824 431:0.380392 432:0.278431 433:0 434:0 435:0.32549 436:0.388235 437:0.45098 438:0.494118 439:0.537255 440:0.576471 441:0.635294 442:0.67451 443:0.694118 444:0.709804 445:0.713726 446:0.713726 447:0.709804 448:0.701961 449:0.690196 450:0.67451 451:0.627451 452:0.580392 453:0.517647 454:0.443137 455:0.352941 456:0.243137 457:0 458:0 459:0.305882 460:0.356863 461:0.431373 462:0.478431 463:0.521569 464:0.556863 465:0.615686 466:0.654902 467:0.678431 468:0.694118 469:0.709804 470:0.721569 471:0.72549 472:0.717647 473:0.701961 474:0.682353 475:0.627451 476:0.568627 477:0.490196 478:0.407843 479:0.294118 480:0 481:0 482:0 483:0.262745 484:0.313726 485:0.388235 486:0.454902 487:0.505882 488:0.537255 489:0.580392 490:0.623529 491:0.658824 492:0.67451 493:0.694118 494:0.721569 495:0.729412 496:0.721569 497:0.701961 498:0.670588 499:0.607843 500:0.529412 501:0.439216 502:0.333333 503:0.168627 504:0 505:0 506:0 507:0.2 508:0.227451 509:0.32549 510:0.411765 511:0.470588 512:0.513726 513:0.545098 514:0.588235 515:0.623529 516:0.65098 517:0.67451 518:0.698039 519:0.713726 520:0.705882 521:0.67451 522:0.623529 523:0.545098 524:0.458824 525:0.34902 526:0.219608 527:0 528:0 529:0 530:0 531:0 532:0 533:0 534:0.352941 535:0.427451 536:0.470588 537:0.513726 538:0.552941 539:0.584314 540:0.615686 541:0.643137 542:0.662745 543:0.666667 544:0.643137 545:0.603922 546:0.545098 547:0.462745 548:0.352941 549:0.207843 550:0 551:0 552:0 553:0 554:0 555:0 556:0 557:0 558:0 559:0.364706 560:0.423529 561:0.466667 562:0.505882 563:0.541176 564:0.568627 565:0.588235 566:0.592157 567:0.580392 568:0.556863 569:0.505882 570:0.439216 571:0.317647 572:0.145098 573:0 574:0 575:0 576:0 
0.1903001699695788 1:0 2:0 3:0 4:0 5:0 6:0 7:0 8:0 9:0 10:0 11:0.243137 12:0.294118 13:0.321569 14:0.333333 15:0.333333 16:0.321569 17:0.298039 18:0.262745 19:0.211765 20:0 21:0 22:0 23:0 24:0 25:0 26:0 27:0 28:0 29:0 30:0 31:0 32:0 33:0 34:0 35:0.294118 36:0.341176 37:0.372549 38:0.384314 39:0.380392 40:0.376471 41:0.356863 42:0.32549 43:0.270588 44:0.203922 45:0 46:0 47:0 48:0 49:0 50:0 51:0 52:0 53:0 54:0 55:0 56:0 57:0.239216 58:0.298039 59:0.352941 60:0.4 61:0.427451 62:0.439216 63:0.435294 64:0.427451 65:0.415686 66:0.384314 67:0.337255 68:0.266667 69:0.192157 70:0 71:0 72:0 73:0 74:0 75:0 76:0 77:0.219608 78:0.25098 79:0.266667 80:0.282353 81:0.309804 82:0.360784 83:0.411765 84:0.454902 85:0.47451 86:0.486275 87:0.482353 88:0.47451 89:0.462745 90:0.443137 91:0.392157 92:0.333333 93:0.247059 94:0.180392 95:0 96:0 97:0 98:0.192157 99:0.211765 100:0.247059 101:0.282353 102:0.309804 103:0.32549 104:0.341176 105:0.364706 106:0.415686 107:0.466667 108:0.501961 109:0.521569 110:0.529412 111:0.517647 112:0.505882 113:0.498039 114:0.478431 115:0.439216 116:0.372549 117:0.298039 118:0.223529 119:0 120:0 121:0 122:0.207843 123:0.239216 124:0.282353 125:0.317647 126:0.356863 127:0.372549 128:0.388235 129:0.411765 130:0.462745 131:0.513726 132:0.541176 133:0.560784 134:0.564706 135:0.556863 136:0.533333 137:0.517647 138:0.505882 139:0.478431 140:0.407843 141:0.341176 142:0.270588 143:0.129412 144:0 145:0 146:0.215686 147:0.266667 148:0.305882 149:0.356863 150:0.392157 151:0.415686 152:0.427451 153:0.454902 154:0.509804 155:0.54902 156:0.572549 157:0.584314 158:0.588235 159:0.584314 160:0.564706 161:0.537255 162:0.517647 163:0.501961 164:0.443137 165:0.368627 166:0.301961 167:0.227451 168:0 169:0 170:0.215686 171:0.282353 172:0.329412 173:0.388235 174:0.419608 175:0.439216 176:0.458824 177:0.494118 178:0.54902 179:0.584314 180:0.596078 181:0.607843 182:0.619608 183:0.615686 184:0.596078 185:0.564706 186:0.541176 187:0.517647 188:0.466667 189:0.4 190:0.333333 191:0.266667 192:0.188235 193:0 194:0.215686 195:0.290196 196:0.34902 197:0.407843 198:0.435294 199:0.458824 200:0.486275 201:0.533333 202:0.576471 203:0.6 204:0.611765 205:0.623529 206:0.639216 207:0.639216 208:0.623529 209:0.596078 210:0.564706 211:0.533333 212:0.490196 213:0.431373 214:0.360784 215:0.290196 216:0.211765 217:0 218:0.227451 219:0.305882 220:0.368627 221:0.415686 222:0.443137 223:0.478431 224:0.509804 225:0.560784 226:0.592157 227:0.607843 228:0.619608 229:0.647059 230:0.658824 231:0.654902 232:0.643137 233:0.615686 234:0.588235 235:0.552941 236:0.505882 237:0.454902 238:0.388235 239:0.313726 240:0.227451 241:0 242:0.247059 243:0.313726 244:0.372549 245:0.419608 246:0.454902 247:0.486275 248:0.529412 249:0.576471 250:0.6 251:0.615686 252:0.631373 253:0.662745 254:0.670588 255:0.666667 256:0.654902 257:0.631373 258:0.6 259:0.564706 260:0.517647 261:0.470588 262:0.407843 263:0.337255 264:0.247059 265:0 266:0.254902 267:0.317647 268:0.376471 269:0.419608 270:0.458824 271:0.494118 272:0.545098 273:0.584314 274:0.603922 275:0.619608 276:0.65098 277:0.666667 278:0.670588 279:0.666667 280:0.654902 281:0.635294 282:0.603922 283:0.572549 284:0.521569 285:0.478431 286:0.419608 287:0.352941 288:0.262745 289:0 290:0.254902 291:0.317647 292:0.376471 293:0.423529 294:0.462745 295:0.498039 296:0.54902 297:0.584314 298:0.607843 299:0.631373 300:0.654902 301:0.666667 302:0.670588 303:0.662745 304:0.654902 305:0.635294 306:0.607843 307:0.572549 308:0.529412 309:0.482353 310:0.431373 311:0.364706 312:0.282353 313:0 314:0.254902 315:0.317647 316:0.380392 317:0.423529 318:0.470588 319:0.509804 320:0.552941 321:0.588235 322:0.615686 323:0.639216 324:0.654902 325:0.662745 326:0.666667 327:0.662745 328:0.654902 329:0.639216 330:0.611765 331:0.580392 332:0.541176 333:0.498039 334:0.443137 335:0.376471 336:0.294118 337:0 338:0.247059 339:0.317647 340:0.380392 341:0.431373 342:0.47451 343:0.517647 344:0.552941 345:0.584314 346:0.623529 347:0.643137 348:0.65098 349:0.658824 350:0.662745 351:0.666667 352:0.662745 353:0.65098 354:0.619608 355:0.592157 356:0.556863 357:0.513726 358:0.454902 359:0.384314 360:0.298039 361:0 362:0.231373 363:0.313726 364:0.376471 365:0.431373 366:0.47451 367:0.521569 368:0.556863 369:0.588235 370:0.627451 371:0.647059 372:0.654902 373:0.662745 374:0.670588 375:0.682353 376:0.686275 377:0.670588 378:0.643137 379:0.611765 380:0.580392 381:0.533333 382:0.470588 383:0.388235 384:0.294118 385:0 386:0.215686 387:0.305882 388:0.364706 389:0.427451 390:0.470588 391:0.517647 392:0.560784 393:0.596078 394:0.635294 395:0.65098 396:0.658824 397:0.666667 398:0.690196 399:0.701961 400:0.701961 401:0.694118 402:0.670588 403:0.639216 404:0.596078 405:0.545098 406:0.478431 407:0.384314 408:0.282353 409:0 410:0.215686 411:0.290196 412:0.356863 413:0.415686 414:0.466667 415:0.513726 416:0.560784 417:0.603922 418:0.627451 419:0.65098 420:0.662745 421:0.682353 422:0.701961 423:0.709804 424:0.709804 425:0.705882 426:0.690196 427:0.654902 428:0.611765 429:0.552941 430:0.47451 431:0.364706 432:0.262745 433:0 434:0.207843 435:0.266667 436:0.341176 437:0.403922 438:0.45098 439:0.505882 440:0.556863 441:0.6 442:0.619608 443:0.647059 444:0.666667 445:0.694118 446:0.713726 447:0.72549 448:0.72549 449:0.713726 450:0.701961 451:0.666667 452:0.615686 453:0.545098 454:0.458824 455:0.337255 456:0.227451 457:0 458:0.188235 459:0.227451 460:0.309804 461:0.380392 462:0.431373 463:0.486275 464:0.541176 465:0.572549 466:0.607843 467:0.631373 468:0.670588 469:0.694118 470:0.721569 471:0.733333 472:0.729412 473:0.721569 474:0.701961 475:0.658824 476:0.596078 477:0.513726 478:0.419608 479:0.294118 480:0 481:0 482:0.133333 483:0.184314 484:0.258824 485:0.345098 486:0.403922 487:0.454902 488:0.505882 489:0.552941 490:0.580392 491:0.615686 492:0.662745 493:0.690196 494:0.709804 495:0.729412 496:0.72549 497:0.709804 498:0.670588 499:0.611765 500:0.545098 501:0.454902 502:0.34902 503:0.180392 504:0 505:0 506:0 507:0 508:0 509:0.290196 510:0.368627 511:0.419608 512:0.466667 513:0.521569 514:0.556863 515:0.584314 516:0.639216 517:0.67451 518:0.694118 519:0.709804 520:0.694118 521:0.662745 522:0.615686 523:0.545098 524:0.466667 525:0.356863 526:0.247059 527:0 528:0 529:0 530:0 531:0 532:0 533:0 534:0.305882 535:0.376471 536:0.431373 537:0.478431 538:0.521569 539:0.552941 540:0.592157 541:0.631373 542:0.647059 543:0.643137 544:0.627451 545:0.588235 546:0.529412 547:0.45098 548:0.34902 549:0.235294 550:0 551:0 552:0 553:0 554:0 555:0 556:0 557:0 558:0.243137 559:0.317647 560:0.376471 561:0.427451 562:0.470588 563:0.509804 564:0.533333 565:0.560784 566:0.568627 567:0.552941 568:0.529412 569:0.482353 570:0.411765 571:0.313726 572:0 573:0 574:0 575:0 576:0 
0.05080919722897333 1:0 2:0 3:0 4:0 5:0 6:0 7:0 8:0 9:0 10:0 11:0 12:0 13:0 14:0.305882 15:0.32549 16:0.341176 17:0.341176 18:0.321569 19:0.282353 20:0.243137 21:0 22:0 23:0 24:0 25:0 26:0 27:0 28:0 29:0 30:0 31:0 32:0 33:0 34:0 35:0.258824 36:0.27451 37:0.313726 38:0.345098 39:0.372549 40:0.388235 41:0.384314 42:0.360784 43:0.321569 44:0.282353 45:0.231373 46:0 47:0 48:0 49:0 50:0.301961 51:0.301961 52:0.298039 53:0.309804 54:0.321569 55:0.333333 56:0.345098 57:0.345098 58:0.34902 59:0.368627 60:0.380392 61:0.392157 62:0.411765 63:0.423529 64:0.427451 65:0.415686 66:0.396078 67:0.356863 68:0.313726 69:0.262745 70:0.215686 71:0 72:0 73:0 74:0.356863 75:0.364706 76:0.384314 77:0.407843 78:0.423529 79:0.431373 80:0.431373 81:0.427451 82:0.431373 83:0.447059 84:0.458824 85:0.462745 86:0.466667 87:0.470588 88:0.466667 89:0.447059 90:0.423529 91:0.384314 92:0.352941 93:0.298039 94:0.239216 95:0.192157 96:0 97:0 98:0.384314 99:0.411765 100:0.443137 101:0.478431 102:0.494118 103:0.505882 104:0.498039 105:0.494118 106:0.494118 107:0.505882 108:0.513726 109:0.513726 110:0.509804 111:0.501961 112:0.490196 113:0.47451 114:0.45098 115:0.407843 116:0.372549 117:0.321569 118:0.266667 119:0.211765 120:0 121:0 122:0.4 123:0.443137 124:0.482353 125:0.517647 126:0.545098 127:0.556863 128:0.556863 129:0.541176 130:0.537255 131:0.541176 132:0.541176 133:0.541176 134:0.533333 135:0.521569 136:0.509804 137:0.490196 138:0.466667 139:0.419608 140:0.380392 141:0.341176 142:0.290196 143:0.231373 144:0.133333 145:0 146:0.411765 147:0.470588 148:0.509804 149:0.552941 150:0.572549 151:0.592157 152:0.596078 153:0.584314 154:0.572549 155:0.564706 156:0.560784 157:0.552941 158:0.541176 159:0.533333 160:0.517647 161:0.498039 162:0.470588 163:0.427451 164:0.388235 165:0.34902 166:0.301961 167:0.247059 168:0.196078 169:0 170:0.403922 171:0.486275 172:0.541176 173:0.576471 174:0.603922 175:0.623529 176:0.623529 177:0.607843 178:0.6 179:0.592157 180:0.580392 181:0.568627 182:0.556863 183:0.541176 184:0.52549 185:0.501961 186:0.470588 187:0.423529 188:0.392157 189:0.34902 190:0.309804 191:0.254902 192:0.203922 193:0 194:0.4 195:0.498039 196:0.556863 197:0.6 198:0.627451 199:0.643137 200:0.647059 201:0.631373 202:0.615686 203:0.603922 204:0.596078 205:0.584314 206:0.568627 207:0.54902 208:0.529412 209:0.505882 210:0.466667 211:0.423529 212:0.392157 213:0.352941 214:0.313726 215:0.262745 216:0.211765 217:0 218:0.423529 219:0.505882 220:0.568627 221:0.615686 222:0.643137 223:0.658824 224:0.666667 225:0.662745 226:0.635294 227:0.615686 228:0.607843 229:0.596078 230:0.580392 231:0.556863 232:0.533333 233:0.505882 234:0.470588 235:0.423529 236:0.396078 237:0.356863 238:0.317647 239:0.262745 240:0.215686 241:0 242:0.447059 243:0.513726 244:0.572549 245:0.627451 246:0.65098 247:0.670588 248:0.678431 249:0.678431 250:0.662745 251:0.631373 252:0.615686 253:0.603922 254:0.588235 255:0.564706 256:0.537255 257:0.505882 258:0.47451 259:0.427451 260:0.4 261:0.360784 262:0.317647 263:0.270588 264:0.219608 265:0 266:0.454902 267:0.517647 268:0.572549 269:0.627451 270:0.654902 271:0.67451 272:0.682353 273:0.682353 274:0.670588 275:0.65098 276:0.627451 277:0.611765 278:0.592157 279:0.568627 280:0.537255 281:0.505882 282:0.47451 283:0.435294 284:0.407843 285:0.368627 286:0.32549 287:0.278431 288:0.227451 289:0 290:0.454902 291:0.517647 292:0.572549 293:0.623529 294:0.654902 295:0.67451 296:0.678431 297:0.678431 298:0.666667 299:0.65098 300:0.631373 301:0.615686 302:0.596078 303:0.564706 304:0.533333 305:0.501961 306:0.47451 307:0.439216 308:0.411765 309:0.372549 310:0.329412 311:0.286275 312:0.231373 313:0 314:0.435294 315:0.505882 316:0.564706 317:0.611765 318:0.643137 319:0.662745 320:0.670588 321:0.666667 322:0.658824 323:0.639216 324:0.631373 325:0.615686 326:0.592157 327:0.556863 328:0.533333 329:0.501961 330:0.47451 331:0.443137 332:0.415686 333:0.372549 334:0.333333 335:0.286275 336:0.235294 337:0 338:0.384314 339:0.486275 340:0.54902 341:0.596078 342:0.627451 343:0.65098 344:0.658824 345:0.654902 346:0.647059 347:0.635294 348:0.627451 349:0.611765 350:0.584314 351:0.552941 352:0.52549 353:0.498039 354:0.470588 355:0.447059 356:0.419608 357:0.376471 358:0.341176 359:0.290196 360:0.239216 361:0 362:0 363:0.466667 364:0.533333 365:0.580392 366:0.611765 367:0.635294 368:0.647059 369:0.647059 370:0.643137 371:0.631373 372:0.627451 373:0.607843 374:0.576471 375:0.54902 376:0.52549 377:0.498039 378:0.47451 379:0.447059 380:0.419608 381:0.380392 382:0.341176 383:0.290196 384:0.239216 385:0 386:0 387:0.443137 388:0.505882 389:0.560784 390:0.592157 391:0.619608 392:0.639216 393:0.639216 394:0.635294 395:0.631373 396:0.619608 397:0.596078 398:0.572549 399:0.545098 400:0.521569 401:0.498039 402:0.478431 403:0.45098 404:0.423529 405:0.384314 406:0.341176 407:0.286275 408:0.235294 409:0 410:0 411:0.423529 412:0.482353 413:0.537255 414:0.568627 415:0.596078 416:0.619608 417:0.631373 418:0.631373 419:0.623529 420:0.6 421:0.576471 422:0.564706 423:0.541176 424:0.521569 425:0.501961 426:0.482353 427:0.458824 428:0.427451 429:0.388235 430:0.337255 431:0.282353 432:0.231373 433:0 434:0 435:0.396078 436:0.458824 437:0.509804 438:0.54902 439:0.576471 440:0.596078 441:0.611765 442:0.607843 443:0.596078 444:0.580392 445:0.568627 446:0.556863 447:0.541176 448:0.52549 449:0.505882 450:0.486275 451:0.458824 452:0.423529 453:0.384314 454:0.32549 455:0.270588 456:0.219608 457:0 458:0 459:0.360784 460:0.415686 461:0.478431 462:0.513726 463:0.54902 464:0.568627 465:0.580392 466:0.572549 467:0.568627 468:0.564706 469:0.556863 470:0.545098 471:0.533333 472:0.52549 473:0.505882 474:0.486275 475:0.45098 476:0.415686 477:0.364706 478:0.305882 479:0.247059 480:0.180392 481:0 482:0 483:0.290196 484:0.368627 485:0.439216 486:0.482353 487:0.513726 488:0.541176 489:0.556863 490:0.556863 491:0.556863 492:0.556863 493:0.54902 494:0.537255 495:0.533333 496:0.521569 497:0.501961 498:0.470588 499:0.431373 500:0.388235 501:0.329412 502:0.27451 503:0.215686 504:0 505:0 506:0 507:0 508:0 509:0.396078 510:0.443137 511:0.478431 512:0.505882 513:0.521569 514:0.533333 515:0.541176 516:0.537255 517:0.533333 518:0.529412 519:0.52549 520:0.505882 521:0.47451 522:0.439216 523:0.392157 524:0.341176 525:0.282353 526:0.219608 527:0 528:0 529:0 530:0 531:0 532:0 533:0.352941 534:0.407843 535:0.443137 536:0.470588 537:0.490196 538:0.505882 539:0.509804 540:0.513726 541:0.509804 542:0.505882 543:0.494118 544:0.466667 545:0.427451 546:0.388235 547:0.329412 548:0.27451 549:0.156863 550:0 551:0 552:0 553:0 554:0 555:0 556:0 557:0.333333 558:0.372549 559:0.411765 560:0.439216 561:0.458824 562:0.470588 563:0.47451 564:0.466667 565:0.462745 566:0.45098 567:0.431373 568:0.4 569:0.356863 570:0.301961 571:0.227451 572:0 573:0 574:0 575:0 576:0 
3.661006071614569 1:0 2:0 3:0 4:0 5:0 6:0 7:0 8:0 9:0 10:0 11:0 12:0.266667 13:0.294118 14:0.305882 15:0.301961 16:0.290196 17:0.27451 18:0.25098 19:0.211765 20:0 21:0 22:0 23:0 24:0 25:0 26:0 27:0 28:0 29:0 30:0 31:0 32:0 33:0 34:0.235294 35:0.298039 36:0.329412 37:0.352941 38:0.360784 39:0.356863 40:0.337255 41:0.313726 42:0.294118 43:0.254902 44:0.211765 45:0 46:0 47:0 48:0 49:0 50:0 51:0 52:0 53:0 54:0 55:0.239216 56:0.25098 57:0.286275 58:0.329412 59:0.372549 60:0.4 61:0.411765 62:0.411765 63:0.403922 64:0.384314 65:0.356863 66:0.333333 67:0.298039 68:0.25098 69:0.164706 70:0 71:0 72:0 73:0 74:0 75:0.215686 76:0.247059 77:0.278431 78:0.298039 79:0.317647 80:0.337255 81:0.360784 82:0.396078 83:0.435294 84:0.458824 85:0.466667 86:0.462745 87:0.454902 88:0.435294 89:0.4 90:0.368627 91:0.341176 92:0.294118 93:0.227451 94:0 95:0 96:0 97:0 98:0 99:0.258824 100:0.294118 101:0.32549 102:0.356863 103:0.380392 104:0.396078 105:0.419608 106:0.447059 107:0.482353 108:0.505882 109:0.509804 110:0.505882 111:0.494118 112:0.47451 113:0.443137 114:0.396078 115:0.364706 116:0.329412 117:0.262745 118:0.192157 119:0 120:0 121:0 122:0 123:0.290196 124:0.32549 125:0.364706 126:0.403922 127:0.439216 128:0.454902 129:0.470588 130:0.494118 131:0.52549 132:0.54902 133:0.556863 134:0.545098 135:0.521569 136:0.501961 137:0.47451 138:0.435294 139:0.380392 140:0.352941 141:0.294118 142:0.223529 143:0 144:0 145:0 146:0 147:0.309804 148:0.34902 149:0.4 150:0.443137 151:0.47451 152:0.494118 153:0.509804 154:0.537255 155:0.568627 156:0.588235 157:0.584314 158:0.572549 159:0.552941 160:0.52549 161:0.494118 162:0.462745 163:0.403922 164:0.364706 165:0.313726 166:0.247059 167:0.133333 168:0 169:0 170:0 171:0.317647 172:0.368627 173:0.427451 174:0.470588 175:0.505882 176:0.533333 177:0.556863 178:0.580392 179:0.603922 180:0.611765 181:0.603922 182:0.584314 183:0.564706 184:0.545098 185:0.513726 186:0.478431 187:0.427451 188:0.380392 189:0.329412 190:0.270588 191:0.145098 192:0 193:0 194:0 195:0.329412 196:0.388235 197:0.447059 198:0.498039 199:0.533333 200:0.564706 201:0.588235 202:0.611765 203:0.627451 204:0.627451 205:0.619608 206:0.603922 207:0.576471 208:0.556863 209:0.529412 210:0.490196 211:0.447059 212:0.4 213:0.345098 214:0.286275 215:0.219608 216:0 217:0 218:0.207843 219:0.341176 220:0.4 221:0.462745 222:0.513726 223:0.552941 224:0.584314 225:0.607843 226:0.631373 227:0.639216 228:0.639216 229:0.627451 230:0.611765 231:0.592157 232:0.564706 233:0.541176 234:0.501961 235:0.454902 236:0.415686 237:0.356863 238:0.301961 239:0.231373 240:0.152941 241:0.223529 242:0.278431 243:0.356863 244:0.411765 245:0.47451 246:0.52549 247:0.568627 248:0.6 249:0.623529 250:0.647059 251:0.654902 252:0.647059 253:0.635294 254:0.619608 255:0.603922 256:0.576471 257:0.54902 258:0.513726 259:0.462745 260:0.423529 261:0.372549 262:0.313726 263:0.247059 264:0.184314 265:0.25098 266:0.294118 267:0.368627 268:0.419608 269:0.482353 270:0.533333 271:0.576471 272:0.603922 273:0.631373 274:0.662745 275:0.67451 276:0.662745 277:0.647059 278:0.631373 279:0.611765 280:0.580392 281:0.54902 282:0.513726 283:0.466667 284:0.427451 285:0.380392 286:0.329412 287:0.258824 288:0.2 289:0.25098 290:0.294118 291:0.372549 292:0.423529 293:0.486275 294:0.541176 295:0.584314 296:0.611765 297:0.647059 298:0.67451 299:0.682353 300:0.682353 301:0.658824 302:0.643137 303:0.619608 304:0.580392 305:0.545098 306:0.517647 307:0.47451 308:0.439216 309:0.392157 310:0.341176 311:0.278431 312:0.211765 313:0.223529 314:0.278431 315:0.368627 316:0.423529 317:0.490196 318:0.541176 319:0.592157 320:0.623529 321:0.654902 322:0.678431 323:0.690196 324:0.690196 325:0.678431 326:0.647059 327:0.619608 328:0.584314 329:0.556863 330:0.529412 331:0.494118 332:0.454902 333:0.407843 334:0.356863 335:0.298039 336:0.227451 337:0.133333 338:0.168627 339:0.352941 340:0.423529 341:0.486275 342:0.541176 343:0.592157 344:0.631373 345:0.662745 346:0.682353 347:0.698039 348:0.701961 349:0.690196 350:0.666667 351:0.631373 352:0.596078 353:0.576471 354:0.552941 355:0.521569 356:0.482353 357:0.427451 358:0.376471 359:0.313726 360:0.239216 361:0 362:0 363:0.337255 364:0.415686 365:0.478431 366:0.533333 367:0.584314 368:0.631373 369:0.662745 370:0.694118 371:0.713726 372:0.721569 373:0.709804 374:0.690196 375:0.654902 376:0.623529 377:0.596078 378:0.576471 379:0.54902 380:0.509804 381:0.458824 382:0.392157 383:0.329412 384:0.25098 385:0 386:0 387:0.321569 388:0.407843 389:0.470588 390:0.52549 391:0.572549 392:0.623529 393:0.658824 394:0.701961 395:0.72549 396:0.733333 397:0.729412 398:0.705882 399:0.67451 400:0.65098 401:0.627451 402:0.603922 403:0.568627 404:0.529412 405:0.478431 406:0.403922 407:0.333333 408:0.25098 409:0 410:0 411:0.309804 412:0.388235 413:0.458824 414:0.509804 415:0.560784 416:0.607843 417:0.65098 418:0.698039 419:0.72549 420:0.737255 421:0.733333 422:0.713726 423:0.694118 424:0.67451 425:0.658824 426:0.635294 427:0.596078 428:0.545098 429:0.486275 430:0.407843 431:0.329412 432:0.243137 433:0 434:0 435:0.301961 436:0.368627 437:0.443137 438:0.498039 439:0.541176 440:0.588235 441:0.635294 442:0.682353 443:0.713726 444:0.72549 445:0.72549 446:0.705882 447:0.698039 448:0.690196 449:0.67451 450:0.658824 451:0.615686 452:0.556863 453:0.486275 454:0.403922 455:0.313726 456:0.223529 457:0 458:0 459:0.27451 460:0.32549 461:0.403922 462:0.47451 463:0.521569 464:0.560784 465:0.607843 466:0.65098 467:0.686275 468:0.698039 469:0.701961 470:0.701961 471:0.701961 472:0.698039 473:0.686275 474:0.666667 475:0.619608 476:0.556863 477:0.470588 478:0.376471 479:0.286275 480:0.192157 481:0 482:0 483:0.227451 484:0.27451 485:0.352941 486:0.427451 487:0.486275 488:0.529412 489:0.568627 490:0.611765 491:0.643137 492:0.666667 493:0.682353 494:0.694118 495:0.701961 496:0.701961 497:0.690196 498:0.654902 499:0.6 500:0.52549 501:0.439216 502:0.341176 503:0.235294 504:0 505:0 506:0 507:0 508:0 509:0 510:0.360784 511:0.435294 512:0.490196 513:0.529412 514:0.564706 515:0.603922 516:0.627451 517:0.654902 518:0.670588 519:0.690196 520:0.690196 521:0.662745 522:0.619608 523:0.545098 524:0.47451 525:0.376471 526:0.278431 527:0 528:0 529:0 530:0 531:0 532:0 533:0 534:0 535:0.372549 536:0.435294 537:0.478431 538:0.517647 539:0.556863 540:0.580392 541:0.607843 542:0.631373 543:0.639216 544:0.631373 545:0.603922 546:0.545098 547:0.47451 548:0.4 549:0.298039 550:0 551:0 552:0 553:0 554:0 555:0 556:0 557:0 558:0 559:0.294118 560:0.372549 561:0.423529 562:0.466667 563:0.505882 564:0.533333 565:0.556863 566:0.568627 567:0.568627 568:0.54902 569:0.513726 570:0.458824 571:0.384314 572:0.298039 573:0 574:0 575:0 576:0 
3.592416854770669 1:0 2:0 3:0 4:0 5:0 6:0 7:0 8:0 9:0 10:0.247059 11:0.301961 12:0.333333 13:0.34902 14:0.352941 15:0.352941 16:0.341176 17:0.313726 18:0.27451 19:0.223529 20:0 21:0 22:0 23:0 24:0 25:0 26:0 27:0 28:0 29:0 30:0 31:0 32:0 33:0.262745 34:0.32549 35:0.372549 36:0.392157 37:0.407843 38:0.415686 39:0.411765 40:0.4 41:0.372549 42:0.333333 43:0.278431 44:0.215686 45:0 46:0 47:0 48:0 49:0 50:0 51:0 52:0 53:0 54:0 55:0 56:0.262745 57:0.337255 58:0.384314 59:0.431373 60:0.458824 61:0.470588 62:0.47451 63:0.470588 64:0.458824 65:0.435294 66:0.4 67:0.34902 68:0.282353 69:0.184314 70:0 71:0 72:0 73:0 74:0 75:0 76:0 77:0 78:0 79:0.254902 80:0.337255 81:0.388235 82:0.435294 83:0.466667 84:0.494118 85:0.509804 86:0.517647 87:0.517647 88:0.509804 89:0.490196 90:0.454902 91:0.403922 92:0.341176 93:0.258824 94:0 95:0 96:0 97:0 98:0 99:0 100:0.196078 101:0.231373 102:0.262745 103:0.321569 104:0.372549 105:0.431373 106:0.462745 107:0.494118 108:0.513726 109:0.529412 110:0.541176 111:0.541176 112:0.533333 113:0.52549 114:0.501961 115:0.454902 116:0.396078 117:0.317647 118:0.219608 119:0 120:0 121:0 122:0 123:0.203922 124:0.25098 125:0.282353 126:0.317647 127:0.364706 128:0.415686 129:0.454902 130:0.482353 131:0.505882 132:0.52549 133:0.541176 134:0.552941 135:0.552941 136:0.545098 137:0.533333 138:0.521569 139:0.486275 140:0.435294 141:0.360784 142:0.270588 143:0 144:0 145:0 146:0.192157 147:0.247059 148:0.290196 149:0.32549 150:0.360784 151:0.411765 152:0.447059 153:0.478431 154:0.501961 155:0.521569 156:0.541176 157:0.552941 158:0.560784 159:0.560784 160:0.552941 161:0.541176 162:0.533333 163:0.505882 164:0.466667 165:0.396078 166:0.305882 167:0.192157 168:0 169:0 170:0.219608 171:0.282353 172:0.329412 173:0.364706 174:0.411765 175:0.454902 176:0.478431 177:0.501961 178:0.521569 179:0.537255 180:0.552941 181:0.564706 182:0.572549 183:0.572549 184:0.568627 185:0.556863 186:0.541176 187:0.521569 188:0.486275 189:0.427451 190:0.337255 191:0.231373 192:0 193:0 194:0.235294 195:0.305882 196:0.356863 197:0.407843 198:0.454902 199:0.486275 200:0.501961 201:0.521569 202:0.541176 203:0.556863 204:0.568627 205:0.580392 206:0.588235 207:0.596078 208:0.596078 209:0.580392 210:0.564706 211:0.541176 212:0.505882 213:0.454902 214:0.372549 215:0.270588 216:0.176471 217:0 218:0.247059 219:0.32549 220:0.380392 221:0.443137 222:0.478431 223:0.505882 224:0.521569 225:0.537255 226:0.552941 227:0.568627 228:0.580392 229:0.592157 230:0.6 231:0.603922 232:0.607843 233:0.603922 234:0.588235 235:0.560784 236:0.52549 237:0.47451 238:0.4 239:0.301961 240:0.2 241:0 242:0.254902 243:0.329412 244:0.396078 245:0.458824 246:0.494118 247:0.517647 248:0.537255 249:0.552941 250:0.568627 251:0.584314 252:0.596078 253:0.603922 254:0.615686 255:0.619608 256:0.619608 257:0.615686 258:0.603922 259:0.576471 260:0.541176 261:0.490196 262:0.427451 263:0.337255 264:0.243137 265:0 266:0.258824 267:0.333333 268:0.403922 269:0.466667 270:0.501961 271:0.529412 272:0.54902 273:0.568627 274:0.588235 275:0.6 276:0.611765 277:0.619608 278:0.623529 279:0.623529 280:0.623529 281:0.619608 282:0.607843 283:0.584314 284:0.54902 285:0.498039 286:0.443137 287:0.360784 288:0.278431 289:0 290:0.258824 291:0.333333 292:0.4 293:0.466667 294:0.501961 295:0.537255 296:0.552941 297:0.580392 298:0.596078 299:0.607843 300:0.619608 301:0.623529 302:0.623529 303:0.623529 304:0.619608 305:0.615686 306:0.603922 307:0.584314 308:0.54902 309:0.505882 310:0.458824 311:0.384314 312:0.305882 313:0 314:0.254902 315:0.329412 316:0.396078 317:0.462745 318:0.501961 319:0.533333 320:0.556863 321:0.584314 322:0.603922 323:0.615686 324:0.623529 325:0.627451 326:0.627451 327:0.623529 328:0.619608 329:0.611765 330:0.6 331:0.584314 332:0.556863 333:0.513726 334:0.466667 335:0.4 336:0.329412 337:0 338:0.25098 339:0.32549 340:0.388235 341:0.454902 342:0.505882 343:0.537255 344:0.556863 345:0.592157 346:0.611765 347:0.623529 348:0.631373 349:0.635294 350:0.635294 351:0.631373 352:0.623529 353:0.611765 354:0.603922 355:0.592157 356:0.564706 357:0.521569 358:0.47451 359:0.403922 360:0.333333 361:0 362:0.239216 363:0.317647 364:0.376471 365:0.447059 366:0.509804 367:0.541176 368:0.568627 369:0.607843 370:0.627451 371:0.639216 372:0.647059 373:0.654902 374:0.654902 375:0.647059 376:0.639216 377:0.627451 378:0.611765 379:0.596078 380:0.576471 381:0.533333 382:0.478431 383:0.4 384:0.32549 385:0 386:0.219608 387:0.298039 388:0.364706 389:0.439216 390:0.517647 391:0.552941 392:0.592157 393:0.627451 394:0.647059 395:0.666667 396:0.67451 397:0.678431 398:0.67451 399:0.670588 400:0.658824 401:0.643137 402:0.627451 403:0.607843 404:0.588235 405:0.541176 406:0.478431 407:0.392157 408:0.309804 409:0 410:0.196078 411:0.27451 412:0.34902 413:0.423529 414:0.509804 415:0.568627 416:0.607843 417:0.639216 418:0.662745 419:0.682353 420:0.694118 421:0.694118 422:0.694118 423:0.690196 424:0.686275 425:0.666667 426:0.647059 427:0.623529 428:0.592157 429:0.541176 430:0.462745 431:0.372549 432:0.282353 433:0 434:0.180392 435:0.25098 436:0.329412 437:0.415686 438:0.501961 439:0.568627 440:0.607843 441:0.643137 442:0.67451 443:0.694118 444:0.701961 445:0.705882 446:0.709804 447:0.709804 448:0.701961 449:0.682353 450:0.654902 451:0.623529 452:0.588235 453:0.521569 454:0.435294 455:0.341176 456:0.243137 457:0 458:0 459:0.215686 460:0.301961 461:0.388235 462:0.470588 463:0.54902 464:0.596078 465:0.631373 466:0.666667 467:0.694118 468:0.705882 469:0.713726 470:0.721569 471:0.721569 472:0.709804 473:0.686275 474:0.65098 475:0.611765 476:0.560784 477:0.482353 478:0.388235 479:0.282353 480:0.215686 481:0 482:0 483:0.180392 484:0.266667 485:0.352941 486:0.435294 487:0.513726 488:0.576471 489:0.611765 490:0.647059 491:0.682353 492:0.705882 493:0.713726 494:0.721569 495:0.717647 496:0.698039 497:0.662745 498:0.623529 499:0.568627 500:0.494118 501:0.4 502:0.301961 503:0.223529 504:0.0901961 505:0 506:0 507:0 508:0.215686 509:0.305882 510:0.392157 511:0.466667 512:0.52549 513:0.576471 514:0.615686 515:0.654902 516:0.682353 517:0.698039 518:0.705882 519:0.690196 520:0.654902 521:0.611765 522:0.556863 523:0.482353 524:0.396078 525:0.294118 526:0 527:0 528:0 529:0 530:0 531:0 532:0 533:0.254902 534:0.337255 535:0.415686 536:0.47451 537:0.52549 538:0.560784 539:0.596078 540:0.627451 541:0.647059 542:0.643137 543:0.611765 544:0.572549 545:0.509804 546:0.439216 547:0.34902 548:0.243137 549:0 550:0 551:0 552:0 553:0 554:0 555:0 556:0 557:0.2 558:0.27451 559:0.352941 560:0.415686 561:0.466667 562:0.490196 563:0.517647 564:0.545098 565:0.560784 566:0.545098 567:0.505882 568:0.447059 569:0.376471 570:0.294118 571:0 572:0 573:0 574:0 575:0 576:0 
3.939635412118862 1:0 2:0 3:0 4:0 5:0 6:0 7:0 8:0 9:0.184314 10:0.219608 11:0.243137 12:0.262745 13:0.27451 14:0.282353 15:0.286275 16:0.278431 17:0.266667 18:0.243137 19:0.207843 20:0 21:0 22:0 23:0 24:0 25:0 26:0 27:0 28:0 29:0 30:0 31:0 32:0 33:0.243137 34:0.270588 35:0.294118 36:0.313726 37:0.329412 38:0.341176 39:0.34902 40:0.345098 41:0.337255 42:0.321569 43:0.282353 44:0.231373 45:0 46:0 47:0 48:0 49:0 50:0 51:0 52:0 53:0 54:0 55:0 56:0.247059 57:0.298039 58:0.32549 59:0.34902 60:0.368627 61:0.384314 62:0.4 63:0.411765 64:0.415686 65:0.403922 66:0.384314 67:0.34902 68:0.301961 69:0.239216 70:0.113725 71:0 72:0 73:0 74:0 75:0 76:0 77:0 78:0 79:0.254902 80:0.298039 81:0.341176 82:0.372549 83:0.4 84:0.419608 85:0.435294 86:0.454902 87:0.466667 88:0.466667 89:0.454902 90:0.443137 91:0.403922 92:0.356863 93:0.298039 94:0.223529 95:0 96:0 97:0 98:0 99:0.188235 100:0.215686 101:0.235294 102:0.266667 103:0.301961 104:0.345098 105:0.384314 106:0.403922 107:0.431373 108:0.454902 109:0.482353 110:0.498039 111:0.505882 112:0.509804 113:0.501961 114:0.486275 115:0.454902 116:0.4 117:0.34902 118:0.27451 119:0.152941 120:0 121:0 122:0.180392 123:0.223529 124:0.243137 125:0.290196 126:0.313726 127:0.34902 128:0.380392 129:0.403922 130:0.431373 131:0.462745 132:0.490196 133:0.513726 134:0.529412 135:0.541176 136:0.545098 137:0.545098 138:0.529412 139:0.494118 140:0.45098 141:0.384314 142:0.309804 143:0.219608 144:0 145:0 146:0.203922 147:0.243137 148:0.290196 149:0.333333 150:0.352941 151:0.384314 152:0.4 153:0.431373 154:0.462745 155:0.498039 156:0.521569 157:0.541176 158:0.560784 159:0.568627 160:0.572549 161:0.568627 162:0.560784 163:0.533333 164:0.486275 165:0.415686 166:0.345098 167:0.25098 168:0 169:0 170:0.223529 171:0.270588 172:0.333333 173:0.368627 174:0.392157 175:0.411765 176:0.439216 177:0.470588 178:0.505882 179:0.52549 180:0.541176 181:0.560784 182:0.576471 183:0.6 184:0.611765 185:0.607843 186:0.592157 187:0.564706 188:0.521569 189:0.462745 190:0.376471 191:0.286275 192:0.188235 193:0.0117647 194:0.239216 195:0.301961 196:0.356863 197:0.403922 198:0.423529 199:0.45098 200:0.478431 201:0.505882 202:0.529412 203:0.545098 204:0.568627 205:0.584314 206:0.615686 207:0.631373 208:0.639216 209:0.631373 210:0.611765 211:0.592157 212:0.54902 213:0.490196 214:0.411765 215:0.317647 216:0.215686 217:0.0156863 218:0.254902 219:0.329412 220:0.388235 221:0.431373 222:0.458824 223:0.486275 224:0.521569 225:0.545098 226:0.560784 227:0.584314 228:0.603922 229:0.631373 230:0.647059 231:0.658824 232:0.658824 233:0.65098 234:0.635294 235:0.607843 236:0.576471 237:0.517647 238:0.443137 239:0.345098 240:0.25098 241:0.203922 242:0.266667 243:0.345098 244:0.411765 245:0.454902 246:0.494118 247:0.541176 248:0.560784 249:0.588235 250:0.607843 251:0.627451 252:0.65098 253:0.662745 254:0.670588 255:0.67451 256:0.678431 257:0.666667 258:0.647059 259:0.619608 260:0.592157 261:0.537255 262:0.470588 263:0.372549 264:0.278431 265:0.207843 266:0.278431 267:0.360784 268:0.427451 269:0.482353 270:0.537255 271:0.564706 272:0.592157 273:0.611765 274:0.627451 275:0.647059 276:0.662745 277:0.67451 278:0.682353 279:0.690196 280:0.690196 281:0.682353 282:0.662745 283:0.631373 284:0.611765 285:0.560784 286:0.498039 287:0.403922 288:0.305882 289:0.207843 290:0.286275 291:0.368627 292:0.439216 293:0.494118 294:0.545098 295:0.564706 296:0.584314 297:0.611765 298:0.627451 299:0.647059 300:0.670588 301:0.682353 302:0.694118 303:0.698039 304:0.698039 305:0.686275 306:0.666667 307:0.643137 308:0.619608 309:0.576471 310:0.513726 311:0.423529 312:0.321569 313:0.207843 314:0.290196 315:0.376471 316:0.443137 317:0.482353 318:0.529412 319:0.556863 320:0.568627 321:0.596078 322:0.623529 323:0.647059 324:0.67451 325:0.694118 326:0.701961 327:0.705882 328:0.698039 329:0.686275 330:0.666667 331:0.65098 332:0.627451 333:0.584314 334:0.521569 335:0.427451 336:0.32549 337:0.0117647 338:0.282353 339:0.368627 340:0.439216 341:0.47451 342:0.505882 343:0.545098 344:0.564706 345:0.592157 346:0.619608 347:0.65098 348:0.67451 349:0.690196 350:0.701961 351:0.701961 352:0.694118 353:0.686275 354:0.67451 355:0.658824 356:0.635294 357:0.588235 358:0.521569 359:0.423529 360:0.321569 361:0 362:0.266667 363:0.352941 364:0.411765 365:0.466667 366:0.482353 367:0.533333 368:0.568627 369:0.603922 370:0.619608 371:0.643137 372:0.662745 373:0.678431 374:0.686275 375:0.686275 376:0.686275 377:0.686275 378:0.682353 379:0.666667 380:0.639216 381:0.584314 382:0.513726 383:0.411765 384:0.305882 385:0 386:0.235294 387:0.329412 388:0.384314 389:0.447059 390:0.482353 391:0.513726 392:0.560784 393:0.596078 394:0.611765 395:0.619608 396:0.643137 397:0.662745 398:0.67451 399:0.682353 400:0.690196 401:0.698039 402:0.694118 403:0.67451 404:0.639216 405:0.576471 406:0.498039 407:0.392157 408:0.290196 409:0 410:0.207843 411:0.294118 412:0.360784 413:0.427451 414:0.478431 415:0.505882 416:0.533333 417:0.572549 418:0.592157 419:0.603922 420:0.623529 421:0.65098 422:0.670588 423:0.690196 424:0.705882 425:0.709804 426:0.701961 427:0.678431 428:0.631373 429:0.564706 430:0.482353 431:0.376471 432:0.270588 433:0 434:0 435:0.266667 436:0.341176 437:0.411765 438:0.470588 439:0.501961 440:0.517647 441:0.545098 442:0.572549 443:0.592157 444:0.619608 445:0.65098 446:0.686275 447:0.709804 448:0.717647 449:0.717647 450:0.705882 451:0.67451 452:0.619608 453:0.545098 454:0.458824 455:0.34902 456:0.243137 457:0 458:0 459:0.235294 460:0.309804 461:0.388235 462:0.443137 463:0.486275 464:0.501961 465:0.521569 466:0.556863 467:0.584314 468:0.619608 469:0.662745 470:0.694118 471:0.713726 472:0.717647 473:0.717647 474:0.694118 475:0.654902 476:0.603922 477:0.509804 478:0.423529 479:0.305882 480:0.203922 481:0 482:0 483:0 484:0.27451 485:0.34902 486:0.407843 487:0.45098 488:0.478431 489:0.501961 490:0.537255 491:0.576471 492:0.619608 493:0.662745 494:0.690196 495:0.701961 496:0.705882 497:0.690196 498:0.662745 499:0.619608 500:0.545098 501:0.458824 502:0.360784 503:0.243137 504:0 505:0 506:0 507:0 508:0.227451 509:0.298039 510:0.356863 511:0.411765 512:0.439216 513:0.466667 514:0.509804 515:0.54902 516:0.596078 517:0.631373 518:0.658824 519:0.670588 520:0.658824 521:0.643137 522:0.607843 523:0.545098 524:0.470588 525:0.372549 526:0.266667 527:0.0313726 528:0 529:0 530:0 531:0 532:0.180392 533:0.25098 534:0.301961 535:0.352941 536:0.392157 537:0.423529 538:0.462745 539:0.505882 540:0.541176 541:0.572549 542:0.584314 543:0.588235 544:0.580392 545:0.54902 546:0.501961 547:0.443137 548:0.356863 549:0.247059 550:0 551:0 552:0 553:0 554:0 555:0 556:0 557:0.2 558:0.247059 559:0.294118 560:0.333333 561:0.368627 562:0.396078 563:0.439216 564:0.466667 565:0.486275 566:0.490196 567:0.482353 568:0.458824 569:0.423529 570:0.368627 571:0.290196 572:0 573:0 574:0 575:0 576:0 
2.573471210810295 1:0 2:0 3:0 4:0 5:0 6:0 7:0 8:0 9:0 10:0 11:0.231373 12:0.266667 13:0.290196 14:0.294118 15:0.290196 16:0.278431 17:0.258824 18:0.231373 19:0.2 20:0 21:0 22:0 23:0 24:0 25:0 26:0 27:0 28:0 29:0 30:0 31:0 32:0 33:0.109804 34:0.25098 35:0.290196 36:0.317647 37:0.333333 38:0.341176 39:0.341176 40:0.321569 41:0.298039 42:0.278431 43:0.247059 44:0.207843 45:0 46:0 47:0 48:0 49:0 50:0 51:0 52:0 53:0 54:0.188235 55:0.211765 56:0.254902 57:0.298039 58:0.321569 59:0.34902 60:0.364706 61:0.376471 62:0.380392 63:0.380392 64:0.372549 65:0.34902 66:0.317647 67:0.290196 68:0.258824 69:0.207843 70:0 71:0 72:0 73:0 74:0 75:0 76:0.207843 77:0.239216 78:0.262745 79:0.290196 80:0.32549 81:0.360784 82:0.380392 83:0.396078 84:0.403922 85:0.407843 86:0.411765 87:0.415686 88:0.411765 89:0.392157 90:0.372549 91:0.333333 92:0.298039 93:0.254902 94:0.196078 95:0 96:0 97:0 98:0 99:0.219608 100:0.266667 101:0.305882 102:0.32549 103:0.352941 104:0.380392 105:0.403922 106:0.419608 107:0.435294 108:0.443137 109:0.443137 110:0.443137 111:0.447059 112:0.447059 113:0.439216 114:0.407843 115:0.380392 116:0.337255 117:0.290196 118:0.235294 119:0 120:0 121:0 122:0.215686 123:0.262745 124:0.313726 125:0.352941 126:0.376471 127:0.4 128:0.415686 129:0.439216 130:0.458824 131:0.470588 132:0.47451 133:0.470588 134:0.466667 135:0.470588 136:0.470588 137:0.466667 138:0.45098 139:0.415686 140:0.380392 141:0.32549 142:0.270588 143:0.203922 144:0 145:0 146:0.239216 147:0.298039 148:0.345098 149:0.384314 150:0.411765 151:0.427451 152:0.443137 153:0.462745 154:0.482353 155:0.486275 156:0.490196 157:0.490196 158:0.498039 159:0.505882 160:0.501961 161:0.494118 162:0.478431 163:0.447059 164:0.407843 165:0.356863 166:0.298039 167:0.231373 168:0.0588235 169:0 170:0.258824 171:0.32549 172:0.376471 173:0.415686 174:0.439216 175:0.45098 176:0.466667 177:0.486275 178:0.501961 179:0.505882 180:0.509804 181:0.521569 182:0.529412 183:0.529412 184:0.529412 185:0.521569 186:0.505882 187:0.47451 188:0.435294 189:0.388235 190:0.321569 191:0.258824 192:0.184314 193:0 194:0.278431 195:0.345098 196:0.4 197:0.443137 198:0.466667 199:0.486275 200:0.498039 201:0.513726 202:0.517647 203:0.529412 204:0.537255 205:0.54902 206:0.552941 207:0.556863 208:0.552941 209:0.541176 210:0.521569 211:0.498039 212:0.458824 213:0.407843 214:0.34902 215:0.278431 216:0.207843 217:0 218:0.294118 219:0.364706 220:0.419608 221:0.466667 222:0.494118 223:0.521569 224:0.541176 225:0.560784 226:0.568627 227:0.584314 228:0.592157 229:0.6 230:0.592157 231:0.576471 232:0.568627 233:0.556863 234:0.533333 235:0.501961 236:0.47451 237:0.419608 238:0.364706 239:0.298039 240:0.231373 241:0.211765 242:0.305882 243:0.372549 244:0.435294 245:0.482353 246:0.52549 247:0.552941 248:0.580392 249:0.603922 250:0.623529 251:0.635294 252:0.647059 253:0.643137 254:0.627451 255:0.603922 256:0.584314 257:0.568627 258:0.545098 259:0.505882 260:0.478431 261:0.427451 262:0.380392 263:0.317647 264:0.254902 265:0.219608 266:0.305882 267:0.376471 268:0.447059 269:0.498039 270:0.545098 271:0.584314 272:0.611765 273:0.631373 274:0.647059 275:0.666667 276:0.678431 277:0.67451 278:0.654902 279:0.627451 280:0.603922 281:0.576471 282:0.54902 283:0.509804 284:0.482353 285:0.443137 286:0.396078 287:0.337255 288:0.27451 289:0.219608 290:0.298039 291:0.376471 292:0.45098 293:0.513726 294:0.564706 295:0.603922 296:0.627451 297:0.654902 298:0.666667 299:0.690196 300:0.709804 301:0.709804 302:0.686275 303:0.65098 304:0.623529 305:0.592157 306:0.556863 307:0.521569 308:0.490196 309:0.454902 310:0.411765 311:0.34902 312:0.286275 313:0.2 314:0.282353 315:0.372549 316:0.45098 317:0.521569 318:0.580392 319:0.619608 320:0.643137 321:0.67451 322:0.701961 323:0.733333 324:0.741176 325:0.733333 326:0.713726 327:0.67451 328:0.643137 329:0.607843 330:0.576471 331:0.541176 332:0.505882 333:0.470588 334:0.427451 335:0.364706 336:0.294118 337:0.192157 338:0.262745 339:0.360784 340:0.447059 341:0.517647 342:0.580392 343:0.623529 344:0.658824 345:0.701961 346:0.72549 347:0.756863 348:0.760784 349:0.74902 350:0.72549 351:0.694118 352:0.658824 353:0.627451 354:0.596078 355:0.564706 356:0.529412 357:0.486275 358:0.443137 359:0.372549 360:0.298039 361:0 362:0.235294 363:0.337255 364:0.431373 365:0.505882 366:0.572549 367:0.623529 368:0.678431 369:0.717647 370:0.745098 371:0.764706 372:0.768627 373:0.756863 374:0.733333 375:0.701961 376:0.670588 377:0.643137 378:0.615686 379:0.584314 380:0.54902 381:0.501961 382:0.454902 383:0.372549 384:0.294118 385:0 386:0.219608 387:0.313726 388:0.411765 389:0.494118 390:0.560784 391:0.619608 392:0.678431 393:0.72549 394:0.745098 395:0.764706 396:0.764706 397:0.756863 398:0.737255 399:0.713726 400:0.690196 401:0.658824 402:0.631373 403:0.596078 404:0.560784 405:0.505882 406:0.45098 407:0.364706 408:0.282353 409:0 410:0.211765 411:0.290196 412:0.388235 413:0.478431 414:0.545098 415:0.607843 416:0.662745 417:0.721569 418:0.737255 419:0.752941 420:0.756863 421:0.752941 422:0.737255 423:0.721569 424:0.705882 425:0.678431 426:0.647059 427:0.603922 428:0.560784 429:0.501961 430:0.431373 431:0.345098 432:0.25098 433:0 434:0.2 435:0.254902 436:0.356863 437:0.458824 438:0.52549 439:0.580392 440:0.639216 441:0.698039 442:0.72549 443:0.737255 444:0.745098 445:0.741176 446:0.733333 447:0.72549 448:0.709804 449:0.694118 450:0.658824 451:0.603922 452:0.545098 453:0.486275 454:0.403922 455:0.309804 456:0.211765 457:0 458:0 459:0.203922 460:0.301961 461:0.419608 462:0.494118 463:0.54902 464:0.603922 465:0.658824 466:0.701961 467:0.717647 468:0.729412 469:0.733333 470:0.729412 471:0.721569 472:0.709804 473:0.690196 474:0.65098 475:0.580392 476:0.521569 477:0.443137 478:0.360784 479:0.262745 480:0 481:0 482:0 483:0 484:0 485:0.356863 486:0.439216 487:0.505882 488:0.556863 489:0.611765 490:0.662745 491:0.690196 492:0.705882 493:0.717647 494:0.717647 495:0.705882 496:0.694118 497:0.662745 498:0.607843 499:0.541176 500:0.47451 501:0.388235 502:0.298039 503:0.152941 504:0 505:0 506:0 507:0 508:0 509:0 510:0.384314 511:0.454902 512:0.505882 513:0.560784 514:0.611765 515:0.65098 516:0.67451 517:0.686275 518:0.690196 519:0.678431 520:0.65098 521:0.607843 522:0.54902 523:0.482353 524:0.403922 525:0.313726 526:0.192157 527:0 528:0 529:0 530:0 531:0 532:0 533:0 534:0.309804 535:0.396078 536:0.45098 537:0.505882 538:0.552941 539:0.592157 540:0.619608 541:0.631373 542:0.631373 543:0.619608 544:0.588235 545:0.533333 546:0.482353 547:0.4 548:0.317647 549:0.207843 550:0 551:0 552:0 553:0 554:0 555:0 556:0 557:0 558:0.231373 559:0.32549 560:0.392157 561:0.447059 562:0.490196 563:0.52549 564:0.545098 565:0.556863 566:0.560784 567:0.545098 568:0.509804 569:0.45098 570:0.380392 571:0.294118 572:0 573:0 574:0 575:0 576:0 
